tree
version=v3
num_class=1
num_tree_per_iteration=1
label_index=0
max_feature_idx=129
objective=binary sigmoid:1
feature_names=NAME_CONTRACT_TYPE CODE_GENDER FLAG_OWN_CAR FLAG_OWN_REALTY CNT_CHILDREN AMT_INCOME_TOTAL AMT_CREDIT AMT_ANNUITY AMT_GOODS_PRICE NAME_TYPE_SUITE NAME_INCOME_TYPE NAME_EDUCATION_TYPE NAME_FAMILY_STATUS NAME_HOUSING_TYPE REGION_POPULATION_RELATIVE DAYS_BIRTH DAYS_EMPLOYED DAYS_REGISTRATION DAYS_ID_PUBLISH OWN_CAR_AGE FLAG_MOBIL FLAG_EMP_PHONE FLAG_WORK_PHONE FLAG_CONT_MOBILE FLAG_PHONE FLAG_EMAIL OCCUPATION_TYPE CNT_FAM_MEMBERS REGION_RATING_CLIENT REGION_RATING_CLIENT_W_CITY WEEKDAY_APPR_PROCESS_START HOUR_APPR_PROCESS_START REG_REGION_NOT_LIVE_REGION REG_REGION_NOT_WORK_REGION LIVE_REGION_NOT_WORK_REGION REG_CITY_NOT_LIVE_CITY REG_CITY_NOT_WORK_CITY LIVE_CITY_NOT_WORK_CITY ORGANIZATION_TYPE EXT_SOURCE_1 EXT_SOURCE_2 EXT_SOURCE_3 APARTMENTS_AVG BASEMENTAREA_AVG YEARS_BEGINEXPLUATATION_AVG YEARS_BUILD_AVG COMMONAREA_AVG ELEVATORS_AVG ENTRANCES_AVG FLOORSMAX_AVG FLOORSMIN_AVG LANDAREA_AVG LIVINGAPARTMENTS_AVG LIVINGAREA_AVG NONLIVINGAPARTMENTS_AVG NONLIVINGAREA_AVG APARTMENTS_MODE BASEMENTAREA_MODE YEARS_BEGINEXPLUATATION_MODE YEARS_BUILD_MODE COMMONAREA_MODE ELEVATORS_MODE ENTRANCES_MODE FLOORSMAX_MODE FLOORSMIN_MODE LANDAREA_MODE LIVINGAPARTMENTS_MODE LIVINGAREA_MODE NONLIVINGAPARTMENTS_MODE NONLIVINGAREA_MODE APARTMENTS_MEDI BASEMENTAREA_MEDI YEARS_BEGINEXPLUATATION_MEDI YEARS_BUILD_MEDI COMMONAREA_MEDI ELEVATORS_MEDI ENTRANCES_MEDI FLOORSMAX_MEDI FLOORSMIN_MEDI LANDAREA_MEDI LIVINGAPARTMENTS_MEDI LIVINGAREA_MEDI NONLIVINGAPARTMENTS_MEDI NONLIVINGAREA_MEDI FONDKAPREMONT_MODE HOUSETYPE_MODE TOTALAREA_MODE WALLSMATERIAL_MODE EMERGENCYSTATE_MODE OBS_30_CNT_SOCIAL_CIRCLE DEF_30_CNT_SOCIAL_CIRCLE OBS_60_CNT_SOCIAL_CIRCLE DEF_60_CNT_SOCIAL_CIRCLE DAYS_LAST_PHONE_CHANGE FLAG_DOCUMENT_2 FLAG_DOCUMENT_3 FLAG_DOCUMENT_4 FLAG_DOCUMENT_5 FLAG_DOCUMENT_6 FLAG_DOCUMENT_7 FLAG_DOCUMENT_8 FLAG_DOCUMENT_9 FLAG_DOCUMENT_10 FLAG_DOCUMENT_11 FLAG_DOCUMENT_12 FLAG_DOCUMENT_13 FLAG_DOCUMENT_14 FLAG_DOCUMENT_15 FLAG_DOCUMENT_16 FLAG_DOCUMENT_17 FLAG_DOCUMENT_18 FLAG_DOCUMENT_19 FLAG_DOCUMENT_20 FLAG_DOCUMENT_21 AMT_REQ_CREDIT_BUREAU_HOUR AMT_REQ_CREDIT_BUREAU_DAY AMT_REQ_CREDIT_BUREAU_WEEK AMT_REQ_CREDIT_BUREAU_MON AMT_REQ_CREDIT_BUREAU_QRT AMT_REQ_CREDIT_BUREAU_YEAR INCOME_div_PERSON INCOME_div_EMPLOYED EXT_SOURCE_mean EXT_SOURCE_max EXT_SOURCE_min EXT_SOURCE_std EXT_SOURCE_count DAYS_EMPLOYED_div_BIRTH ANNUITY_div_INCOME ANNUITY_div_CREDIT
feature_infos=-1:0:1 -1:0:1 -1:0:1 -1:1:0 [0:19] [25650:117000000] [45000:4050000] [1615.5:258025.5] [45000:4050000] -1:6:1:5:0:4:7:3 -1:7:1:3:4:6:5:0 -1:4:1:2:3 -1:1:3:0:2:5 -1:1:5:2:4:3 [0.0002899169921875:0.072509765625] [-25229:-7673] [-17584:0] [-24672:0] [-7197:0] [0:91] none [0:1] [0:1] [0:1] [0:1] [0:1] -1:18:8:14:3:10:4:6:0:11:16:2:1:12:9:15:17:13:5 [1:20] [1:3] [1:3] -1:5:6:1:4:0:2:3 [0:23] [0:1] [0:1] [0:1] [0:1] [0:1] [0:1] -1:5:57:42:33:30:4:11:39:51:28:7:3:55:47:26:20:40:13:16:31:1:2:34:35:53:41:46:38:43:56:24:54:14:9:12:21:50:27:44:22:10:19:0:8:36:45:17:29:32:6:52:23:15:37:48:18:49 [0.01456451416015625:0.95166015625] [5.9604644775390625e-08:0.85498046875] [0.00052738189697265625:0.89599609375] [0:1] [0:1] [0:1] [0:1] [0:1] [0:1] [0:1] [0:1] [0:1] [0:1] [0:1] [0:1] [0:1] [0:1] [0:1] [0:1] [0:1] [0:1] [0:1] [0:1] [0:1] [0:1] [0:1] [0:1] [0:1] [0:1] [0:1] [0:1] [0:1] [0:1] [0:1] [0:1] [0:1] [0:1] [0:1] [0:1] [0:1] [0:1] [0:1] [0:1] [0:1] [0:1] -1:0:3:4:1:2 -1:1:0:2 [0:1] -1:7:4:5:0:6:1:2 -1:0:2 [0:348] [0:34] [0:344] [0:24] [-4292:0] none [0:1] none [0:1] [0:1] [0:1] [0:1] [0:1] none [0:1] none [0:1] [0:1] [0:1] [0:1] [0:1] [0:1] [0:1] [0:1] [0:1] [0:3] [0:9] [0:8] [0:27] [0:8] [0:25] [2812.5:39000000] [-126898.04772234272:inf] [1.1444091796875e-05:0.87890625] [1.1444091796875e-05:0.95166015625] [5.9604644775390625e-08:0.87890625] [0:0.65185546875] [0:3] [0:0.71875] [0.00022387504577636719:1.8759765625] [0.0220794677734375:0.12445068359375]
tree_sizes=3571 3645 3643 3648 3644 3620 3587 3645 3626 3667 3631 3644 3610 3665 3630 3617 3652 3687 3601 3678 3640 3666 3665 3619 3646 3666 3676 3691 3621 3688 3653 3622 3679 3641 3623 3651 3657 3666 3688 3680 3690 3680 3710 3704 3635 3666 3650 3683 3655 3698 3688 3672 3631 3663 3708 3649 3681 3704 3636 3682 3657 3646 3686 3650 3682 3693 3645 3625 3665 3724 3697 3708 3682 3659 3722 3647 3643 3661 3692 3696 3683 3637 3655 3677 3616 3620 3660 3650 3613 3675 3701 3657 3673 3622 3689 3686 3647 3608 3733 3700 3610 3652 3621 3691 3713 3707 3631 3646 3647 3695 3626 3702 3616 3644 3658 3733 3631 3610 3699 3678 3653 3566 3680 3665 3649 3610 3573 3559 3626 3709 3573 3620 3663 3597 3531 3688 3623 3654 3592 3624 3632 3581 3581 3643 3689 3636 3707 3650 3575 3582 3558 3643 3583 3601 3636 3622 3619 3638 3579 3563 3617 3578 3615 3590 3592 3575 3577 3659 3597 3594 3634 3666 3611 3556 3623 3602 3518 3551 3546 3582 3579 3549 3596 3645 3582 3571 3614 3610 3554 3553 3607 3563 3585 3638 3621 3659 3597 3549 3564 3538 3595 3643 3635 3562 3561 3585 3588 3597 3520 3589 3582 3591 3586 3637 3592 3576 3562 3639 3638 3596 3575 3572 3644 3547 3623 3603 3565 3591 3563 3568 3617 3573 3562 3609 3599 3557 3574 3585 3582 3596 3600 3607 3592 3568 3590 3591 3591 3601 3589 3621 3656 3579 3573 3607 3572 3591 3570 3585 3626 3581 3601 3562 3598 3560 3607 3554 3547 3608 3613 3577 3539 3598 3608 3563 3589 3608 3554 3548 3624 3607 3574 3551 3565 3565 3564 3580 3564 3581 3578 3602 3632 3580 3595 3592 3600 3604 3568 3602 3525 3619 3547 3607 3558 3555 3628 3579 3563 3579 3608 3597 3631 3573 3629 3577 3675

Tree=0
num_leaves=32
num_cat=3
split_feature=122 122 122 124 122 125 38 121 123 41 7 129 38 129 127 125 127 129 8 129 46 11 7 41 122 124 122 95 39 7 41
split_gain=9406.87 1575.57 1279.96 512.397 272.523 235.333 233.287 228.344 183.603 172.38 155.836 210.094 147.138 146.076 133.354 105.299 104.854 96.6538 89.336 86.3862 83.0324 82.4373 79.9516 75.5479 74.1902 71.7637 71.7 68.9203 68.837 64.3854 62.9531
threshold=0.37048339843750006 0.51342773437500011 0.24578857421875003 0.080657958984375014 0.43005371093750006 0.092864990234375014 0 -20.814821154191549 0.70190429687500011 0.26147460937500006 15153.750000000002 0.046524047851562507 1 0.049972534179687507 0.20245361328125003 0.18499755859375003 0.17535400390625003 0.092376708984375014 451660.50000000006 0.096343994140625014 0.029052734375000003 2 17516.250000000004 0.26147460937500006 0.33215332031250006 0.17462158203125003 0.58178710937500011 1.0000000180025095e-35 0.15496826171875003 12377.250000000002 0.32727050781250006
decision_type=8 10 10 10 10 8 9 8 10 8 10 10 9 10 8 8 8 10 10 10 10 9 10 8 10 10 10 2 8 10 8
left_child=2 4 3 5 12 19 10 9 15 -5 -4 -12 -2 18 20 -3 21 25 -13 27 22 -6 -7 -14 28 -15 -10 -1 -8 -29 -30
right_child=1 8 6 7 16 14 24 -9 26 -11 11 13 23 17 -16 -17 -18 -19 -20 -21 -22 -23 -24 -25 -26 -27 -28 29 30 -31 -32
leaf_value=-2.2536565453263293 -2.4333306700139539 -2.458330159785465 -2.3940649756941705 -2.2842887062705062 -2.4214817210860109 -2.2921324553772777 -2.3094756495447917 -2.3965157070876297 -2.4555318443157987 -2.3441768616326302 -2.386311930968934 -2.2746002685775446 -2.3798231505358038 -2.3228869257508582 -2.3317858317002771 -2.4406614190575344 -2.445718915519441 -2.3978626632715234 -2.3542882532897216 -2.3978916205469627 -2.3535311860423116 -2.4437314530953533 -2.2272302700953555 -2.4090620101155293 -2.4199042735337635 -2.3604068836002181 -2.4705700138668547 -2.3184400960610203 -2.3688131439590636 -2.1041250188834542 -2.4086381324028228
leaf_weight=13.50651480257511 581.89331080764532 3355.8494471013546 349.09145951271057 193.9891741424799 1369.2043852061033 73.172657117247581 26.493548266589642 126.15975365042686 977.81230241060257 315.69623060524464 382.33826518058777 113.76641314476728 281.63309711962938 230.50129108130932 88.979732133448124 1126.2355419993401 1505.1600726693869 97.736703269183636 50.909171178936958 3.9332158491015425 21.372946500778198 587.83024039119482 134.99093640595675 1024.8624693602324 298.62755805253983 285.04683163017035 4185.2385099232197 3.8590042293071738 166.01139348000288 38.144772574305534 246.6794241964817
leaf_count=182 7841 45220 4704 2614 18450 986 357 1700 13176 4254 5152 1533 3795 3106 1199 15176 20282 1317 686 53 288 7921 1819 13810 4024 3841 56396 52 2237 514 3324
internal_value=-2.43249 -2.44922 -2.35552 -2.30888 -2.42746 -2.26278 -2.37656 -2.33629 -2.46129 -2.32138 -2.36522 -2.35596 -2.41218 -2.34105 -2.27982 -2.45389 -2.4358 -2.35227 -2.29924 -2.17145 -2.25968 -2.42817 -2.25004 -2.40298 -2.4011 -2.34363 -2.46772 -2.15541 -2.3876 -2.12381 -2.39262
internal_weight=0 14995.7 3261.01 1013.8 5350.58 377.96 2247.2 635.845 9645.14 509.685 1509.39 1160.3 1888.39 777.96 318.516 4482.08 3462.19 613.285 164.676 59.4435 229.537 1957.03 208.164 1306.5 737.812 515.548 5163.05 55.5103 439.184 42.0038 412.691
internal_count=246009 202067 43942 13661 72099 5093 30281 8568 129968 6868 20339 15635 25446 10483 4292 60396 46653 8264 2219 801 3093 26371 2805 17605 9942 6947 69572 748 5918 566 5561
cat_boundaries=0 2 4 5
cat_threshold=1074880690 15238474 1229659716 51665540 24
is_linear=0
shrinkage=1


Tree=1
num_leaves=32
num_cat=4
split_feature=122 122 122 124 122 41 122 95 123 121 26 38 129 129 41 125 16 129 125 15 39 41 41 95 38 53 129 129 26 7 7
split_gain=8108.41 1222.08 1117.35 354.588 245.487 210.361 184.137 152.73 152.507 135.386 131.294 122.444 100.852 111.739 95.3054 94.735 89.194 87.4783 82.6895 80.739 69.435 67.2256 61.0913 57.7891 54.2321 53.4872 52.4915 53.8482 47.9571 46.6392 44.763
threshold=0.39392089843750006 0.25866699218750006 0.53149414062500011 0.14422607421875003 0.33215332031250006 0.20739746093750003 0.47375488281250006 1.0000000180025095e-35 0.70483398437500011 -20.814821154191549 0 1 0.092376708984375014 0.046768188476562507 0.25732421875000006 0.18231201171875003 -3012.9999999999995 0.050003051757812507 0.096038818359375014 -9518.4999999999982 0.61254882812500011 0.26574707031250006 0.15332031250000003 1.0000000180025095e-35 2 0.065155029296875014 0.046524047851562507 0.092926025390625014 3 16791.750000000004 13740.750000000002
decision_type=8 10 10 10 10 8 10 2 10 8 9 9 10 10 8 8 10 10 8 2 8 8 10 2 9 10 10 10 9 10 10
left_child=1 3 6 5 7 18 10 -3 15 22 20 14 13 -9 -6 -4 -7 -15 -1 25 -2 -12 -5 -16 -8 -18 -25 -28 -17 -19 -20
right_child=2 4 8 9 11 16 24 12 -10 -11 21 -13 -14 17 23 28 19 29 30 -21 -22 -23 -24 26 -26 -27 27 -29 -30 -31 -32
leaf_value=0.18543440004856532 0.0075713456746989167 0.031206340412725388 -0.026582632032257997 0.063491838321071456 0.067919318447255614 0.065572155900595244 -0.0023853782401434208 0.051834172000400539 -0.035483739609355198 0.015717864847736119 0.019815741277008976 0.012448913049702843 0.019254538599105218 0.12533643887890561 0.0067156388411791258 -0.017808548544628308 0.13732564475267825 0.049327490859976876 0.081713315970749184 0.075076013633364455 0.030689790200671085 -0.0062782046538096287 0.10530663010942352 0.017881779647836531 -0.017024301900642812 0.082237188158670468 0.058579794764447593 0.0085242315899556088 0.0045998382545508849 0.088471595112751766 0.14519393839871528
leaf_weight=128.09869980812073 610.3518109023571 337.84242223203182 2940.9673155024648 205.44880057126284 256.92855908721685 124.64191829413176 1181.7629746645689 303.93168230354786 4681.9331062212586 101.0322230681777 302.32531420886517 628.05172923952341 86.702550806105137 130.96574737131596 167.225112400949 565.8665312603116 240.6527281999588 103.42405381053686 34.761700913310051 99.148027800023556 694.19182968139648 1344.6226175799966 151.95506662875414 181.55051144957542 1384.5774548053741 53.938272334635258 328.49777258187532 64.234905026853085 406.33499374985695 287.98011050373316 138.06937897950411
leaf_count=1468 8147 4357 40510 2578 3284 1569 16016 3938 65017 1320 4037 8349 1132 1625 2177 7684 2888 1338 426 1197 9261 18105 1860 2375 18833 659 4216 844 5517 3626 1656
internal_value=0 0.0613442 -0.0181225 0.102036 0.0432743 0.121738 -0.000563581 0.059928 -0.0293948 0.0668233 0.00795353 0.0304667 0.070556 0.075939 0.0412626 -0.0221097 0.102435 0.089964 0.15499 0.114104 0.0197223 -0.00147924 0.08127 0.0325827 -0.0103589 0.127239 0.0401149 0.0503928 -0.00857875 0.0781282 0.132426
internal_weight=0 4155.08 14112.9 1277.75 2877.34 819.311 5517.83 1250.85 8595.1 458.436 2951.49 1626.49 913.004 826.302 998.437 3913.17 518.381 522.37 300.93 393.739 1304.54 1646.95 357.404 741.508 2566.34 294.591 574.283 392.733 972.202 391.404 172.831
internal_count=246009 52882 193127 15621 37261 9863 74399 16016 118728 5758 39550 21245 11659 10527 12896 53711 6313 6589 3550 4744 17408 22142 4438 9612 34849 3547 7435 5060 13201 4964 2082
cat_boundaries=0 1 3 5 6
cat_threshold=254738 68157618 15238227 540705762 13710681 298063
is_linear=0
shrinkage=0.05


Tree=2
num_leaves=32
num_cat=2
split_feature=122 122 122 124 38 41 26 121 123 7 129 39 129 124 16 129 41 41 15 40 129 41 70 125 127 129 95 8 6 8 122
split_gain=7104.35 1167.98 825.274 342.484 227.553 163.572 148.302 147.17 123.367 118.757 136.359 94.6299 93.2354 82.2974 74.0695 69.0269 66.3256 65.1656 64.6705 63.8233 61.3796 61.3086 59.5985 57.6565 56.3632 50.1287 48.1527 49.2206 48.0561 45.1381 44.2142
threshold=0.41296386718750006 0.29064941406250006 0.54711914062500011 0.12033081054687501 0 0.24121093750000003 1 -20.814821154191549 0.66430664062500011 15153.750000000002 0.046524047851562507 0.14959716796875003 0.049972534179687507 0.091278076171875014 -1531.4999999999998 0.048477172851562507 0.32727050781250006 0.31787109375000006 -19689.499999999996 0.066802978515625014 0.092376708984375014 0.31787109375000006 0.085632324218750014 0.13909912109375003 0.097015380859375014 0.092926025390625014 1.0000000180025095e-35 675191.25000000012 193536.00000000003 451660.50000000006 0.49304199218750006
decision_type=8 10 10 10 9 8 9 8 10 10 10 10 10 10 10 10 8 10 2 8 10 8 10 8 10 10 2 10 2 10 10
left_child=1 3 6 5 9 19 11 21 23 -3 -11 14 15 -14 -2 24 -6 -8 -7 -1 22 -5 -15 -4 -12 26 -20 -28 -21 -30 -16
right_child=2 4 8 7 16 18 17 -9 -10 10 12 -13 13 20 30 -17 -18 -19 25 28 -22 -23 -24 -25 -26 -27 27 -29 29 -31 -32
leaf_value=0.16571670602894759 0.0021146254606134369 0.019405159291501863 -0.024630459100456054 0.086554138787243232 0.030507820354099147 0.045560658045180259 -0.0010825940748980937 0.0215706054831677 -0.033470230167850647 0.028600791967374424 0.10114792500986501 -0.0054548643165794409 0.10164469128392034 0.062849797081033137 0.037873217266541165 0.1266196026567592 0.006900059248645095 -0.016215437547242049 0.065771554527504106 0.064245770817215178 0.013141364824076913 0.058482107033423852 0.023440219942979006 -0.0057586605273281808 0.032131660962855101 0.041504961252002981 0.11639026302891775 0.062227976724477753 0.14218831871902909 0.098137915756946054 0.01056250763281566
leaf_weight=90.982141613960266 587.45435904711485 400.09154961258173 1298.4074060469866 346.23026118427515 468.32496820390224 82.914850145578384 1039.9170341566205 188.07094453275204 5791.5411481410265 482.54191553592682 59.843736551702023 1101.8211865052581 78.174919076263905 433.8974694609642 369.54278805106878 82.466134414076805 815.73897574841976 2251.9903125837445 85.816820397973061 36.747505076229572 109.20588682591915 443.81117698550224 123.16535726934671 588.01775909215212 58.500881031155586 41.79204186797142 269.51493784040213 49.677925191819668 153.7389911711216 93.536444023251534 247.41511759907007
leaf_count=926 7909 5096 18286 3951 5990 984 14115 2385 82488 6140 717 14905 940 5332 4846 962 10634 30937 978 415 1411 5311 1516 8047 706 478 2997 558 1648 1012 3389
internal_value=0 0.0507465 -0.0192084 0.0818308 0.0319396 0.104004 -0.00460899 0.0613217 -0.0298531 0.0432443 0.0502272 0.0051122 0.0612673 0.0531116 0.0148216 0.0915022 0.0153904 -0.0114003 0.0861155 0.129272 0.0474171 0.0707845 0.0541364 -0.0187479 0.0670314 0.0936414 0.0990213 0.107961 0.117597 0.125525 0.026921
internal_weight=0 4994.79 13276.1 1882.83 3111.95 904.722 5598.14 978.112 7677.97 1827.89 1427.8 2306.23 945.254 744.444 1204.41 200.811 1284.06 3291.91 529.717 375.005 666.269 790.041 557.063 1886.43 118.345 446.802 405.01 319.193 284.023 247.275 616.958
internal_count=246009 61087 184922 21643 39444 9996 76101 11647 108821 22820 17724 31049 11584 9199 16144 2385 16624 45052 5995 4001 8259 9262 6848 26333 1423 5011 4533 3555 3075 2660 8235
cat_boundaries=0 2 3
cat_threshold=3170482 15238473 90898
is_linear=0
shrinkage=0.05


Tree=3
num_leaves=32
num_cat=3
split_feature=122 122 122 124 38 26 129 123 95 129 7 129 121 122 125 122 124 129 58 41 41 41 39 129 129 26 8 6 125 91 39
split_gain=6240.09 919.398 780.479 259.552 187.386 135.049 122.348 122.165 103.758 133.222 94.2588 102.256 92.5729 85.8243 76.9835 69.5696 69.2856 65.559 62.3628 61.7186 57.7329 56.8216 53.9602 46.6147 74.1724 44.8544 43.1177 72.2556 45.2444 42.5107 39.4062
threshold=0.41296386718750006 0.29064941406250006 0.54711914062500011 0.15203857421875003 0 1 0.092926025390625014 0.70483398437500011 1.0000000180025095e-35 0.046524047851562507 15153.750000000002 0.046524047851562507 -20.814821154191549 0.47375488281250006 0.18231201171875003 0.17071533203125003 0.13665771484375003 0.080230712890625014 0.97973632812500011 0.40576171875000006 0.38854980468750006 0.34497070312500006 0.61254882812500011 0.092926025390625014 0.078582763671875014 2 451660.50000000006 495036.00000000006 0.25329589843750006 11.500000000000002 0.14410400390625003
decision_type=8 10 10 10 9 9 10 10 2 10 10 10 8 10 8 10 10 10 10 10 8 8 8 8 10 9 8 2 8 10 10
left_child=1 3 5 6 10 13 8 14 -1 -10 -3 29 20 22 -4 -11 -13 18 26 23 -5 -6 -2 24 -7 -16 27 -18 -29 -12 -15
right_child=2 4 7 12 21 19 -8 -9 9 15 11 16 -14 30 25 -17 17 -19 -20 -21 -22 -23 -24 -25 -26 -27 -28 28 -30 -31 -32
leaf_value=0.064937300335980608 0.0029713105165245892 0.01840357173432576 -0.026268768182295784 0.074455032965638532 0.027612021576595654 -0.003759270075049826 0.034326627971157354 -0.034726587662282128 0.07006118655105778 0.13304240344957022 0.025994480066744957 0.079836401723250919 0.015815686380425829 0.0046309591877111205 0.0053753025380722484 0.098583261256687885 0.05970527875773704 0.01511224942988767 0.02762002630400889 -0.017462860425458551 0.043823653431634899 0.0064908754810707363 0.02602487913556157 -0.031012169623394398 0.045690154047600823 -0.018267222596828361 0.040746319493401212 0.093874586405288452 0.18167128642765665 0.22606917078494582 -0.01285895659840694
leaf_weight=276.0033051893115 461.57644081860781 399.59357754141092 2451.456819690764 299.59493348747492 528.88489392399788 1313.4411564767361 101.5789462774992 4220.9652008712292 257.15755160152912 252.61739230155945 484.9127588570118 219.80161835998297 157.91340450197458 673.86448212713003 340.88821128755808 348.58350805938244 242.97541147470474 126.58584132790565 160.59841715544462 1724.8452364131808 316.15482401102781 800.25345408916473 563.94893359392881 141.62006019800901 80.479939058423042 472.46928494423628 142.77204786241055 67.288864605128765 18.766494482755661 2.669551618397235 616.86834658682346
leaf_count=2956 6163 5008 35381 3265 6607 17976 1108 62179 2681 2442 6026 2470 1980 9145 4666 3578 2806 1588 1893 24041 3633 10364 7241 1938 1097 6595 1675 761 213 33 8500
internal_value=0 0.0461825 -0.0185601 0.0726804 0.0295163 -0.00439988 0.0868973 -0.029109 0.0916048 0.10018 0.0397181 0.0457973 0.0499687 0.00483031 -0.0218463 0.113063 0.0551164 0.0479575 0.054532 -0.0109385 0.0587274 0.0147841 0.0156487 -0.00368104 -0.00090424 -0.00851685 0.0636927 0.0736495 0.113021 0.0270899 -0.00372784
internal_weight=0 5204.71 13062.4 2009.6 3195.1 5576.64 1235.94 7485.78 1134.36 858.358 1865.96 1466.37 773.663 2316.26 3264.81 601.201 978.789 758.987 632.401 3260.39 615.75 1329.14 1025.53 1535.54 1393.92 813.357 471.803 329.031 86.0554 487.582 1290.73
internal_count=246009 61087 184922 21643 39444 76101 12765 108821 11657 8701 22473 17465 8878 31049 46642 6020 11406 8936 7348 45052 6898 16971 13404 21011 19073 11261 5455 3780 974 6059 17645
cat_boundaries=0 2 3 4
cat_threshold=3162290 15238473 90898 217904
is_linear=0
shrinkage=0.05


Tree=4
num_leaves=32
num_cat=3
split_feature=122 122 122 124 38 26 41 127 123 11 41 41 127 7 16 129 6 8 15 92 6 8 129 95 16 7 41 129 129 95 127
split_gain=5511.37 927.527 607.915 246.272 159.574 150.617 126.108 111.022 110.07 98.9552 91.8093 75.09 66.2228 63.1858 61.1109 57.6365 85.1835 57.5703 52.9177 50.5731 50.2284 49.1423 53.5695 47.0426 49.3681 45.8334 45.1044 44.7377 43.9424 48.0196 43.7671
threshold=0.42785644531250006 0.32458496093750006 0.55395507812500011 0.080657958984375014 0 1 0.35803222656250006 0.17535400390625003 0.70190429687500011 2 0.26147460937500006 0.24121093750000003 0.16583251953125003 13502.250000000002 -2008.4999999999998 0.046768188476562507 292626.00000000006 451660.50000000006 -21725.499999999996 1.0000000180025095e-35 463527.00000000006 451660.50000000006 0.093536376953125014 1.0000000180025095e-35 -1898.4999999999998 27893.250000000004 0.26574707031250006 0.046524047851562507 0.094818115234375014 1.0000000180025095e-35 0.087677001953125014
decision_type=8 10 10 10 9 9 8 8 10 9 8 8 8 10 10 10 2 8 2 10 2 10 10 2 10 10 8 10 10 2 10
left_child=1 3 7 6 10 27 23 9 14 15 -3 -7 -8 -12 -4 -2 -17 20 -13 -20 -18 22 25 -1 -25 -15 -6 -5 29 -29 -31
right_child=2 4 8 5 26 11 12 -9 -10 -11 13 18 -14 21 -16 16 17 -19 19 -21 -22 -23 -24 24 -26 -27 -28 28 -30 30 -32
leaf_value=0.072414895839000099 -0.004802202045256769 0.04872316169387713 -0.027544890048575306 0.048510180966012825 0.023007898845250202 0.057774595512049068 0.078197094373196274 -0.014628258074755193 -0.034132225514571672 -0.013941946886694681 0.0012657747380560389 0.0025036785434798038 0.033664565097858576 0.036731339622290547 -0.012817446840562477 -0.0016479690906215485 0.02330636827015644 0.0065654941199232604 0.032361345827997073 0.075532105128527441 0.059464095628887763 0.0178516258587537 0.0034266536757790859 0.084281611183706848 0.12542411476680568 0.072863778879811547 0.00075508548523722731 0.054307456110590117 0.038689885868145021 0.10748855321435308 0.073785704093563192
leaf_weight=100.36313253641129 783.94054926931858 479.0913216099143 1691.3195622041821 179.90671786665916 303.75885713100433 395.73276077955961 233.42273622006178 2326.0274598821998 4114.5275927707553 888.06086995452642 262.43510840833187 133.09385876357555 129.96205598115921 397.43478950858116 1207.080849468708 593.53735122084618 283.16774674504995 284.75703626126051 670.74609180539846 75.472303859889507 145.34852803498507 567.56729534268379 92.886291489005089 109.97749849408865 216.34666727483273 112.64094337821007 909.5943338945508 118.59115200489759 65.822263769805431 193.28884701430798 192.02922606468201
leaf_count=986 10653 5540 24659 1975 3780 4099 2260 32559 62421 12335 3317 1622 1379 4678 17499 8030 3828 3866 7471 836 1960 6992 1183 1032 1926 1290 11826 1297 744 1975 1991
internal_value=0 0.0394214 -0.019214 0.0602408 0.0206715 0.0510021 0.0839165 -0.00644261 -0.0288748 -5.0788e-05 0.0296199 0.0393787 0.0622703 0.0234397 -0.0214114 0.0058881 0.0123461 0.0239911 0.0315474 0.0367276 0.0355707 0.0284111 0.0383508 0.102351 0.111558 0.0447105 0.00627429 0.0693221 0.0771107 0.0821293 0.0906922
internal_weight=0 5940.16 12317.8 2814.76 3125.41 2024.68 790.072 5304.84 7012.93 2978.81 1912.06 1275.05 363.385 1432.96 2898.4 2090.75 1306.81 713.273 879.312 746.218 428.516 1170.53 602.962 426.687 326.324 510.076 1213.35 749.638 569.731 503.909 385.318
internal_count=246009 68199 177810 29593 38606 22010 7583 73231 104579 40672 23000 14028 3639 17460 42158 28337 17684 9654 9929 8307 5788 14143 7151 3944 2958 5968 15606 7982 6007 5263 3966
cat_boundaries=0 2 3 4
cat_threshold=11559083 15238235 66324 24
is_linear=0
shrinkage=0.05


Tree=5
num_leaves=32
num_cat=6
split_feature=122 122 122 124 38 38 122 123 26 7 39 41 127 16 125 41 15 41 124 26 44 41 129 19 15 11 129 7 95 1 122
split_gain=4893.16 760.523 575.558 195.684 137.239 117.85 107.633 107.079 105.045 76.1864 71.712 65.5918 65.2884 60.1924 60.0318 50.5512 50.1418 48.9651 46.6422 43.6562 40.2746 39.8985 38.5817 39.405 38.5217 38.437 41.7792 49.0236 36.9149 34.5855 34.3128
threshold=0.42785644531250006 0.32458496093750006 0.55395507812500011 0.14422607421875003 0 1 0.22320556640625003 0.70190429687500011 2 13502.250000000002 0.14410400390625003 0.20739746093750003 0.099090576171875014 -1963.4999999999998 0.13592529296875003 0.40576171875000006 -18255.499999999996 0.22448730468750003 0.12860107421875003 3 0.97338867187500011 0.31311035156250006 0.092071533203125014 10.500000000000002 -9518.4999999999982 4 0.046524047851562507 15711.750000000002 1.0000000180025095e-35 5 0.66821289062500011
decision_type=8 10 10 10 9 9 10 10 9 10 10 8 10 10 8 10 2 8 10 9 10 8 10 8 2 9 10 10 2 9 10
left_child=1 3 8 6 9 25 11 14 10 -3 13 -1 18 -2 -4 -10 -13 -8 -11 -16 22 -6 23 -20 -18 -5 -27 -28 -7 -19 -9
right_child=2 4 7 5 21 28 17 30 15 12 -12 16 -14 -15 19 -17 24 29 20 -21 -22 -23 -24 -25 -26 26 27 -29 -30 -31 -32
leaf_value=0.095962883623377557 -0.0035556857040209139 0.0058771907373708146 -0.025644741997357407 0.020738556881976983 0.01900974890162653 0.00605947989070936 0.067721802027540162 -0.028683666640218666 -0.0051103275140958714 0.069187068445562327 -0.0073551745333294456 0.037701338048697242 0.022055973614333035 0.019777283541135282 0.0035140336336560067 -0.017988433625968189 0.083938159135312149 0.02839199698817162 0.017348372235901032 -0.018915553188867659 0.021894637489807224 -0.00029853359622021038 -0.0034049457711005887 0.059281369343939787 0.048693539496804036 0.038156320893147078 0.043227434487763033 0.07764476862236111 0.032154332486044511 0.057521910840857109 -0.037952908877402998
leaf_weight=329.82979807257652 451.71467554569244 335.03748563677073 1951.0302427709103 113.97645373642445 396.34191164374352 205.31756272912025 294.96746792644262 1954.9967455938458 1394.4943109154701 132.93728225678205 1037.8739911094308 111.02546621114016 813.26860684156418 712.18447060137987 362.4259407222271 1680.1309281587601 321.80634368211031 234.11762687563896 68.780428282916546 532.53597452491522 271.66662064194679 823.37746641784906 35.010786801576614 302.09017911553383 102.13371805846691 163.95810382068157 147.9342050999403 344.18701476603746 398.72542082518339 180.42021392285824 2040.4657321050763
leaf_count=2696 6132 4158 29323 1207 4878 2387 2873 30500 19404 1467 14318 1114 9488 9308 5083 24069 2881 2428 795 7752 3196 10728 438 3458 952 1779 1601 3493 4359 1823 31921
internal_value=0 0.0362593 -0.0185684 0.0545497 0.019293 0.0407621 0.066584 -0.0281381 -0.00616028 0.0274455 0.00219063 0.0784259 0.0320648 0.0107216 -0.0207265 -0.0121082 0.0676135 0.0521503 0.042108 -0.0100045 0.036795 0.00592701 0.0467682 0.0515046 0.0754472 0.0537734 0.0591148 0.0672987 0.0229053 0.0410703 -0.0334174
internal_weight=0 6126.91 12117.9 2948.4 3178.51 1374.1 1574.3 6841.45 5276.4 1958.79 2201.77 864.795 1623.75 1163.9 2845.99 3074.63 534.966 709.505 810.485 894.962 677.548 1219.72 405.881 370.871 423.94 770.056 656.079 492.121 604.043 414.538 3995.46
internal_count=246009 68199 177810 29593 38606 14826 14767 104579 73231 23000 29758 7643 18842 15440 42158 43473 4947 7124 9354 12835 7887 15606 4691 4253 3833 8080 6873 5094 6746 4251 62421
cat_boundaries=0 2 4 5 6 7 8
cat_threshold=11559083 15238235 96442 4195648 115474 213808 2 1
is_linear=0
shrinkage=0.05


Tree=6
num_leaves=32
num_cat=7
split_feature=122 122 122 124 38 26 26 123 41 41 39 16 15 1 11 41 95 124 41 81 26 121 15 39 7 15 40 39 15 19 1
split_gain=4358.85 653.617 529.417 176.631 118.755 110.154 102.97 94.264 86.4689 76.7042 68.4688 59.5722 57.7121 56.3459 51.5827 49.6905 43.9534 43.9853 61.0638 42.9162 41.7997 41.4278 41.4233 40.3553 39.4421 39.2344 38.2316 37.9599 35.5573 35.0401 45.4061
threshold=0.43005371093750006 0.33215332031250006 0.56372070312500011 0.12033081054687501 0 1 2 0.65795898437500011 0.30847167968750006 0.26147460937500006 0.14410400390625003 -1919.4999999999998 -18803.499999999996 3 4 0.41613769531250006 1.0000000180025095e-35 0.063385009765625014 0.027976989746093753 0.080261230468750014 5 -87.943790614309322 -9875.4999999999982 0.20880126953125003 12377.250000000002 -16431.499999999996 0.066802978515625014 0.29187011718750006 -15660.499999999998 14.500000000000002 6
decision_type=8 10 10 10 9 9 9 10 8 8 10 10 2 9 9 10 2 10 10 10 9 10 2 8 10 2 8 10 2 8 9
left_child=1 3 5 8 9 10 -5 -4 16 -3 11 -2 23 19 -11 -7 -1 18 28 25 -9 26 -14 -8 -20 -10 -16 -27 -18 -13 -31
right_child=2 4 7 6 -6 15 12 20 13 14 -12 29 22 -15 21 -17 17 -19 24 -21 -22 -23 -24 -25 -26 27 -28 -29 -30 30 -32
leaf_value=0.051914539919139552 -0.0040768240982130902 0.040287935515987271 -0.015745910174958529 0.054256045941300984 0.0027387260882138741 -0.0061044007181804217 0.21478883190555861 -0.034581474046605297 0.019650150305272916 0.0010892628702406091 -0.0077478344699270854 0.00067596543916650194 0.042067666034250745 0.065791084814996834 0.10060607337349921 -0.018447153482321947 -0.0019289392876129297 0.068114360867550558 0.045058384490241812 -0.0056282327278138018 -0.024150342920022966 0.012264949302602343 0.016433379660775557 0.0090541293708887565 0.11627503790526812 0.065610358467076177 0.029044724208117007 0.012974627674839598 0.084448656092213401 0.011058249560150661 0.040016923027315833
leaf_weight=163.62115554511547 483.7291554659605 523.43490573763847 1242.1887477114797 694.78460354357958 1028.0272367447615 1504.9774060845375 2.4019606783986083 3307.1345676667988 113.73087518662214 356.40759836882353 1064.2012446448207 201.73343709856272 638.32393323630095 306.21942695230246 19.181476719677448 1779.7490221634507 21.403063908219337 287.16483868658543 21.761534690856934 51.016871228814125 1721.7856842763722 506.65387024730444 209.25872602313757 311.10795200616121 182.3877484574914 182.01036301255226 691.89702886343002 42.19409254938364 26.873884208500385 279.43126011639833 262.54353857785463
leaf_count=1472 6637 5730 18527 6915 13296 21180 26 52629 1152 4256 14877 2629 6562 2798 209 26053 185 2447 180 504 27200 6043 2157 3578 1400 1642 8078 403 216 3631 3397
internal_value=0 0.0331491 -0.0181133 0.0488335 0.0168191 -0.00690469 0.0387219 -0.0280802 0.062253 0.0235944 0.00152728 0.00958134 0.028712 0.049748 0.0181934 -0.0127532 0.0746151 0.0814986 0.0967247 0.0371174 -0.0311269 0.0230016 0.0357388 0.0106304 0.108684 0.0435706 0.0309751 0.0557046 0.0461541 0.018465 0.0250864
internal_weight=0 6379.86 11847.5 3254.26 3125.6 5576.37 1855.88 6271.11 1398.38 2097.57 2291.64 1227.44 1161.09 695.172 1574.14 3284.73 703.212 539.591 252.426 388.952 5028.92 1217.73 847.583 313.51 204.149 337.935 711.079 224.204 48.2769 743.708 541.975
internal_count=246009 69249 176760 31637 37612 78404 19238 98356 12399 24316 31171 16294 12323 6499 18586 47233 5900 4428 1981 3701 79829 14330 8719 3604 1580 3197 8287 2045 401 9657 7028
cat_boundaries=0 2 3 4 5 6 7 8
cat_threshold=11559099 15238491 82706 66324 1 6 265293 1
is_linear=0
shrinkage=0.05


Tree=7
num_leaves=32
num_cat=3
split_feature=122 122 122 124 127 123 95 127 129 129 11 11 129 41 16 129 127 7 129 129 129 6 0 8 15 41 129 41 7 129 125
split_gain=3890.67 549.664 499.836 144.323 108.574 102.596 96.5037 94.7798 82.1449 87.6786 80.3596 71.3765 66.5059 64.2018 58.9584 49.1838 48.6597 48.6067 62.1691 87.4045 47.4446 73.4698 46.2146 46.1873 43.3022 39.554 39.3788 39.1515 39.7212 38.2304 37.9307
threshold=0.43005371093750006 0.33215332031250006 0.55395507812500011 0.080657958984375014 0.15655517578125003 0.70190429687500011 1.0000000180025095e-35 0.17535400390625003 0.094818115234375014 0.046524047851562507 0 1 0.049972534179687507 0.30847167968750006 -2008.4999999999998 0.048629760742187507 0.16583251953125003 14046.750000000002 0.046524047851562507 0.049972534179687507 0.046768188476562507 292626.00000000006 2 451660.50000000006 -10621.499999999998 0.25732421875000006 0.092376708984375014 0.027976989746093753 10644.750000000002 0.066864013671875014 0.19415283203125003
decision_type=10 8 10 10 8 10 2 8 10 10 9 9 10 8 10 10 8 10 10 10 10 2 1 10 2 8 8 10 10 10 8
left_child=1 3 7 13 11 14 -5 10 9 -8 20 17 15 27 -4 -11 -15 -3 -19 30 -2 -22 23 -23 -13 -6 -9 -1 -29 -14 -20
right_child=2 4 5 6 25 -7 8 26 -10 12 -12 24 29 16 -16 -17 -18 18 19 -21 21 22 -24 -25 -26 -27 -28 28 -30 -31 -32
leaf_value=0.039066834450475152 -0.0043960037588854795 0.010849421772622081 -0.025580574855775508 0.021271787282915657 0.020441166787774617 -0.032036575983118633 0.030673661617114906 -0.011333151464133502 0.010077858243278816 0.057982785609383726 -0.012724650257340675 0.01849147277535405 0.038449896658225458 0.059956961923248689 -0.010734876610179824 0.099662256340776398 0.026362188641221945 0.017329679151401284 0.05011734231296977 0.033718103634929289 -0.0019114965923868286 0.035911751530678909 -0.027926168109433089 0.0090591396841943322 -0.011778374087057975 0.00011715919552518057 -0.033036367982929978 0.032922052890328006 0.085361679228730822 0.060082032094639332 0.099084967606953234
leaf_weight=67.595792010426521 765.06436823308468 270.42987013608217 1589.8771612718701 623.09203557670116 312.47350493818521 3780.4495954848826 528.48253301531076 1986.0285702422261 161.55409517139196 162.93755366653204 852.08266253769398 315.15671957284212 453.85443161427975 309.67849887907505 1154.3669495657086 125.14484126865864 165.33262496441603 350.80405008047819 75.462566383183002 558.84571054577827 579.475152797997 405.08953769505024 43.431461423635483 264.82368479669094 189.00478984415531 1023.5895015671849 233.58586148172617 40.077174477279186 364.9242182597518 371.36715841293335 83.09234269708395
leaf_count=558 10485 3300 24659 6502 3582 62421 5360 28659 1681 1473 12134 3696 4263 2600 17499 1094 1597 4123 815 6278 7872 5313 586 3592 2256 12832 3401 338 2730 3441 869
internal_value=0 0.0306419 -0.0175134 0.0446979 0.0157228 -0.0266947 0.0382355 -0.00583512 0.0440968 0.0474443 0.000100717 0.0235909 0.0554053 0.0612454 -0.0193357 0.0760886 0.0482639 0.0295645 0.0345793 0.0430142 0.00544653 0.0113133 0.0220562 0.0252966 0.00700469 0.00487046 -0.0136171 0.0742931 0.0801725 0.0481848 0.0757793
internal_weight=0 6552.9 11654.3 3374.04 3178.86 6524.69 2426.43 5129.58 1803.34 1641.79 2909.97 1842.8 1113.3 947.608 2744.24 288.082 475.011 1338.63 1068.2 717.401 2057.88 1292.82 713.345 669.913 504.162 1336.06 2219.61 472.597 405.001 825.222 158.555
internal_count=246009 69388 176621 31637 37751 104579 23814 72042 17312 15631 39982 21337 10271 7823 42158 2567 4197 15385 12085 7962 27848 17363 9491 8905 5952 16414 32060 3626 3068 7704 1684
cat_boundaries=0 1 2 3
cat_threshold=24 24 1
is_linear=0
shrinkage=0.05


Tree=8
num_leaves=32
num_cat=7
split_feature=122 122 122 124 38 16 123 39 122 26 41 1 19 125 7 129 124 15 11 129 41 26 8 6 15 11 15 38 7 125 58
split_gain=3483.45 501.142 440.229 127.674 105.125 95.4893 89.4244 87.6289 82.8878 77.9379 63.7905 50.7519 75.7164 50.3601 46.049 67.6409 43.9538 43.8683 53.7758 43.1223 41.1637 40.0252 38.1991 46.6296 37.2648 38.0405 36.5762 36.4126 36.2734 34.5295 33.7356
threshold=0.43640136718750006 0.33215332031250006 0.56811523437500011 0.16046142578125003 0 -2346.9999999999995 0.65795898437500011 0.14410400390625003 0.25231933593750006 1 0.26147460937500006 2 42.500000000000007 0.035446166992187507 13502.250000000002 0.046524047851562507 0.056869506835937507 -14511.499999999998 3 0.092926025390625014 0.43029785156250006 4 451660.50000000006 485770.50000000006 -17922.499999999996 5 -14864.499999999998 6 13502.250000000002 0.11776733398437501 0.98657226562500011
decision_type=10 8 10 10 9 10 10 10 10 9 8 9 8 8 10 10 10 2 9 10 10 9 8 2 2 9 2 9 10 8 10
left_child=1 3 5 8 -3 20 29 11 13 -5 30 17 -13 -1 -12 -16 -15 -7 -19 22 -2 -8 23 -17 -11 -26 -9 -14 -10 -4 -6
right_child=2 4 6 9 10 7 21 26 28 24 14 12 27 16 15 19 -18 18 -20 -21 -22 -23 -24 -25 25 -27 -28 -29 -30 -31 -32
leaf_value=0.092621177110858086 -0.0070822284671479829 0.00070152738875477638 -0.020930066145719631 0.043565285838861496 0.03888895189065588 -0.011786010026058336 -0.033490653439806298 0.0023125728097150833 0.011850675420346048 0.0037597142526202181 -0.0018390683295088058 0.0029503972418529539 -0.0035390578228047687 0.065850833287288732 0.0042903697033162764 0.029847693319256425 0.046442595524987751 0.025761869637777518 -0.01467324489523146 -9.6368945141412179e-05 -0.020084118712129104 -0.022950516261803791 0.014130600020366132 0.062622487745783398 0.0040762463311298531 0.034250585895149406 -0.014304952846306423 0.04497941942906411 0.040722808009358902 -0.0027317755828619211 0.0046148529501660344
leaf_weight=89.64281503111124 1080.1258358359337 1031.6249752193689 713.70317750424147 577.28946979343891 513.64399415999651 413.81557651981711 3072.1640775278211 475.80437393113971 131.91382311284542 269.74026148766279 323.58753576874733 357.18138325586915 52.677830990403891 470.30735895782709 514.74558904767036 462.41132779419422 768.23115873336792 229.98790395632386 119.16452801600099 130.37806387990713 1394.9298674724996 1610.047869887203 244.91156855225563 141.80252608656883 158.07626342773438 400.17358155548573 1089.0762889757752 233.00758588314056 620.45668961852789 410.62360611557961 83.46135089546442
leaf_count=662 15564 13327 11267 5478 5418 5700 51705 6798 1332 3028 4032 4809 700 3527 6199 5118 6367 3102 1713 1602 20906 26621 2784 1476 1590 3933 15579 3056 5720 6002 894
internal_value=0 0.0276887 -0.0173686 0.0410562 0.014169 -0.0071564 -0.0269462 -0.00111302 0.0489205 0.0294129 0.0198371 0.00794715 0.0182967 0.0564318 0.0152618 0.0189651 0.0538124 -0.000773244 0.0122791 0.0266769 -0.01441 -0.0299868 0.0307878 0.0375396 0.0187925 0.0263929 -0.00925237 0.0374836 0.0356606 -0.0142837 0.0340982
internal_weight=0 6932.4 11252.3 3485.83 3446.57 5445.77 5806.54 2970.72 2080.55 1405.28 2414.94 1405.83 642.867 1328.18 1817.84 1494.25 1238.54 762.968 349.152 979.503 2475.06 4682.21 849.125 604.214 827.99 558.25 1564.88 285.685 752.371 1124.33 597.105
internal_count=246009 72487 173522 31637 40850 77927 95595 41457 17608 14029 27523 19080 8565 10556 21211 17179 9894 10515 4815 10980 36470 78326 9378 6594 8551 5523 22377 3756 7052 17269 6312
cat_boundaries=0 2 3 4 5 6 7 9
cat_threshold=3444514564 51665540 67348 1 24 265293 6 3575652868 17355140
is_linear=0
shrinkage=0.05


Tree=9
num_leaves=32
num_cat=6
split_feature=122 122 122 41 26 38 38 122 123 7 129 129 125 41 40 11 124 129 129 7 16 29 125 11 41 95 39 129 38 129 129
split_gain=3137.8 638.615 246.5 140.844 113.519 106.315 85.8436 76.9084 76.5728 59.0737 73.9874 73.2956 56.4002 53.9114 53.5619 46.692 45.4125 43.7777 45.257 43.6125 47.4379 43.3404 43.2159 42.5716 42.3553 41.5281 33.5336 33.3446 33.6021 33.2285 51.0256
threshold=0.47375488281250006 0.34606933593750006 0.59057617187500011 0.31311035156250006 0 1 2 0.17071533203125003 0.70043945312500011 13740.750000000002 0.046524047851562507 0.092376708984375014 0.37731933593750006 0.26574707031250006 0.0096855163574218767 3 0.17840576171875003 0.092926025390625014 0.078582763671875014 12809.250000000002 -2524.9999999999995 2.5000000000000004 0.10635375976562501 4 0.48937988281250006 1.0000000180025095e-35 0.62133789062500011 0.092926025390625014 5 0.044479370117187507 0.051193237304687507
decision_type=10 8 10 8 9 9 9 10 10 10 10 10 8 8 8 9 10 8 10 10 10 2 8 9 10 2 8 8 9 10 10
left_child=1 3 6 7 13 -5 12 -1 22 -6 -11 16 17 -3 -7 -16 -12 18 -2 -17 -21 -22 -4 -8 -25 -9 -18 28 -15 -27 -31
right_child=2 4 8 5 9 14 23 25 -10 10 11 -13 -14 27 15 19 26 -19 -20 20 21 -23 -24 24 -26 29 -28 -29 -30 30 -32
leaf_value=0.067916746911314399 -0.0068131295529762163 0.015503094089447351 -0.025169420122508109 0.0075580395146696904 -0.00054554541737094611 0.082150032195796766 -0.028869235350093447 0.026748287764377817 -0.03236750255595449 0.0073194662228576865 0.049520003798349033 -0.0022519479413380303 0.018501553696768629 0.016774815113062867 0.010732077970700075 0.016498059207570855 0.015772335734219271 -0.02933045936783792 0.025762857625539592 0.020270297828188788 0.039143148099513185 0.06402554667541091 -0.0084197174579508979 -0.0064399049498430408 -0.021174915725443721 0.032699868800217517 0.035434209248439839 -0.026157019035436671 -0.0046965339928224034 0.072534561544203291 0.044050501508021422
leaf_weight=354.95873413980007 1651.6892583072186 459.22647030651569 1064.1256958507001 510.90847650915384 430.03007681667805 56.621969863772392 672.30931972339749 343.17450810223818 3136.9903422668576 755.25849385559559 271.32011128216982 185.18231628835201 238.85549733415246 203.4538611471653 241.42045398801565 228.99803318828344 413.28430784493685 201.12289125472307 113.97522651031613 233.80106873810291 686.15963730961084 234.92049445956945 603.49425774440169 948.85799229890108 1003.4433934167027 301.9302364885807 456.26248068362474 152.69172746688128 1240.1946818903089 221.21210116893053 543.56121890991926
leaf_count=2374 24413 5439 17402 5432 5382 444 10362 3260 54789 9286 2890 2304 3266 2561 2324 2222 4929 2995 1651 2233 6181 2046 9183 14014 15502 2773 5193 2103 16625 1784 4647
internal_value=0 0.0218997 -0.0197464 0.0366006 0.00915993 0.0281387 -0.0117701 0.0471147 -0.0277653 0.0162604 0.0198109 0.0269255 -0.00442159 0.000404024 0.0341425 0.03268 0.0316615 -0.00722797 -0.00471032 0.03617 0.0403839 0.0454894 -0.0191079 -0.0178608 -0.013942 0.0418774 0.0260892 -0.00393706 -0.0015869 0.0467447 0.0522896
internal_weight=0 8524.57 9634.86 3957.67 4566.9 2192.83 4830.25 1764.84 4804.61 2511.34 2081.31 1326.05 2205.64 2055.57 1681.92 1625.3 1140.87 1966.79 1765.66 1383.88 1154.88 921.08 1667.62 2624.61 1952.3 1409.88 869.547 1596.34 1443.65 1066.7 764.773
internal_count=246009 92432 153577 35720 56712 20882 72203 14838 81374 29984 24602 15316 32325 26728 15450 15006 13012 29059 26064 12682 10460 8227 26585 39878 29516 12464 10122 21289 19186 9204 6431
cat_boundaries=0 1 3 5 6 7 9
cat_threshold=301161 3429504257 34894349 4030946 13841777 2 2 538977411 12621080
is_linear=0
shrinkage=0.05


Tree=10
num_leaves=32
num_cat=5
split_feature=122 122 122 124 127 11 16 126 38 11 122 125 11 129 129 87 7 8 129 125 15 129 129 127 129 41 92 128 129 15 7
split_gain=2831.5 550.442 236.309 136.835 95.3851 92.4478 81.9211 81.2434 80.4194 69.7653 69.0071 52.6223 43.0125 42.2265 58.434 41.9323 50.1516 58.6471 46.417 45.8676 41.6274 41.6041 41.1249 40.8543 40.2753 39.5219 37.3906 37.4131 35.7933 35.5473 34.7171
threshold=0.47375488281250006 0.35852050781250006 0.61743164062500011 0.15203857421875003 0.15972900390625003 0 -2442.9999999999995 2.5000000000000004 1 2 0.22320556640625003 0.33679199218750006 3 0.045364379882812507 0.092926025390625014 4 23951.250000000004 451660.50000000006 0.060806274414062507 0.17608642578125003 -10507.499999999998 0.078582763671875014 0.094818115234375014 0.094940185546875014 0.092071533203125014 0.26574707031250006 1.0000000180025095e-35 0.23077392578125003 0.049972534179687507 -12405.499999999998 13502.250000000002
decision_type=10 8 10 10 8 9 10 2 9 9 10 8 9 10 10 9 10 10 10 8 2 10 8 10 10 8 8 10 10 2 10
left_child=1 3 5 10 9 -2 -7 13 -5 15 24 -4 -10 -8 21 16 -3 18 19 -18 -11 28 25 -14 -1 -6 -23 -28 -15 -30 -12
right_child=2 4 11 8 22 6 7 -9 12 20 30 -13 23 14 -16 -17 17 -19 -20 -21 -22 26 -24 -25 -26 -27 27 -29 29 -31 -32
leaf_value=0.053252704362526097 -0.023737784364730747 0.013855736395128352 -0.031614272499536945 0.0079162797323651165 0.016322696375691687 -0.016089941529740491 -0.0064868501770829591 -0.01455894921015119 0.0088333684491075648 0.0084632147781709497 0.014442191575121327 -0.015561534579944997 0.042679250129733254 0.034888426430175541 -0.017866226952692184 0.0035686749138657999 0.036851001700314905 0.022118157248356116 0.032335162719954992 0.10214983015560315 -0.018534414674716785 0.039759465532769815 -0.025387927545294606 0.024922552817615958 0.01974485920040002 -0.0028583593397636629 0.090942284092012382 0.33779965391928479 -0.0026968791032304391 0.025261215726049321 0.036854943056536985
leaf_weight=1004.7595563158393 1439.7960911244154 713.73975785821676 3088.4554706811905 614.35895305871964 339.44287823140621 2122.1011237390339 494.59259436652064 841.47037781402469 235.10547176748514 454.1458138525486 209.87208163738251 611.61809485778213 642.58011745661497 147.54743829369545 139.490284524858 364.21930325031281 44.715365387499332 456.41860462725163 131.4166507422924 67.471437633037567 208.25364900380373 73.360709045082331 160.42669068276882 653.23570345342159 98.466301761567593 1285.9543896764517 6.1913628913462144 2.0407913587987423 331.50716723129153 173.03623783588409 977.60240449011326
leaf_count=7206 22782 8506 54774 6649 4014 33509 7293 12832 2353 5671 2052 9915 5959 2082 2030 4332 482 5426 1494 690 2660 1021 2199 6271 786 17105 84 29 4775 2451 8577
internal_value=0 0.0204577 -0.0190972 0.0327602 0.00754461 -0.0127734 -0.00905295 -0.00233449 0.0236859 0.0139704 0.0412585 -0.0289608 0.0297681 0.00518617 0.0117981 0.019077 0.0230192 0.0326911 0.0525008 0.0761231 -2.42801e-05 0.017438 -0.0012364 0.0334696 0.050262 0.00114735 0.0510978 0.152139 0.0132263 0.00689152 0.0328938
internal_weight=0 8662.19 9471.21 4435.98 4226.2 5771.13 4331.34 2209.24 2145.28 2440.38 2290.7 3700.07 1530.92 1367.77 873.174 1777.98 1413.76 700.022 243.603 112.187 662.399 733.684 1785.82 1295.82 1103.23 1625.4 81.5929 8.23215 652.091 504.543 1187.47
internal_count=246009 92432 153577 39853 52579 88888 66106 32597 21232 29261 18621 64689 14583 19765 12472 20930 16598 8092 2666 1172 8331 10442 23318 12230 7992 21119 1134 113 9308 7226 10629
cat_boundaries=0 1 3 4 5 6
cat_threshold=2 2775188229 43809421 24 2 226
is_linear=0
shrinkage=0.05


Tree=11
num_leaves=32
num_cat=6
split_feature=122 122 122 41 38 38 38 123 39 122 39 129 15 1 19 122 129 1 15 19 41 125 29 7 8 41 19 16 18 11 41
split_gain=2557.03 475.968 225.568 112.594 98.9966 87.6545 80.2704 73.6448 63.8558 57.8037 57.0476 55.0473 51.9384 49.5838 77.0007 46.6699 43.0524 42.8586 46.557 43.4989 39.9354 39.7109 34.0153 33.9227 37.6878 33.8547 33.3717 33.1988 32.7022 32.5328 40.7809
threshold=0.47375488281250006 0.34606933593750006 0.59057617187500011 0.31311035156250006 0 1 2 0.70043945312500011 0.17364501953125003 0.23101806640625003 0.13812255859375003 0.091705322265625014 -11670.499999999998 3 64.500000000000014 0.15826416015625003 0.078582763671875014 4 -16977.499999999996 44.500000000000007 0.18145751953125003 0.10635375976562501 2.5000000000000004 14577.750000000002 451660.50000000006 0.26574707031250006 2.5000000000000004 -1783.4999999999998 -4211.4999999999991 5 0.48937988281250006
decision_type=10 8 10 8 9 9 9 10 10 10 10 8 2 9 8 10 10 9 2 8 8 8 2 10 10 8 10 10 2 9 10
left_child=1 3 6 9 8 -5 10 21 17 -1 13 16 20 -2 -15 -7 25 19 -19 -3 -10 -4 -17 -11 26 -6 -25 -24 -23 -8 -31
right_child=2 4 7 5 11 15 29 -9 12 23 -12 -13 -14 14 -16 22 -18 18 -20 -21 -22 28 27 24 -26 -27 -28 -29 -30 30 -32
leaf_value=0.05106968124727973 -0.0064579108422662306 0.018802119144886369 -0.02373848660731321 0.0065664041347889713 0.013955680654612335 0.048358982566786175 -0.027553447669057742 -0.031028644843529424 0.043483975394498775 0.015980483232891023 -0.011935462662207198 -0.026460911262953048 -0.0069557019034449472 -0.0011265933847899084 0.036156342566380749 0.021666816788194914 0.036015227880939867 -0.0060970880249804574 0.02139709287671512 0.04362922480289292 0.0097089946604860984 -0.026184726991855541 0.016690565921585233 0.056169491972512045 0.026301269670430144 -0.0034609426897984977 0.027673143738073336 0.049613530687189586 -8.1789779518218582e-05 -0.0060193273388324461 -0.021208230776332875
leaf_weight=766.76298774033785 599.10203011333942 382.38413619995117 1018.767887275666 572.01528969407082 356.37771461158991 281.66652975976467 598.67839799821377 2973.5184965953231 99.865350514650345 227.2944353967905 1191.8680957481265 186.11212357878685 474.63304375857115 338.76595727354288 234.25154777616262 1078.831301048398 89.053823478519917 222.02248782664537 502.35888408869505 327.55950551480055 707.986278437078 167.22443542256951 110.80627566576004 325.17748554050922 397.31965515762568 1285.3534747362137 150.19382962584496 247.83090638369322 424.77585919201374 867.71066968142986 900.58120220527053
leaf_count=5227 8778 4330 17402 5876 4223 2077 9664 54789 1057 2142 18271 2540 5717 4884 3240 9779 1105 2581 5754 3634 8607 2621 1022 2691 3541 17164 1237 2128 6562 13015 14351
internal_value=0 0.0191346 -0.0184603 0.0314161 0.00811416 0.0239892 -0.0108013 -0.0263643 0.0142258 0.0405314 -0.00421502 -0.000618841 0.00617159 0.00359953 0.0141148 0.0295761 0.00215639 0.0215266 0.0129701 0.030257 0.0138842 -0.0177539 0.0261015 0.0331856 0.0376667 0.000319759 0.0471661 0.0394415 -0.00745518 -0.0172884 -0.0136776
internal_weight=0 8791.61 9315.24 4157.9 4633.71 2291.15 4730.96 4584.29 2716.81 1866.75 2363.99 1916.9 1282.48 1172.12 573.018 1719.14 1730.79 1434.33 724.381 709.944 807.852 1610.77 1437.47 1099.99 872.691 1641.73 475.371 358.637 592 2366.97 1768.29
internal_count=246009 92432 153577 35720 56712 20882 72203 81374 31680 14838 35173 25032 15381 16902 8124 15006 22492 16299 8335 7964 9664 26585 12929 9611 7469 21387 3928 3150 9183 37030 27366
cat_boundaries=0 2 4 6 7 8 9
cat_threshold=565208235 15246681 3446281225 34894349 138249202 13841777 1 2 2
is_linear=0
shrinkage=0.05


Tree=12
num_leaves=32
num_cat=8
split_feature=122 122 122 124 11 127 1 19 38 38 11 125 125 16 126 128 129 15 8 6 87 7 8 6 129 0 26 129 129 129 129
split_gain=2310.52 416.443 215.963 105.133 84.6062 80.5299 74.7425 70.3941 67.2769 55.9151 54.1796 49.6377 46.6774 46.0395 44.2571 43.3316 36.0091 35.1148 34.3839 48.9719 34.3173 37.0994 47.1156 36.8997 33.1377 33.5544 32.8441 32.2865 44.2315 31.7696 31.7424
threshold=0.47375488281250006 0.35852050781250006 0.61743164062500011 0.16046142578125003 0 0.15057373046875003 1 15.500000000000002 2 3 4 0.33679199218750006 0.035446166992187507 -2442.9999999999995 2.5000000000000004 0.15277099609375003 0.092926025390625014 -10507.499999999998 451660.50000000006 540180.00000000012 5 14366.250000000002 451660.50000000006 500517.00000000006 0.046615600585937507 6 7 0.092376708984375014 0.078582763671875014 0.092071533203125014 0.044021606445312507
decision_type=10 8 10 10 9 8 9 8 9 9 9 8 8 10 2 10 8 2 10 2 9 10 8 2 10 1 9 8 10 10 10
left_child=1 3 4 9 -2 10 13 -8 26 12 20 -4 -1 -6 30 -14 24 -12 19 -17 -3 -22 23 -23 -15 -26 -5 28 -7 -11 -9
right_child=2 5 11 8 6 27 7 14 -10 29 17 -13 15 16 -16 18 -18 -19 -20 -21 21 22 -24 -25 25 -27 -28 -29 -30 -31 -32
leaf_value=0.0813417114924056 -0.022478296348014903 0.0016717525737214092 -0.030229751735135497 0.034799037116970126 -0.018941191037013083 -0.00096003115517540581 -0.012134576405825491 0.00086089981334402325 0.0065856041738616804 0.027072767534707484 0.0079887915134942544 -0.014386139885805435 0.030353496231320106 -0.013081705473450401 -0.0076417409388122417 0.048610445216346672 -0.03269583596868008 -0.017334753806136201 0.035539530773391809 0.091885623831402141 0.0048845065863349453 0.028015783158608844 0.01431299488200209 0.058449186390840728 0.0094070938773368959 -0.017768364575250894 0.018162869988206473 -0.021714881653278586 0.033888123921623846 -0.0060937139442495732 0.025537381077215579
leaf_weight=68.06012848764658 1387.835786961019 305.01085975766182 2926.2861254066229 642.61951377242804 1502.7852911688387 1613.4217661097646 593.52133188024163 191.56331997737288 678.15656057745218 818.26418719440699 444.10084878653288 594.85314896330237 758.09145919233561 519.69771074876189 243.20576570183039 402.42464774847031 116.38262321427464 197.89332505315542 381.79091095179319 78.054852001368999 297.38520868867636 464.74245247244835 561.10936990380287 126.7688116133213 538.53638187423348 143.95110984146595 727.12369413673878 172.07896514609456 96.503042936325073 79.190378956496716 407.6335362419486
leaf_count=423 22782 3581 54774 5696 24479 20853 9091 2871 7160 6711 5458 9915 5897 8036 3833 2932 1815 2558 3000 538 3651 5120 6527 1261 7963 2173 6787 2418 1152 709 5845
internal_value=0 0.0179172 -0.0178356 0.0283032 -0.0117742 0.00667025 -0.0082127 0.00105449 0.0198402 0.0350055 0.0127481 -0.0275532 0.0405374 -0.0129583 0.0103469 0.0390737 -0.0061396 0.000180058 0.0467404 0.0556406 0.0172463 0.0204885 0.0246923 0.0345381 -0.00356871 0.00367521 0.0261634 -0.00107083 0.00100669 0.0238801 0.0176483
internal_weight=0 8912.79 9166.25 4633.78 5645.11 4279.01 4257.28 1435.92 2047.9 2585.88 2397.01 3521.14 1688.42 2821.35 842.403 1620.36 1318.57 641.994 862.27 480.479 1755.02 1450.01 1152.62 591.511 1202.19 682.487 1369.74 1882 1709.92 897.455 599.197
internal_count=246009 92432 153577 39853 88888 52579 66106 21640 19643 20210 28156 64689 12790 44466 12549 12367 19987 8016 6470 3470 20140 16559 12908 6381 18172 10136 12483 24423 22005 7420 8716
cat_boundaries=0 1 2 4 6 7 8 9 10
cat_threshold=2 1 135362810 23104850 1073823920 13141066 24 20 1 66324
is_linear=0
shrinkage=0.05


Tree=13
num_leaves=32
num_cat=6
split_feature=122 122 122 127 95 38 129 129 11 126 129 129 26 26 11 41 129 129 7 8 129 7 38 127 15 129 129 15 90 124 125
split_gain=2089.33 363.247 205.308 87.3173 84.8295 80.0845 78.1762 80.1304 66.2804 52.2096 51.7167 48.0076 47.9237 46.5838 45.1147 50.0575 40.2893 44.7916 39.4447 51.8661 52.5095 41.3779 37.4389 36.5769 36.994 35.9299 35.8374 34.1057 34.0806 32.9468 30.9735
threshold=0.47375488281250006 0.33215332031250006 0.61743164062500011 0.15655517578125003 1.0000000180025095e-35 0 0.095123291015625014 0.046524047851562507 1 2.5000000000000004 0.049972534179687507 0.048629760742187507 2 3 4 0.48937988281250006 0.092376708984375014 0.078582763671875014 14046.750000000002 451660.50000000006 0.092926025390625014 24752.250000000004 5 0.12344360351562501 -9518.4999999999982 0.047042846679687507 0.10757446289062501 -10507.499999999998 1.0000000180025095e-35 0.15545654296875003 0.20758056640625003
decision_type=10 8 10 8 2 9 10 10 9 2 10 10 9 9 9 10 8 10 10 8 10 10 9 8 2 10 10 2 8 8 8
left_child=1 4 5 8 22 9 7 -6 18 13 11 25 -4 -2 -7 -16 17 29 -3 20 21 -20 -1 24 -12 -9 -8 -10 -15 -5 -14
right_child=2 3 12 16 6 14 26 10 27 -11 23 -13 30 28 15 -17 -18 -19 19 -21 -22 -23 -24 -25 -26 -27 -28 -29 -30 -31 -32
leaf_value=-0.0095394463524785672 0.011636831695778024 0.0043122279108164397 -0.031216813379701749 0.015124607719131275 0.022053909021794677 -0.027317480390506601 -0.016294318241602202 0.060622368307050083 0.0081017638222619977 -0.013318413216270756 0.047449916238299319 0.071175662344173732 -0.022835971022055566 -0.0096870973508263666 -0.0051162428184135418 -0.019906324141533878 -0.021489050129917728 0.033007309500757122 0.025524262104259284 0.012348750357356142 -0.00065022745157546275 0.049119647291708042 0.019076634385044998 0.025582356345369803 0.021047378857455567 0.023753055862051519 0.022491916525397799 -0.0142462540157266 0.022338316841111615 -0.0025456198324631473 -0.0039625940731683826
leaf_weight=129.79740733653307 624.42917808517814 420.06142926216125 2250.1899927966297 319.83807501196861 848.73331689834595 769.08506733551621 108.05380126833916 118.23567757755518 534.7933434844017 1026.3432034812868 666.99953826516867 229.44165981560946 899.33410588651896 770.95339036360383 1056.7302829362452 1247.4298902228475 193.45150691643357 112.87137132138014 501.16360878944397 835.68245577812195 124.46023837476969 295.27572224289179 833.06826560199261 549.99216780811548 165.61421745270491 149.79818585515022 132.68890910595655 250.77678630501032 93.10498571023345 1505.5148809850216 286.6823533475399
leaf_count=1131 8997 5069 42902 3763 7109 13130 990 828 6376 16517 4865 1562 17019 11781 16262 20797 2702 1283 5271 9483 1461 2828 7362 4317 1215 1119 1139 3167 1404 19392 4768
internal_value=0 0.0167989 -0.017223 0.00798591 0.0282148 -0.0113091 0.0323964 0.0348061 0.0135392 -0.00462408 0.0405629 0.0543877 -0.0268404 0.00133979 -0.0167099 -0.0130666 0.000269013 0.00244066 0.0179937 0.0213678 0.0295523 0.0342721 0.0153181 0.0355885 0.0421982 0.0400169 0.00508329 0.000955465 -0.00616491 0.000550555 -0.0181211
internal_weight=0 9026.31 9024.28 5093.89 3932.42 5588.08 2969.56 2728.81 2962.21 2514.83 1880.08 497.476 3436.21 1488.49 3073.25 2304.16 2131.68 1938.22 2176.64 1756.58 920.9 796.439 962.866 1382.61 832.614 268.034 240.743 785.57 864.058 1825.35 1186.02
internal_count=246009 92432 153577 60795 31637 88888 23144 21015 33655 38699 13906 3509 64689 22182 50189 37059 27140 24438 24112 19043 9560 8099 8493 10397 6080 1947 2129 9543 13185 23155 21787
cat_boundaries=0 2 3 4 5 6 8
cat_threshold=3965666 13841745 24 265325 8980 2 3578799624 19661317
is_linear=0
shrinkage=0.05


Tree=14
num_leaves=32
num_cat=6
split_feature=122 122 122 41 26 38 7 8 129 7 11 126 40 124 129 129 129 125 7 119 38 1 39 19 41 15 38 15 129 8 129
split_gain=1893 338.758 183.71 95.7895 90.0019 73.977 72.0488 110.181 94.2974 87.3128 67.2671 66.5135 52.5259 42.7317 42.4179 61.8769 43.0778 42.1208 40.8631 38.843 38.548 38.0109 38.6728 34.8157 34.7747 35.1028 34.3525 34.3185 33.5982 32.041 35.2014
threshold=0.47888183593750006 0.35852050781250006 0.64086914062500011 0.33044433593750006 0 1 16544.250000000004 451660.50000000006 0.092926025390625014 24905.250000000004 2 2.5000000000000004 0.0096855163574218767 0.075469970703125014 0.092926025390625014 0.078582763671875014 0.079437255859375014 0.24078369140625003 16791.750000000004 8.5000000000000018 3 4 0.10980224609375001 16.500000000000004 0.027976989746093753 -14311.499999999998 5 -14060.499999999998 0.10586547851562501 451660.50000000006 0.079925537109375014
decision_type=10 8 10 8 9 9 10 8 10 10 9 2 8 10 8 10 10 8 10 8 9 9 10 8 10 2 9 2 10 8 10
left_child=1 3 4 10 11 12 -3 8 9 -8 13 14 -5 24 15 23 -17 -4 -15 -6 -9 -14 -23 -2 25 -1 -12 -24 -10 30 -20
right_child=2 6 17 5 19 -7 7 20 28 -11 26 -13 21 18 -16 16 -18 -19 29 -21 -22 22 27 -25 -26 -27 -28 -29 -30 -31 -32
leaf_value=-0.009350449069435272 -0.011358126487176436 -0.0051400638396466398 -0.031141054744439203 0.070375308408097415 -0.019195863031247221 0.0048130681439743743 0.01463439407503909 -0.012507634707857491 -0.030662919218433695 0.042353497827205454 -0.0065802760126011592 -0.016002404351077314 0.014891033217568248 0.018279716602108975 -0.022667077348341912 0.085451268416749215 0.015445139404271294 -0.014959514142759695 0.052757883632666869 -0.0025114857844574442 0.0050583156661398662 0.037837729320648966 0.049934258448456253 0.0062612152575711351 0.056397839495351466 0.062295250147339498 0.022831246167898757 0.007179024853435652 0.0079320936113453158 0.028155155530932875 0.014727328948045085
leaf_weight=43.967177055776119 394.37238182127476 1159.4037307575345 2122.6348988823593 58.347023189067841 3177.389838501811 770.08885086327791 720.53937542065978 379.40131966769695 103.17365167289972 469.01354160532355 129.52830768376589 876.89570826292038 881.40931072086096 359.84165691584349 168.45656882226467 36.831083331257105 54.477951105684042 496.16224827989936 406.8246765434742 391.86787684261799 1571.9974531903863 535.14288294315338 58.171828769147396 969.92216701805592 382.71126338094473 27.973590232431889 415.81931232661009 242.95845852792263 124.35360990464687 420.88693561404943 71.547336988151073
leaf_count=320 6079 14864 42147 394 54458 7677 8353 4877 1420 4991 1061 14433 7581 3063 2599 513 767 8759 2987 6211 19443 4323 493 14643 2357 181 3266 2046 1599 3511 593
internal_value=0 0.0154238 -0.0170064 0.0246706 -0.0122311 0.0180209 0.0056106 0.00931089 0.0199225 0.0255634 0.0321652 -0.00488603 0.023588 0.0370473 0.00108606 0.003835 0.0436833 -0.0280753 0.0325191 -0.0173156 0.00160488 0.022136 0.029772 0.00116805 0.0504025 0.0185084 0.0158529 0.0154384 -0.00956905 0.0382171 0.0470699
internal_weight=0 9333.1 8689.01 4805.22 6070.21 2546.12 4527.88 3368.48 1417.08 1189.55 2259.1 2500.96 1776.03 1713.75 1624.06 1455.6 91.309 2618.8 1259.1 3569.26 1951.4 1717.68 836.273 1364.29 454.652 71.9408 545.348 301.13 227.527 899.259 478.372
internal_count=246009 95400 150609 39853 99703 22514 55547 40683 16363 13344 17339 39034 14837 13012 24601 22002 1280 50906 10154 60669 24320 14443 6862 20722 2858 501 4327 2539 3019 7091 3580
cat_boundaries=0 1 3 4 6 7 9
cat_threshold=213782 1403126 32017490 24 2618098268 17885828 1 2170043924 25197060
is_linear=0
shrinkage=0.05


Tree=15
num_leaves=32
num_cat=6
split_feature=122 122 122 41 38 11 26 16 126 39 11 1 129 6 129 129 125 15 129 92 19 53 19 8 6 15 124 93 1 7 8
split_gain=1714.22 324.185 157.65 84.8005 79.8425 79.3574 73.7422 68.8297 59.8762 54.826 48.9968 46.5591 42.9805 44.9359 42.069 41.3702 40.7207 40.3021 37.57 36.1526 33.4789 32.9068 30.8058 29.6974 42.2164 28.7831 34.948 28.8924 28.5754 28.2079 30.9419
threshold=0.48791503906250006 0.35852050781250006 0.64086914062500011 0.23596191406250003 0 1 2 -2442.9999999999995 2.5000000000000004 0.61254882812500011 3 4 0.046768188476562507 292626.00000000006 0.092376708984375014 0.080230712890625014 0.24078369140625003 -16977.499999999996 0.078582763671875014 1.0000000180025095e-35 9.5000000000000018 0.055450439453125007 1.5000000000000002 451660.50000000006 497634.75000000006 -18596.499999999996 0.075469970703125014 -1779.4999999999998 5 20598.750000000004 675191.25000000012
decision_type=10 8 10 8 9 9 9 10 2 8 9 9 10 2 10 8 8 2 10 10 8 10 10 8 2 2 10 10 9 10 10
left_child=1 3 5 10 9 -2 22 28 12 -3 25 17 -9 -14 19 18 -4 -11 -6 21 -13 29 -5 24 -15 27 -27 -1 -7 -8 -31
right_child=2 4 16 6 15 7 14 8 -10 11 -12 20 13 23 -16 -17 -18 -19 -20 -21 -22 -23 -24 -25 -26 26 -28 -29 -30 30 -32
leaf_value=-0.026375390406696349 -0.022761278987527882 0.0032614470269682876 -0.030442297968143874 0.033577655555186318 -0.0014662128895379933 -0.01890959827305632 0.0076984433030453589 -0.0078065637413636041 -0.013827045844478046 -0.0065582920829233482 0.015723772714466854 0.0082149971328002395 -0.002184824625132887 0.019682538637549832 -0.010936435414049135 -0.022776480267217972 -0.014404553517220156 0.017365396478236841 0.033138822834998721 0.03532778994458876 0.03500075551014508 -0.00014879494088711754 0.017592086022406282 0.0049246904974200667 0.063645171778656973 0.055828642497537578 0.035288272675766751 0.028509326715800185 -0.0058717427462437917 0.030132155116949829 0.0069707371167896676
leaf_weight=27.22866403311491 1391.6698152087629 1326.7295588776469 2064.2872399315238 848.03913229703903 1864.4581916593015 1542.3178183324635 536.73496724665165 516.64348474889994 769.14852111786604 261.63662449643016 388.6633430942893 158.32108947262168 387.23561550676823 217.94475550577044 177.95703358203173 222.34685451537371 489.68241471424699 538.08804162219167 81.878227107226849 187.50611249357462 443.26103965938091 407.90584495663643 467.53782969713211 181.54737986624241 72.864473357796669 301.26184330880642 662.43229368329048 200.87936155498028 577.66909896582365 470.77670752257109 207.86518210917711
leaf_count=217 24541 16024 42147 6766 24561 26772 4888 8059 12802 3126 2936 1815 5820 3150 1773 3157 8759 6274 953 1634 4847 3733 3763 2706 1015 1790 4930 1555 9628 3948 1920
internal_value=0 0.0139285 -0.0170562 0.0230422 0.00483706 -0.0124011 0.0184861 -0.0089465 -0.00265363 0.0105077 0.0325679 0.0174432 0.00359095 0.0104412 0.0121995 -0.00233381 -0.0273673 0.00953856 -1.04528e-05 0.0145406 0.0279514 0.0121395 0.0276862 0.020792 0.0306977 0.0376134 0.0417094 0.0219579 -0.015357 0.0162637 0.0230379
internal_weight=0 9781.51 8211.01 4884.79 4896.72 5657.04 3304.32 4265.37 2145.38 2728.04 1580.47 1401.31 1376.24 859.592 1988.75 2168.68 2553.97 799.725 1946.34 1810.79 601.582 1623.28 1315.58 472.357 290.809 1191.8 963.694 228.108 2119.99 1215.38 678.642
internal_count=246009 100610 145399 39853 60757 94493 28425 69952 33552 32086 11428 16062 20750 12691 17896 28671 50906 9400 25514 16123 6662 14489 10529 6871 4165 8492 6720 1772 36400 10756 5868
cat_boundaries=0 2 3 4 5 6 7
cat_threshold=817030305 13153369 2 70420 24 1 1
is_linear=0
shrinkage=0.05


Tree=16
num_leaves=32
num_cat=4
split_feature=122 122 122 7 8 129 7 38 26 26 125 8 129 129 129 126 122 19 129 0 123 129 68 53 6 129 7 18 15 31 41
split_gain=1554.53 261.508 168.496 79.1214 111.458 78.1534 74.8043 72.6667 67.0975 58.1742 55.4877 53.6408 43.4206 42.1911 40.2999 39.12 37.9314 37.3305 37.2793 35.2038 34.175 32.8531 42.0332 31.9296 30.3971 29.9903 38.9279 36.9613 29.0815 28.9774 28.3733
threshold=0.47888183593750006 0.31677246093750006 0.59057617187500011 16544.250000000004 675191.25000000012 0.092926025390625014 24752.250000000004 0 1 2 0.37731933593750006 451660.50000000006 0.092376708984375014 0.046859741210937507 0.10586547851562501 2.5000000000000004 0.21405029296875003 9.5000000000000018 0.092926025390625014 3 0.70043945312500011 0.046768188476562507 0.11474609375000001 0.054855346679687507 514822.50000000006 0.038986206054687507 38148.750000000007 -1797.4999999999998 -9103.4999999999982 7.5000000000000009 0.72583007812500011
decision_type=10 8 10 10 8 10 10 9 9 9 8 10 10 10 10 2 10 8 8 1 10 10 10 10 2 10 10 2 2 2 10
left_child=1 9 7 -3 5 6 13 10 20 28 17 24 16 -5 -7 29 -11 -2 19 21 -4 22 -19 -15 -8 27 -27 -13 -1 -10 -26
right_child=2 3 8 4 -6 14 11 -9 15 12 -12 25 -14 23 -16 -17 -18 18 -20 -21 -22 -23 -24 -25 30 26 -28 -29 -30 -31 -32
leaf_value=0.034896891897582376 -0.018337519660257127 -0.0028269867935306306 -0.019952947557427346 -0.0022993239390515763 -0.0023408732221626232 -0.027145355378477412 0.025428039978555212 -0.01625271798157189 0.02501971221389376 0.029337915287224042 0.0183662352234603 0.02167512325006403 -0.0045479524283903285 0.022141174278914832 0.0085963510003553064 -0.028225218412169059 0.015463343451214657 -0.0058617968506792951 -0.025264579830646783 -0.021314080361558522 -0.031976169398213454 0.01027461752076137 0.26875804287930083 0.00073993477549661466 0.044732881678831757 0.0042033493379578625 0.03130115644594568 0.075318208572598522 0.012473661546019303 -0.011419301414995043 0.14743656025172297
leaf_weight=1265.6796393692493 466.36677797883749 1502.9700523763895 888.799909055233 477.39079720154405 1218.8760594502091 147.61034093052149 323.44543255865574 1886.4294820167124 57.570508044213057 809.56244734674692 266.58775416761637 116.30681767687201 182.47967760264874 627.99528570473194 169.3464866168797 374.31538558378816 1258.2058691233397 657.19887482374907 160.75829941779375 171.30400344356894 1764.1119452379644 700.65132534503937 1.3963361121714104 241.2303270213306 336.84608558565378 443.80190158262849 188.96873827651143 44.358458980917931 163.24740060418844 1043.0060212351382 6.8617666475474826
leaf_count=8904 7521 18433 16327 5801 14638 1995 3218 31645 1054 5548 3643 1390 1619 6647 2067 7468 10389 10515 2623 2702 37092 10563 23 2636 3178 5124 2071 519 1152 19433 71
internal_value=0 0.0136334 -0.0158378 0.00706102 0.0104829 0.015486 0.0181433 -0.00892403 -0.023058 0.0240765 -0.00314125 0.0259804 0.0187488 0.00964296 -0.00804896 -0.0141661 0.0208954 -0.00581313 -0.00235962 4.61581e-05 -0.0278431 0.00273816 -0.00527956 0.0162018 0.0364299 0.017194 0.0122958 0.0364856 0.0321104 -0.0095132 0.0467833
internal_weight=0 9525.18 8438.5 5846.01 4343.04 3124.16 2807.21 4310.69 4127.8 3679.18 2424.26 1460.59 2250.25 1346.62 316.957 1474.89 2067.77 2157.68 1691.31 1530.55 2652.91 1359.25 658.595 869.226 667.153 793.436 632.771 160.665 1428.93 1100.58 343.708
internal_count=246009 95400 150609 67788 49355 34717 30655 69235 81374 27612 37590 15571 17556 15084 4062 27955 15937 33947 26426 23803 53419 21101 10538 9283 6467 9104 7195 1909 10056 20487 3249
cat_boundaries=0 2 3 4 5
cat_threshold=675120114 13841779 265325 66324 1
is_linear=0
shrinkage=0.05


Tree=17
num_leaves=32
num_cat=7
split_feature=122 122 122 16 95 38 129 129 125 95 39 38 11 129 18 41 1 129 38 15 38 129 129 129 41 38 15 36 123 8 6
split_gain=1411.72 255.266 145.423 82.7135 76.7498 68.9392 65.4162 79.1021 61.9769 49.8892 48.0443 44.6085 43.0959 40.9196 40.3792 39.4076 39.3585 36.5525 35.6502 35.2629 32.5593 31.3867 30.4169 36.1413 33.9332 28.6689 34.1238 28.5327 31.9633 28.0727 37.0102
threshold=0.48791503906250006 0.35852050781250006 0.66625976562500011 -1783.4999999999998 1.0000000180025095e-35 0 0.095123291015625014 0.046524047851562507 0.36975097656250006 1.0000000180025095e-35 0.61254882812500011 1 2 0.10757446289062501 -569.49999999999989 0.33850097656250006 3 0.080230712890625014 4 -16977.499999999996 5 0.078582763671875014 0.038986206054687507 0.032150268554687507 0.027976989746093753 6 -11620.499999999998 1.0000000180025095e-35 0.50317382812500011 451660.50000000006 514822.50000000006
decision_type=10 8 10 10 2 9 10 10 8 2 8 9 9 10 2 10 9 8 9 2 9 10 10 10 10 9 2 2 10 8 2
left_child=1 4 3 12 18 10 7 22 9 -5 -3 29 -2 -8 -13 25 19 21 -1 -12 -11 -7 23 -6 -25 26 -14 -22 -29 30 -9
right_child=2 5 -4 8 6 17 13 11 -10 20 16 14 15 -15 -16 -17 -18 -19 -20 -21 27 -23 -24 24 -26 -27 -28 28 -30 -31 -32
leaf_value=-0.012029650400065768 -0.027250482075909962 0.0027047880158670035 -0.028598876458750588 -0.021475462171011182 0.0071714596328572508 -0.0016135117879638333 -0.019053738004797663 0.039348976573183925 0.014044318744857827 -0.019680005581988944 -0.006484660434728888 0.022354972529542785 0.02675778054590678 0.017974606803612923 0.051372051579152693 -0.017152859818570034 0.025384770317295097 -0.021891358312223261 0.012659327136231292 0.015836449978225045 -0.0056232540925846832 0.029421351876669635 7.9639578985136284e-05 0.0068527045942788972 0.036523277004968088 -0.0059986168091494861 0.19607956558293957 0.26069792461737268 0.0093363801116187837 0.02216113352076551 0.068608803220247636
leaf_weight=163.24946009367704 831.63552711158991 1337.7348005659878 1755.3372476696968 557.40552229061723 351.33774483203888 1868.7777408510447 134.80497609823942 611.39356795698404 352.29213938489556 271.89230091497302 261.21145427599549 1352.6811203807592 42.258562941104174 167.09208861738443 131.55178798735142 2210.8864650912583 618.77255834266543 216.99409713968635 1056.8256243169308 548.45018854364753 985.15590986981988 85.181100476533175 271.40721624344587 133.46596432477236 346.64151219278574 556.82299471274018 3.2009695880115023 1.268677670508622 405.24979649111629 173.08793871104717 131.27873757481575
leaf_count=1439 15701 16024 37082 9578 2974 24561 1283 4332 4998 4759 3126 9868 670 1440 948 40212 6662 3157 9210 6274 16649 953 2302 1109 2822 8995 49 17 6689 1272 854
internal_value=0 0.0123398 -0.0158899 -0.0123022 0.0202734 0.00426521 0.0237727 0.0256974 -0.00543899 -0.00852944 0.00947973 0.0307908 -0.0171476 0.00144048 0.02476 -0.0140143 0.0158909 -0.00241154 0.00936103 0.00863526 -0.00419167 -0.000260574 0.0146133 0.0193575 0.0282751 -0.0027259 0.0317058 -0.00101698 0.0101208 0.0398596 0.0445211
internal_weight=0 9961.94 7973.41 6218.07 5024.82 4937.12 3804.74 3502.85 2573.26 2220.97 2766.17 2399.99 3644.8 301.897 1484.23 2813.17 1428.43 2170.95 1220.08 809.662 1663.57 1953.96 1102.85 831.445 480.107 602.283 45.4595 1391.67 406.518 915.76 742.672
internal_count=246009 100610 145399 108317 39853 60757 29204 26481 42690 37692 32086 17274 65627 2723 10816 49926 16062 28671 10649 9400 28114 25514 9207 6905 3931 9714 719 23355 6706 6458 5186
cat_boundaries=0 2 4 5 6 8 10 12
cat_threshold=817030305 13153369 1073823880 4752394 2 1 3579385352 19661313 3827454981 17578624 2629762 17039748
is_linear=0
shrinkage=0.05


Tree=18
num_leaves=32
num_cat=7
split_feature=122 124 122 127 11 11 1 19 122 41 129 39 125 1 15 16 7 41 39 15 19 56 45 38 15 29 38 27 129 0 8
split_gain=1280.38 235.217 138.541 97.6289 98.7823 71.8143 61.6749 59.5496 55.6277 43.4979 42.8656 42.2986 39.5699 39.2282 51.425 37.0485 36.6265 36.4755 35.4695 34.7591 32.3078 31.7716 32.3258 29.6552 29.1329 28.8769 28.8717 28.7708 28.3804 30.7943 26.9012
threshold=0.48791503906250006 0.15203857421875003 0.64086914062500011 0.18389892578125003 0 1 2 64.500000000000014 0.25231933593750006 0.40576171875000006 0.096343994140625014 0.18743896484375003 0.24078369140625003 3 -17162.499999999996 -2442.9999999999995 13502.250000000002 0.37829589843750006 0.65795898437500011 -12525.499999999998 12.500000000000002 0.055145263671875007 0.68359375000000011 4 -10621.499999999998 2.5000000000000004 5 2.5000000000000004 0.044723510742187507 6 451660.50000000006
decision_type=10 8 10 8 9 9 9 8 10 8 8 10 8 9 2 10 10 8 8 2 8 10 10 9 2 2 9 2 10 1 8
left_child=1 8 5 4 11 -2 10 -8 23 -5 15 13 -4 14 -3 -7 -10 -16 -9 -6 -15 22 -20 24 -1 -14 -21 -27 -17 -30 -18
right_child=2 3 12 9 19 6 7 18 16 -11 -12 -13 25 20 17 28 30 -19 21 26 -22 -23 -24 -25 -26 27 -28 -29 29 -31 -32
leaf_value=0.04204549711291003 -0.021060672303794145 -0.0041594192343246085 -0.028551501746166486 0.0057875776032527172 0.0084330951758819026 -0.015759155523799508 -0.0081289687828923762 -0.0066541834917853695 -0.00019541611918947807 -0.0078937239866055456 -0.032185938168189918 0.0078664575720780588 -0.015298755187126763 0.01160520868199947 0.03385788086468141 -0.012712667514742508 0.025986496205067801 0.010775760586994441 0.02605366726475284 0.0075932310001772061 0.032038268162935035 0.0015324972295153254 0.10211401647540153 0.019595665754489969 0.023918824187339618 0.013210752588307749 -0.016201848066955141 0.14717052329127861 0.0083698359412234576 -0.018409390746063077 0.012414625024420204
leaf_weight=606.35275645554066 1324.5451505482197 315.49645278602839 1919.464394826442 1028.4576052799821 426.58236696571112 1339.4737623184919 796.23998524621129 170.86856387928128 280.50757053121924 1335.238130107522 240.39030075445771 1279.7883806824684 441.11831514909863 263.7535141184926 287.06995354965329 492.02936631813645 767.16152354702353 423.87430053949356 272.20388402417302 170.17110285907984 725.82825369387865 149.54791352525353 14.724889017641543 620.24752177298069 349.38051363825798 20.375266253948215 468.70235747098923 4.9897026009857646 542.48647166416049 133.83854477480054 696.69776262715459
leaf_count=3645 24541 3400 42147 11709 4964 24227 13053 2858 2907 17111 4318 13928 8287 2563 2655 8260 6491 4314 4103 1908 6635 2285 221 4096 2160 383 5499 89 8409 2218 6625
internal_value=0 0.0116184 -0.0153218 0.00624232 0.0106774 -0.0109408 -0.00764318 0.000865717 0.0225071 -0.00194091 -0.0120167 0.0149305 -0.0253772 0.0194889 0.0126406 -0.0100834 0.0163557 0.020096 0.0126579 -0.0025946 0.0265922 0.0202181 0.029957 0.0293159 0.0350523 -0.0123157 -0.00999851 0.0395628 -0.00357629 0.00307047 0.0195272
internal_weight=0 10045.3 7862.3 6724.96 4361.27 5476.35 4151.8 1403.59 3320.35 2363.7 2748.22 3295.81 2385.95 2016.02 1026.44 2507.83 1744.37 710.944 607.345 1065.46 989.582 436.477 286.929 1575.98 955.733 466.483 638.873 25.365 1168.35 676.325 1463.86
internal_count=246009 100610 145399 74686 45866 94493 69952 22520 25924 28820 47432 33495 50906 19567 10369 43114 16023 6969 9467 12371 9198 6609 4324 9901 5805 8759 7407 472 18887 10627 13116
cat_boundaries=0 1 2 3 4 6 8 9
cat_threshold=24 2 1 1 65712 13140994 809058433 8437017 1
is_linear=0
shrinkage=0.05


Tree=19
num_leaves=32
num_cat=10
split_feature=122 122 122 1 19 95 26 127 129 129 16 72 41 38 7 8 129 7 38 12 95 38 125 122 121 129 42 38 38 38 38
split_gain=1161.44 209.212 133.071 76.8485 90.9095 70.6098 64.9206 53.3853 50.9251 44.1948 43.8898 43.6128 41.3675 44.081 40.0538 69.8503 48.5141 43.6138 39.2238 38.3477 34.328 33.2379 33.1441 32.805 32.3915 31.779 31.2849 29.4104 27.4433 25.7614 25.7048
threshold=0.48791503906250006 0.37341308593750006 0.66625976562500011 0 16.500000000000004 1.0000000180025095e-35 1 0.062835693359375014 0.092376708984375014 0.032272338867187507 -2442.9999999999995 0.97631835937500011 0.30847167968750006 2 16544.250000000004 451660.50000000006 0.080230712890625014 26133.750000000004 3 4 1.0000000180025095e-35 5 0.054458618164062507 0.24578857421875003 -69.14389617584817 0.045364379882812507 0.056747436523437507 6 7 8 9
decision_type=10 8 10 9 8 2 9 8 8 10 10 10 8 9 10 8 10 10 9 1 2 9 10 10 8 10 10 9 9 9 9
left_child=1 5 3 8 27 21 9 26 10 29 -2 23 13 -8 -9 16 17 -16 -6 28 -12 -1 -21 -11 -19 -22 -3 -5 -20 -7 -17
right_child=2 7 -4 4 18 6 12 14 -10 11 20 -13 -14 -15 15 30 -18 24 19 22 25 -23 -24 -25 -26 -27 -28 -29 -30 -31 -32
leaf_value=0.011102728605616187 -0.018737958242213547 0.01765648312101031 -0.027260725828781099 0.0033412263990555678 -0.015012033720507904 0.019772573398810306 0.0015284568233998362 -0.0099346106659570638 -0.032362344831938068 0.041469678861734569 -0.021630746497714001 0.017341221525344171 0.0059573688767366184 0.028310301613363866 0.010550817451666649 -0.01577028144511473 -0.0086871052861261424 0.021520776415482085 0.028331403058061491 0.049106621403215395 -0.011885846778641185 -0.0088870931593796193 0.013559484403299625 0.02675845071376283 0.058174735387900092 0.0031370078075233388 0.00068282949955188622 -0.019095123444343567 -0.00080325655071821498 -0.012242883212897227 -0.00036647102921407755
leaf_weight=1113.6101956665516 1899.7027729935944 798.10947047919035 1671.7740139141679 184.19444200024009 171.90761014446616 124.92982533574104 220.43141712248325 825.42008567228913 394.84043617174029 620.47367185354233 357.23671938851476 677.5165745690465 955.79136788100004 584.14875140041113 535.67016316577792 349.08944864571095 204.39926980435848 155.76964778080583 84.844044532626867 102.63882552087307 694.99338792264462 249.3224733620882 181.59122322499752 973.52553808689117 98.31708562001586 713.35310328751802 411.40963868424296 748.76945175230503 550.15535135194659 109.27874534577131 1115.9605430029333
leaf_count=9793 36021 9092 37082 3114 2968 1032 1643 11013 7503 3778 6367 5052 8574 4256 6323 4629 2760 1557 1355 1511 12369 2247 3001 7689 1119 11683 4889 13307 9118 903 14261
internal_value=0 0.0109471 -0.0147666 -0.0113335 -0.00337488 0.0173697 0.020535 0.00290264 -0.0153011 0.0257331 -0.0134632 0.027968 0.0129163 0.0213437 -0.000404255 0.00279456 0.0130241 0.0186432 0.00642343 0.0104814 -0.00778784 0.00746223 0.0254989 0.0324849 0.0357038 -0.0042765 0.011883 -0.0148344 0.0034684 0.00515606 -0.00414701
internal_weight=0 10123.2 7756 6084.23 2024.1 5629.03 4266.1 4494.15 4060.13 2505.72 3665.29 2271.52 1760.37 804.58 3284.63 2459.21 994.156 789.757 1091.14 919.229 1765.58 1362.93 284.23 1594 254.087 1408.35 1209.52 932.964 634.999 234.209 1465.05
internal_count=246009 100610 145399 108317 34374 44967 32927 55643 73943 18454 66440 16519 14473 5899 41662 30649 11759 8999 17953 14985 30419 12040 4512 11467 2676 24052 13981 16421 10473 1935 18890
cat_boundaries=0 1 2 4 6 7 9 11 13 15 17
cat_threshold=1 214804 20999900 25451156 3355687940 20765189 2 941639927 46144970 541098116 5243904 291520642 4194560 67176506 524488 2349924956 16837318
is_linear=0
shrinkage=0.05


Tree=20
num_leaves=32
num_cat=6
split_feature=122 122 26 129 129 0 122 41 129 126 26 129 93 129 11 67 129 7 11 114 17 19 93 129 92 38 39 15 41 127 8
split_gain=1063.3 233.25 101.52 69.3392 69.3614 110.073 65.9122 64.8664 61.1546 60.7498 58.9573 43.3328 41.3676 41.0386 40.8535 38.9483 37.5756 42.1901 36.2696 35.2991 33.4208 33.1747 32.639 31.8022 30.5047 29.6945 27.476 32.9205 27.1741 27.0348 26.9129
threshold=0.51342773437500011 0.37341308593750006 0 0.092926025390625014 0.046615600585937507 1 0.66821289062500011 0.23596191406250003 0.049972534179687507 2.5000000000000004 2 0.048629760742187507 -1154.4999999999998 0.078582763671875014 3 0.015651702880859378 0.045364379882812507 15999.750000000002 4 1.0000000180025095e-35 -6517.9999999999991 1.5000000000000002 -1142.4999999999998 0.092376708984375014 1.5000000000000002 5 0.59301757812500011 -16855.499999999996 0.11575317382812501 0.028236389160156253 451660.50000000006
decision_type=10 8 9 8 10 1 10 8 10 2 9 10 10 10 9 10 10 10 9 8 2 10 10 10 10 9 8 2 8 8 8
left_child=1 7 9 4 -3 8 18 14 11 12 21 28 -2 15 -1 22 -14 -18 19 -4 -19 -9 -10 24 -12 -23 -24 29 -6 -28 -22
right_child=2 3 6 -5 5 -7 -8 10 13 -11 23 -13 16 -15 -16 -17 17 20 -20 -21 30 25 26 -25 -26 -27 27 -29 -30 -31 -32
leaf_value=0.028390335114144807 -0.012425407747551853 -0.0035099963126885899 -0.015502013615770553 -0.016291836200052142 0.12772774341837678 -0.012769059100264442 -0.031628998124080397 0.025669689245184802 -0.0020164320066137298 -0.019985994422661725 0.0085578428966484026 0.045130393556204573 -0.0092484438275055678 0.023496401742780379 0.010190657242929857 -0.0047682421696804951 -0.0087284937559775778 -0.0015200313579862221 -0.024547755169505536 0.004589569863679567 0.036955986621369147 0.026924330228029449 0.0049136639983680015 -0.011612573834736776 0.057332281618904149 0.002215672063704246 0.078473414580202974 0.039258305117283419 0.0147570216638693 0.0031823038883859131 0.006714100105015431
leaf_weight=1367.0047307088971 715.58427511155605 2033.2786722630262 1709.3656556010246 479.7406422495842 5.4066404476761809 506.05953082069755 1063.0663455091417 1010.253096356988 301.17487598955631 756.12800699099898 2080.9721008315682 212.44926682859659 394.14641682803631 370.18889744207263 446.93943505734205 616.78313163667917 207.72952971979976 148.26495584100485 1093.9686409644783 250.67165669426322 223.76735225319862 173.62053868174553 241.69643842056394 198.71262862533331 32.558465354144573 382.08728947490454 12.978379193693398 215.84559971094131 344.47650469839573 146.57807732373476 109.59927600622177
leaf_count=9266 13067 27495 32866 6947 52 6821 24691 7668 3771 14523 18124 2382 7090 4180 3297 7801 3557 2588 21828 4230 3649 1308 2946 2024 265 3015 137 2413 4194 1935 1879
internal_value=0 0.00922342 -0.0159995 0.00186698 0.00360688 0.00847317 -0.0208554 0.0163143 0.0128296 -0.00806238 0.0126639 0.0273183 -0.00309589 0.00855328 0.0241188 0.00494965 0.00306563 0.0101063 -0.0171735 -0.0128668 0.0182298 0.0201436 0.0114769 0.00747885 0.0093092 0.0104598 0.0180624 0.0265279 0.0165027 0.00930651 0.0270135
internal_weight=0 11178.8 6672.29 5486.66 5006.92 2973.64 4117.07 5692.15 2467.58 2555.22 3878.2 562.332 1799.09 1905.25 1813.94 1535.06 1083.51 689.361 3054.01 1960.04 481.632 1565.96 918.273 2312.24 2113.53 555.708 617.098 375.402 349.883 159.556 333.367
internal_count=246009 116041 129968 71074 64127 36632 83615 44967 29811 46353 32404 6628 31830 23183 12563 19003 18763 11673 58924 37096 8116 11991 11202 20413 18389 4323 7431 4485 4246 2072 5528
cat_boundaries=0 1 2 3 4 5 7
cat_threshold=226066 1 70452 24 24 1073831938 13108224
is_linear=0
shrinkage=0.05


Tree=21
num_leaves=32
num_cat=5
split_feature=122 124 127 26 11 122 126 0 129 129 93 129 6 8 129 16 15 41 11 114 90 129 129 129 129 129 15 38 17 8 129
split_gain=967.157 212.904 98.6166 95.5265 94.6416 63.5236 56.3864 45.1061 50.0303 65.3634 44.3909 44.7081 39.5844 45.1535 39.2044 38.3183 38.2817 35.3825 34.648 32.9901 32.5479 31.8487 41.7938 35.6399 41.7842 31.3727 30.2575 29.254 29.0715 28.7236 27.4136
threshold=0.51342773437500011 0.15545654296875003 0.18560791015625003 0 1 0.66821289062500011 2.5000000000000004 2 0.080596923828125014 0.046615600585937507 -1341.4999999999998 0.032150268554687507 284328.00000000006 451660.50000000006 0.092376708984375014 -2008.4999999999998 -12525.499999999998 0.48571777343750006 3 1.0000000180025095e-35 1.0000000180025095e-35 0.049972534179687507 0.067413330078125014 0.068206787109375014 0.078582763671875014 0.044052124023437507 -19810.499999999996 4 -6573.9999999999991 681261.75000000012 0.048629760742187507
decision_type=10 8 8 9 9 10 2 1 8 10 10 10 2 8 8 10 2 10 9 8 10 10 10 10 10 10 2 9 2 10 10
left_child=1 7 4 6 10 18 15 8 9 -1 -3 29 -13 -14 17 -2 -6 20 -5 -20 -4 30 -23 -24 -25 -17 -27 -15 -28 -12 -11
right_child=3 2 14 5 16 -7 -8 -9 -10 21 11 12 13 27 -16 25 -18 -19 19 -21 -22 22 23 24 -26 26 28 -29 -30 -31 -32
leaf_value=0.012685753348032536 -0.011605110385712323 0.0019314555248014093 -0.00095285791673574622 -0.024396512414530121 0.0065264486417381936 -0.03094897843461604 -0.019335872508238997 -0.00049397187100840316 0.0029808449277875537 0.027681665377411915 -0.030046725259061172 0.008462039101268963 0.028466784238930495 -0.0074224637547560248 -0.023029618757852283 -0.0087584981569370033 -0.011483297867828212 -0.012254973426224336 -0.015172891121096335 0.0036919537506297398 0.018517968234486006 0.017603983974574685 0.06478225244918559 0.010657710081922437 0.042229587070582573 -0.022601579335254817 -0.004844178104632048 0.016942315269689198 0.019491770463901634 0.005933054887728835 0.05155727217557219
leaf_weight=1052.7573549412191 747.12502682581544 831.48214010894299 1614.2436071634293 977.14638841152191 505.83101053163409 1032.8777948580682 742.81824422627687 278.60226995870471 363.87987631559372 245.97522712126374 77.2605831772089 899.05852509662509 984.66136888414621 150.52926027402282 238.07448725774884 359.23871913179755 708.13805697485805 608.16331309825182 1763.9264218620956 266.80178008601069 247.54585451632738 856.28093104809523 86.852021433413029 173.55890564620495 264.51713372021914 66.43055772408843 168.30033458769321 626.64269582182169 453.11508890613914 196.67957389354706 235.17037391290069
leaf_count=8786 14026 9241 19338 20081 6215 24691 14523 2355 3081 1716 869 9676 8959 1685 3510 6432 8629 8990 34353 4490 2898 6265 556 1274 1761 1158 2860 6540 7354 2239 1458
internal_value=0 0.00870719 0.00402738 -0.0154297 0.00820308 -0.0202008 -0.0077206 0.0188207 0.0204618 0.0226439 0.0120975 0.015019 0.0169991 0.0213555 -0.00365206 -0.00295481 -0.00394657 -0.00178429 -0.0165771 -0.0126322 0.00163601 0.028273 0.0244138 0.0355223 0.0297213 0.00321742 0.00947204 0.0123456 0.0129008 -0.00421449 0.0393514
internal_weight=0 11245.9 7688.31 6577.78 4980.28 4040.75 2537.03 3557.59 3278.99 2915.11 3766.31 2934.83 2660.89 1761.83 2708.03 1794.21 1213.97 2469.95 3007.87 2030.73 1861.79 1862.35 1381.21 524.928 438.076 1047.08 687.846 777.172 621.415 273.94 481.146
internal_count=246009 116041 88789 129968 54053 83615 46353 27252 24897 21816 39209 29968 26860 17184 34736 31830 14844 31226 58924 38843 22236 13030 9856 3591 3035 17804 11372 8225 10214 3108 3174
cat_boundaries=0 1 2 3 4 6
cat_threshold=226066 24 1 2 2500406852 17099271
is_linear=0
shrinkage=0.05


Tree=22
num_leaves=32
num_cat=7
split_feature=122 122 123 124 125 38 122 38 19 38 17 7 125 38 53 29 6 8 7 56 128 11 16 26 86 19 90 90 93 1 86
split_gain=879.453 194.563 91.2401 72.6254 62.8124 56.068 44.4358 40.3956 40.2198 40.1145 38.2456 44.7861 36.9373 35.9923 33.7759 32.1501 29.9469 30.0309 42.3568 29.0259 28.9095 28.4037 28.256 26.3754 25.832 25.7398 25.6616 24.8451 24.8292 24.5282 26.1129
threshold=0.51342773437500011 0.39392089843750006 0.70483398437500011 0.17462158203125003 0.18499755859375003 0 0.66821289062500011 1 9.5000000000000018 2 -12.499999999999998 31911.750000000004 0.032821655273437507 3 0.065155029296875014 2.5000000000000004 180290.25000000003 675191.25000000012 26133.750000000004 0.017349243164062503 0.19573974609375003 4 -1802.4999999999998 5 0.022949218750000003 26.500000000000004 1.0000000180025095e-35 2.5000000000000004 -1260.4999999999998 6 0.077636718750000014
decision_type=10 8 10 10 8 9 10 9 8 9 2 10 8 9 10 2 2 10 10 10 10 9 10 9 10 8 10 10 10 9 10
left_child=1 3 4 9 13 8 -4 -5 -3 12 22 -12 -1 -2 15 23 -10 18 28 -15 -14 24 -6 -9 -11 -25 -7 -24 -18 30 -22
right_child=2 5 6 7 10 26 -8 14 16 21 11 -13 20 19 -16 -17 17 -19 -20 -21 29 -23 27 25 -26 -27 -28 -29 -30 -31 -32
leaf_value=0.054872554100217824 -0.019816879365952497 -0.0074208238111958163 -0.015987715435258849 -0.0012951827732888689 -0.0070922527709050389 -0.0076905554709745319 -0.028206510759268007 -0.0074585796246342999 -0.0086652099624824844 0.020235860260377839 0.30524499345630285 -0.027004402741895056 0.017269027516875628 -0.00079299035748152185 -0.00064276210727444883 0.028688722428430503 -0.0056944021937460412 -0.00071435450035111183 0.024473643593745532 -0.015881477859038571 0.026445425821291082 -0.0032991191177311101 0.0092931400068162664 0.0026305764776574244 0.0033977578224761262 0.019644558576478385 0.0090938154967025019 0.19525547643762525 0.012448300914039303 0.03991819794388804 -0.0088885784189645552
leaf_weight=84.690966077148914 1183.0166278965771 501.68087641894817 1752.124994341284 860.43843365460634 520.55398563295603 1831.4741817861795 1293.3009074255824 159.90383546799421 232.8149428255856 734.79650988429785 2.2287819609045973 1.8613235391676424 1524.8732288777828 706.29900459945202 428.75408743694425 344.2491414770484 267.70279770344496 468.88925829529762 571.10236604511738 580.87612430006266 389.98460429906845 270.63899471238256 445.54370584338903 323.42112030088902 330.10719015076756 710.95953416824341 260.06336952000856 1.8033685088157643 638.05670345574617 313.72487639635801 60.385199554264545
leaf_count=461 23131 6413 36367 8789 8909 26166 31440 1517 3092 5652 36 29 10652 12662 3924 2974 3380 6092 6643 10667 2628 2205 6701 2800 2678 6079 3670 26 7703 2082 441
internal_value=0 0.00822094 -0.0148727 0.0138243 -0.00929537 0.00054486 -0.0211767 0.00778828 0.00532295 0.0184258 0.00147201 0.154045 0.0223523 -0.0135322 0.0117082 0.0152262 0.00828202 0.0103098 0.0138099 -0.00754351 0.0212467 0.0111962 0.000827272 0.0113457 0.0148766 0.0141876 -0.00557691 0.0100428 0.00708611 0.0291847 0.0217079
internal_weight=0 11308.7 6487.61 6536.93 3442.18 4771.78 3045.43 2827.73 2680.25 3709.2 971.991 4.09011 2373.66 2470.19 1967.29 1538.53 2178.57 1945.75 1476.86 1287.18 2288.97 1335.54 967.901 1194.28 1064.9 1034.38 2091.54 447.347 905.76 764.095 450.37
internal_count=246009 116041 129968 52882 62161 63159 67807 26083 33323 26799 15701 65 16264 46460 17294 13370 26910 23818 17726 23329 15803 10535 15636 10396 8330 8879 29836 6727 11083 5151 3069
cat_boundaries=0 2 4 6 8 9 10 11
cat_threshold=816866787 13120888 2370324245 43020814 16627 13157450 3556915222 61391748 20 41065 1
is_linear=0
shrinkage=0.05


Tree=23
num_leaves=32
num_cat=8
split_feature=122 122 26 41 122 129 126 40 8 7 38 44 19 6 8 11 93 19 11 129 6 114 9 38 1 15 128 6 17 11 93
split_gain=799.595 172.978 88.7056 66.8132 59.075 54.7549 51.9116 51.0507 50.9204 90.1556 48.5311 44.8636 37.517 40.2651 37.1502 36.7709 36.7548 35.1412 33.5289 33.2725 31.7455 29.1474 27.9268 27.8254 27.8099 33.9381 26.8703 26.8527 26.0256 25.8853 26.7567
threshold=0.51342773437500011 0.39392089843750006 0 0.34497070312500006 0.66821289062500011 0.092926025390625014 2.5000000000000004 0.0096855163574218767 675191.25000000012 24486.750000000004 1 0.98315429687500011 9.5000000000000018 254556.00000000003 451660.50000000006 2 -1154.4999999999998 9.5000000000000018 3 0.038986206054687507 1016995.5000000001 1.0000000180025095e-35 4 5 6 -13804.499999999998 0.16766357421875003 942439.50000000012 -9123.9999999999982 7 -1193.4999999999998
decision_type=10 8 9 8 10 8 2 8 10 10 9 10 8 2 8 9 10 8 9 8 2 8 9 9 9 2 10 2 2 9 10
left_child=1 3 6 11 18 8 16 -5 9 29 -9 12 -1 -14 -11 -12 -2 -18 21 -16 -10 -4 -17 28 25 -19 -24 -26 -15 30 -3
right_child=2 5 4 7 -6 -7 -8 10 20 14 15 -13 13 23 19 22 17 24 -20 -21 -22 -23 26 -25 27 -27 -28 -29 -30 -31 -32
leaf_value=0.0068912429623633354 -0.01123392673516966 -0.0073906013040754186 -0.013832656352527041 0.045221172704216633 -0.029692033596940705 -0.016886725619698131 -0.018204686607826193 -0.0014534292994297252 -0.016862745768615694 0.026324826530970853 -0.0039864453260935314 0.0056428797984921352 0.010343771319969101 0.0093097949491793269 0.030601291630169364 0.00080997975679136629 -0.015713166108348216 -0.0096482890350669745 -0.022804679255312616 0.0029089968997747413 0.00031659884672307882 0.0044561438319783951 0.010325262419292481 0.01197718591363392 0.022374901276127832 0.019946938176535461 0.023390492695172831 -0.012996745073747646 0.032407260412201981 -0.011504338822445573 0.0063509025603024532
leaf_weight=394.85381826013327 696.62008670717478 520.69493736326694 1641.8545371443033 90.60182747989893 980.8226212374866 412.94497738778591 720.56056470051408 1100.027897849679 476.94573448225856 517.885199688375 332.41834235936403 575.91275139898062 451.94744206219912 134.62610363215208 135.95695089921355 338.90778897702694 194.69396951049566 321.51284670829773 1035.5627539753914 536.50777511298656 616.51455064117908 251.18537399545312 772.82646369189024 304.52887058258057 357.08448405563831 138.63964677602053 801.8276725448668 63.143888041377068 1296.1431827917695 447.7400226444006 1108.1631028130651
leaf_count=2938 13067 6973 32866 585 24691 6207 14523 10792 6523 5599 3006 4396 3507 1034 1792 2696 3576 5930 21828 6939 8536 4230 6377 2223 5828 2310 6222 1119 9106 6365 14225
internal_value=0 0.00776427 -0.0143288 0.0130116 -0.0190227 0.000514789 -0.00686187 0.00818718 0.00216277 0.00528872 0.00718438 0.0182617 0.0210762 0.0236369 0.0162594 0.0113708 -0.00228741 0.0035097 -0.0155144 0.00850774 -0.00717669 -0.011346 0.0140455 0.0270991 0.00776079 -0.000731524 0.0168711 0.0170599 0.0300241 -0.000999909 0.00194623
internal_weight=0 11368 6401.68 6594.62 3909.43 4773.35 2492.26 3436.61 4360.41 3266.95 3346.01 3158.01 2582.1 2187.25 1190.35 2245.98 1771.69 1075.07 2928.6 672.465 1093.46 1893.04 1913.56 1735.3 880.381 460.152 1574.65 420.228 1430.77 2076.6 1628.86
internal_count=246009 116041 129968 52882 83615 63159 46353 29678 56952 41893 29093 23204 18808 15870 14330 18301 31830 18763 58924 8731 15059 37096 15295 12363 15187 8240 12599 6947 10140 27563 21198
cat_boundaries=0 1 3 4 5 6 8 9 10
cat_threshold=226066 3696891145 34632463 2 24 170 1544620195 38307274 1 24
is_linear=0
shrinkage=0.05


Tree=24
num_leaves=32
num_cat=6
split_feature=122 124 123 127 11 125 17 122 26 122 93 129 15 6 8 129 95 7 18 41 8 7 8 86 93 121 87 129 12 38 38
split_gain=726.941 158.852 84.8447 81.7604 77.5821 65.8098 39.6526 38.8576 36.7962 35.7531 35.5276 37.0176 34.9937 34.8542 43.6011 32.3438 33.9787 29.8092 27.5296 27.423 26.9751 25.9662 32.9593 30.8302 30.7378 26.9806 25.8633 25.0515 25.0068 24.539 24.2624
threshold=0.51342773437500011 0.15545654296875003 0.73120117187500011 0.18560791015625003 0 0.18499755859375003 -12.499999999999998 0.25231933593750006 1 0.66821289062500011 -1341.4999999999998 0.032150268554687507 -12287.499999999998 298620.00000000006 675191.25000000012 0.092926025390625014 1.0000000180025095e-35 13502.250000000002 -4211.4999999999991 0.40222167968750006 681261.75000000012 23307.750000000004 675191.25000000012 0.035659790039062507 -508.49999999999994 -190.52768568874316 2 0.10757446289062501 3 4 5
decision_type=10 8 10 8 9 8 2 10 9 10 10 10 2 2 8 10 2 10 2 8 10 10 8 10 10 10 9 10 1 9 9
left_child=1 7 5 4 10 8 18 26 21 -4 -3 20 -6 -5 19 16 -13 -9 -7 -15 -12 -2 23 24 -23 -26 -1 -17 29 -20 -14
right_child=2 3 9 13 12 6 -8 17 -10 -11 11 15 30 14 -16 27 -18 -19 28 -21 -22 22 -24 -25 25 -27 -28 -29 -30 -31 -32
leaf_value=0.02440106939469169 -0.015231714619734433 0.0014269156809595584 -0.015805506701637561 -0.01237103432274185 0.0055302486709575428 -0.012688833899487301 0.13270196602561488 -0.0032619764634757111 -0.018205492724622491 -0.02865802760265166 -0.029675747513736597 0.0056630375290692894 0.0036347155269988727 0.013552611325754063 -0.011218730427747244 -0.01829877644104962 0.01971385954442556 0.013756552610520984 0.023561217925912883 -0.0011341304557437703 0.0053004411222191431 0.0093758982762897 -0.011893586698791486 -0.0080302939576899976 0.097534533549332628 0.029110545189775447 0.0080056371396134331 0.013265979648786392 -0.0019325386111437321 -0.009765418254240453 -0.017333205532658515
leaf_weight=1380.9792139157653 499.21867448091507 837.05722856894135 1160.4601612910628 814.66276825964451 536.24639720469713 333.30571667104959 5.617057852447032 305.08365046977997 1765.0128295794129 1013.8242104128003 76.344631750136614 554.27612325921655 192.89062655717134 554.09351254627109 594.54501097649336 123.61670270934701 1923.2356348261237 1642.9494896605611 227.79862793162465 745.424336951226 198.34621648490429 144.47511111944914 313.80383530259132 137.21944891661406 20.847675740718842 46.634395524859428 331.62238585948944 127.89278300479054 581.93051518127322 69.66532139107585 484.61030261218548
leaf_count=8101 9149 9241 24900 10785 6540 5876 84 3092 37010 25932 869 5830 2292 6193 7945 1490 18150 14052 3681 9813 2239 2615 6010 2519 352 809 2007 1390 9851 1180 6012
internal_value=0 0.00733517 -0.0137989 0.00328646 0.00704278 -0.00960325 0.000161752 0.0159214 -0.0136675 -0.0217984 0.0105091 0.013075 -0.00397971 -0.00372288 -3.18608e-06 0.014836 0.0165704 0.0110913 -0.000452156 0.00512806 -0.00442047 -0.00656255 -0.00013373 0.0104348 0.022389 0.0502492 0.0214155 -0.00224807 0.00418576 0.0156924 -0.0115656
internal_weight=0 11423.9 6319.81 7763.24 5054.52 4145.53 1218.32 3660.63 2927.21 2174.28 3840.77 3003.71 1213.75 2708.73 1894.06 2729.02 2477.51 1948.03 1212.7 1299.52 274.691 1162.2 662.98 349.177 211.957 67.4821 1712.6 251.509 879.394 297.464 677.501
internal_count=246009 116041 129968 88789 54053 79136 20672 27252 58464 50832 39209 29968 14844 34736 23951 26860 23980 17144 20588 16006 3108 21454 12305 6295 3776 1161 10108 2880 14712 4861 8304
cat_boundaries=0 1 2 3 4 6 8
cat_threshold=24 254738 224 13 1275072698 48766228 943278209 48409
is_linear=0
shrinkage=0.05


Tree=25
num_leaves=32
num_cat=8
split_feature=122 122 11 1 127 19 129 129 41 15 0 129 19 1 41 41 119 38 18 90 129 38 7 129 38 86 16 38 124 90 18
split_gain=660.895 144.477 82.2069 78.3994 75.4608 53.8818 48.5152 48.36 48.3369 45.1867 44.4879 56.2131 43.7704 54.5257 37.3607 35.8613 38.6696 35.0912 30.7859 34.0463 30.747 30.5545 30.4063 29.7956 28.6214 27.9167 27.6977 27.3377 26.2906 25.8493 24.4463
threshold=0.51342773437500011 0.29064941406250006 0 1 0.097015380859375014 12.500000000000002 0.093536376953125014 0.096343994140625014 0.43383789062500006 -9793.4999999999982 2 0.046768188476562507 16.500000000000004 3 0.33361816406250006 0.50561523437500011 9.5000000000000018 4 -4211.4999999999991 1.0000000180025095e-35 0.049972534179687507 5 17763.750000000004 0.039260864257812507 6 0.084350585937500014 -2498.9999999999995 7 0.025062561035156253 1.0000000180025095e-35 -1326.4999999999998
decision_type=10 8 9 9 8 8 8 8 10 2 1 10 8 9 10 8 8 9 2 10 10 9 10 10 9 10 10 9 10 10 2
left_child=1 15 -2 7 9 -5 10 8 -4 12 11 23 -3 14 25 27 -17 20 -7 -20 -13 -11 -19 24 -6 -14 -10 -1 -18 30 -15
right_child=2 4 3 5 6 18 -8 -9 26 21 -12 17 13 29 -16 16 28 22 19 -21 -22 -23 -24 -25 -26 -27 -28 -29 -30 -31 -32
leaf_value=-0.0024030752557515599 -0.023143254198229449 0.0015339118490396561 -0.0025267099821408914 -0.013723174306389292 -0.015919757838182419 -0.0072415299170057431 -0.017674612335774251 -0.033671213861550017 -0.021693067257638927 -0.01570040775588355 -0.015240346788047469 0.033829426677437789 0.021657671770056067 0.017640146669228678 0.00049858277698853538 -0.0044921378181030378 0.047748513642687361 -0.0081009797306421227 0.0080128044842361964 0.044109954413166778 0.010795414547110159 0.010867071693461294 0.0078506012448209747 -0.014145635477293739 0.0033877423643199223 -0.0048938399342536749 -0.0096071526924005422 0.021232204436776161 0.012512315751398155 0.05018271270491307 0.041609766572554191
leaf_weight=136.40966150909662 1580.0290806554258 823.90937196090817 856.4131936468184 523.96132275462151 223.19102803617716 307.20703640580177 384.75999942421913 296.3569612801075 1162.1055641509593 275.94870045781136 392.08917842805386 189.7172057107091 578.0577151812613 550.45761178806424 657.5330511406064 371.24229416996241 56.869445249438286 432.12992554530501 642.33620474487543 72.717816613614559 612.98998206481338 166.50287289172411 967.81980747357011 524.75814378634095 1075.2295355051756 119.45552723109722 800.65641816332936 1944.9625636935234 765.64260073006153 94.438722509890795 131.85283549875021
leaf_count=873 35771 8961 15822 10411 2920 5870 5564 6566 26517 2970 5040 1884 5746 5425 7647 2725 326 5351 11561 1282 6482 1763 10635 6807 13752 1294 16168 12093 5626 890 1267
internal_value=0 0.00693385 -0.013282 -0.00986885 0.0033885 -0.000685909 -0.000645923 -0.014458 -0.0124382 0.00909043 0.000837117 0.00240295 0.0113212 0.0151039 0.0090496 0.0158113 0.00890277 0.00777824 0.00599636 0.0116837 0.0160396 -0.0058118 0.00290598 -0.00409115 -2.76233e-05 0.0171105 -0.0167629 0.0197737 0.0149486 0.0256656 0.0222721
internal_weight=0 11476 6241.78 4661.75 8200.84 1546.22 4802.68 3115.53 2819.18 3398.16 4417.92 4025.84 2955.7 2131.8 1355.05 3275.13 1193.75 2202.66 1022.26 715.054 802.707 442.452 1399.95 1823.18 1298.42 697.513 1962.76 2081.37 822.512 776.749 682.31
