tree
version=v3
num_class=1
num_tree_per_iteration=1
label_index=0
max_feature_idx=119
objective=binary sigmoid:1
feature_names=NAME_CONTRACT_TYPE CODE_GENDER FLAG_OWN_CAR FLAG_OWN_REALTY CNT_CHILDREN AMT_INCOME_TOTAL AMT_CREDIT AMT_ANNUITY AMT_GOODS_PRICE NAME_TYPE_SUITE NAME_INCOME_TYPE NAME_EDUCATION_TYPE NAME_FAMILY_STATUS NAME_HOUSING_TYPE REGION_POPULATION_RELATIVE DAYS_BIRTH DAYS_EMPLOYED DAYS_REGISTRATION DAYS_ID_PUBLISH OWN_CAR_AGE FLAG_MOBIL FLAG_EMP_PHONE FLAG_WORK_PHONE FLAG_CONT_MOBILE FLAG_PHONE FLAG_EMAIL OCCUPATION_TYPE CNT_FAM_MEMBERS REGION_RATING_CLIENT REGION_RATING_CLIENT_W_CITY WEEKDAY_APPR_PROCESS_START HOUR_APPR_PROCESS_START REG_REGION_NOT_LIVE_REGION REG_REGION_NOT_WORK_REGION LIVE_REGION_NOT_WORK_REGION REG_CITY_NOT_LIVE_CITY REG_CITY_NOT_WORK_CITY LIVE_CITY_NOT_WORK_CITY ORGANIZATION_TYPE EXT_SOURCE_1 EXT_SOURCE_2 EXT_SOURCE_3 APARTMENTS_AVG BASEMENTAREA_AVG YEARS_BEGINEXPLUATATION_AVG YEARS_BUILD_AVG COMMONAREA_AVG ELEVATORS_AVG ENTRANCES_AVG FLOORSMAX_AVG FLOORSMIN_AVG LANDAREA_AVG LIVINGAPARTMENTS_AVG LIVINGAREA_AVG NONLIVINGAPARTMENTS_AVG NONLIVINGAREA_AVG APARTMENTS_MODE BASEMENTAREA_MODE YEARS_BEGINEXPLUATATION_MODE YEARS_BUILD_MODE COMMONAREA_MODE ELEVATORS_MODE ENTRANCES_MODE FLOORSMAX_MODE FLOORSMIN_MODE LANDAREA_MODE LIVINGAPARTMENTS_MODE LIVINGAREA_MODE NONLIVINGAPARTMENTS_MODE NONLIVINGAREA_MODE APARTMENTS_MEDI BASEMENTAREA_MEDI YEARS_BEGINEXPLUATATION_MEDI YEARS_BUILD_MEDI COMMONAREA_MEDI ELEVATORS_MEDI ENTRANCES_MEDI FLOORSMAX_MEDI FLOORSMIN_MEDI LANDAREA_MEDI LIVINGAPARTMENTS_MEDI LIVINGAREA_MEDI NONLIVINGAPARTMENTS_MEDI NONLIVINGAREA_MEDI FONDKAPREMONT_MODE HOUSETYPE_MODE TOTALAREA_MODE WALLSMATERIAL_MODE EMERGENCYSTATE_MODE OBS_30_CNT_SOCIAL_CIRCLE DEF_30_CNT_SOCIAL_CIRCLE OBS_60_CNT_SOCIAL_CIRCLE DEF_60_CNT_SOCIAL_CIRCLE DAYS_LAST_PHONE_CHANGE FLAG_DOCUMENT_2 FLAG_DOCUMENT_3 FLAG_DOCUMENT_4 FLAG_DOCUMENT_5 FLAG_DOCUMENT_6 FLAG_DOCUMENT_7 FLAG_DOCUMENT_8 FLAG_DOCUMENT_9 FLAG_DOCUMENT_10 FLAG_DOCUMENT_11 FLAG_DOCUMENT_12 FLAG_DOCUMENT_13 FLAG_DOCUMENT_14 FLAG_DOCUMENT_15 FLAG_DOCUMENT_16 FLAG_DOCUMENT_17 FLAG_DOCUMENT_18 FLAG_DOCUMENT_19 FLAG_DOCUMENT_20 FLAG_DOCUMENT_21 AMT_REQ_CREDIT_BUREAU_HOUR AMT_REQ_CREDIT_BUREAU_DAY AMT_REQ_CREDIT_BUREAU_WEEK AMT_REQ_CREDIT_BUREAU_MON AMT_REQ_CREDIT_BUREAU_QRT AMT_REQ_CREDIT_BUREAU_YEAR
feature_infos=-1:0:1 -1:0:1 -1:0:1 -1:1:0 [0:19] [25650:117000000] [45000:4050000] [1615.5:225000] [40500:4050000] -1:6:1:5:0:4:7:3 -1:7:1:3:4:6:5:0 -1:4:1:2:3 -1:1:3:0:2:5 -1:1:5:2:4:3 [0.0002899169921875:0.072509765625] [-25229:-7489] [-17912:365243] [-24672:0] [-7197:0] [0:91] none [0:1] [0:1] [0:1] [0:1] [0:1] -1:18:8:14:3:10:4:6:0:11:16:2:1:12:9:17:15:13:5 [1:20] [1:3] [1:3] -1:5:6:1:4:0:2:3 [0:23] [0:1] [0:1] [0:1] [0:1] [0:1] [0:1] -1:5:57:42:33:30:11:4:39:51:28:7:3:55:47:26:20:40:13:16:31:2:1:34:53:35:41:46:38:43:24:56:54:14:12:9:21:27:50:22:10:44:19:0:36:17:8:45:32:29:6:52:15:23:37:48:18:49 [0.01505279541015625:0.962890625] [5.9604644775390625e-08:0.85498046875] [0.00052738189697265625:0.89599609375] [0:1] [0:1] [0:1] [0:1] [0:1] [0:1] [0:1] [0:1] [0:1] [0:1] [0:1] [0:1] [0:1] [0:1] [0:1] [0:1] [0:1] [0:1] [0:1] [0:1] [0:1] [0:1] [0:1] [0:1] [0:1] [0:1] [0:1] [0:1] [0:1] [0:1] [0:1] [0:1] [0:1] [0:1] [0:1] [0:1] [0:1] [0:1] [0:1] [0:1] [0:1] [0:1] -1:0:3:4:1:2 -1:1:0:2 [0:1] -1:7:4:5:0:6:1:2 -1:0:2 [0:348] [0:34] [0:344] [0:24] [-4172:0] none [0:1] none [0:1] [0:1] [0:1] [0:1] [0:1] none [0:1] none [0:1] [0:1] [0:1] [0:1] [0:1] [0:1] [0:1] [0:1] [0:1] [0:4] [0:9] [0:8] [0:27] [0:261] [0:25]
tree_sizes=3564 3644 3628 3632 3604 3626 3583 3639 3640 3636 3650 3621 3608 3648 3629 3658 3650 3609 3639 3619 3623 3625 3664 3685 3686 3634 3663 3637 3686 3681 3702 3642 3633 3634 3664 3661 3660 3676 3648 3641 3667 3676 3667 3650 3660 3699 3673 3682 3660 3661 3670 3665 3619 3642 3657 3652 3689 3657 3676 3674 3595 3642 3684 3689 3683 3646 3689 3654 3667 3674 3686 3706 3674 3640 3712 3669 3629 3692 3658 3658 3652 3679 3697 3666 3608 3654 3637 3654 3647 3613 3615 3620 3714 3660 3675 3640 3591 3661 3634 3619 3640 3645 3700 3650 3626 3650 3640 3633 3662 3636 3655 3631 3573 3660 3630 3559 3632 3646 3579 3655 3676 3645 3614 3588 3613 3660 3607 3602 3600 3659 3654 3577 3652 3590 3615 3663 3588 3628 3610 3618 3565 3605 3651 3606 3576 3610 3635 3605 3621 3601 3635 3602 3628 3598 3577 3583 3579 3600 3527 3570 3631 3564 3634 3533 3619 3582 3559 3581 3672 3579 3605 3588 3552 3571 3570 3610 3555 3631 3540 3545 3582 3590 3652 3599 3657 3601 3589 3609 3583 3544 3559 3599 3600 3644 3559 3581 3615 3567 3586 3576 3593 3551 3599 3585 3586 3569 3529 3615 3573 3613 3577 3615 3547 3570 3564 3572 3606 3555 3522 3530 3562 3578 3559 3581 3583 3576 3554 3607 3617 3560 3577 3574 3571 3578 3558 3547 3580 3479 3562 3602 3583 3565 3600 3557 3577 3605 3568 3548 3519 3580 3597 3560 3573 3558 3558 3547 3529 3575 3544 3527 3604 3541 3596 3570 3595 3565 3574 3593 3556 3572 3557 3557 3570 3554 3561 3553 3563 3527 3559 3512 3577 3537 3552 3553 3564 3593 3587 3616 3510 3568 3582 3534 3544 3587 3617 3574 3627 3542 3568 3571 3561 3551 3540 3566 3575 3564 3565 3551 3611 3588 3547 3562 3539 3563 3558 3552 3583 3584 3544 3607 3580 3543 3543 3552 3583 3584 3597 3600 3539 3580 3582 3570 3595 3578 3554 3571 3546 3540 3556 3596 3575 3550 3518 3570 3569 3564 3560 3556 3578 3565 3607 3594

Tree=0
num_leaves=32
num_cat=4
split_feature=41 40 40 41 40 41 41 40 40 38 39 39 26 40 39 26 41 15 40 41 39 39 39 40 39 40 39 45 38 95 8
split_gain=4508.85 2710.9 1529.88 1085.83 671.371 610.071 324.706 322.902 285.503 258.983 246.472 199.016 195.446 187.297 150.688 131.355 127.386 127.319 125.699 118.823 117.711 102.615 87.4914 83.0597 81.4138 79.4793 75.6688 70.0355 69.6161 69.0657 69.4542
threshold=0.28149414062500006 0.40539550781250006 0.35803222656250006 0.47497558593750006 0.15350341796875003 0.50195312500000011 0.11358642578125001 0.61840820312500011 0.12652587890625003 0 0.38684082031250006 0.38122558593750006 1 0.63500976562500011 0.13299560546875003 2 0.17510986328125003 -18190.499999999996 0.056152343750000007 0.16003417968750003 0.24249267578125003 0.42858886718750006 0.40319824218750006 0.63354492187500011 0.31140136718750006 0.12652587890625003 0.16070556640625003 0.49340820312500006 3 1.0000000180025095e-35 450117.00000000006
decision_type=8 8 8 10 10 10 10 10 10 9 10 10 9 8 8 9 10 2 10 10 8 10 8 10 10 10 8 10 9 2 8
left_child=2 3 8 4 11 7 23 14 16 -6 29 17 18 21 -3 -16 -1 -2 -5 -10 -9 26 -7 -4 -17 -14 -8 -18 -28 -11 -31
right_child=1 5 6 12 9 22 13 20 19 10 -12 -13 25 -15 15 24 27 -19 -20 -21 -22 -23 -24 -25 -26 -27 28 -29 -30 30 -32
leaf_value=-2.1942137457242943 -2.3641096662290915 -2.3441423699673174 -2.3215200129386959 -2.3371553440510424 -2.4274300275871181 -2.4478020099863875 -2.3084942785577516 -2.4044482898181272 -2.2826040928892648 -2.3969395588177713 -2.4291525997037597 -2.4006229889804991 -2.4139545875007591 -2.4256274254584187 -2.4412641875550598 -2.4114080632964225 -2.2550407404476172 -2.2995891319869521 -2.4184183925639333 -2.337750153294766 -2.4560561228312712 -2.4158357743764407 -2.4664650383427338 -2.3781598844288845 -2.4388913600737987 -2.4503732374302944 -2.3644867089296087 -2.359972564203261 -2.4035741037577361 -2.3496926077939855 -2.3829418179545074
leaf_weight=80.296972617506981 101.81834235787392 50.092843361198902 182.63479631394148 50.760747939348221 497.06942938268185 707.60779473930597 38.961100392043591 115.25064554065466 155.91861318796873 191.24334421008825 226.93913333117962 82.894379310309887 174.84257623553276 477.55177337676287 1576.032169573009 895.06634633988142 59.740353934466839 307.01347108930349 761.04016099125147 261.52174815535545 2675.1062587276101 218.18216219544411 5579.9716923385859 100.25989834219217 385.52936483174562 1046.4580507203937 316.36413518339396 21.669792979955673 261.22490167617798 398.36797505617142 259.29539956152439
leaf_count=1082 1372 675 2461 684 6698 9535 525 1553 2101 2577 3058 1117 2356 6435 21237 12061 805 4137 10255 3524 36047 2940 75190 1351 5195 14101 4263 292 3520 5368 3494
internal_value=-2.43249 -2.44162 -2.36491 -2.40652 -2.38098 -2.45363 -2.39018 -2.44178 -2.2953 -2.39692 -2.38332 -2.32998 -2.43245 -2.40065 -2.43011 -2.43162 -2.2389 -2.31566 -2.41357 -2.31715 -2.45392 -2.38637 -2.46436 -2.34159 -2.41978 -2.44506 -2.37594 -2.28297 -2.38049 -2.37049 -2.3628
internal_weight=0 16082.4 2174.33 4097.74 2064.64 11984.7 1595.18 5697.08 579.147 1572.92 1075.85 491.726 2033.1 1312.28 2906.72 2856.63 161.707 408.832 811.801 417.44 2790.36 834.732 6287.58 282.895 1280.6 1221.3 616.55 81.4101 577.589 848.907 657.663
internal_count=246009 216710 29299 55217 27821 161493 21495 76768 7804 21195 14497 6626 27396 17683 39168 38493 2179 5509 10939 5625 37600 11248 84725 3812 17256 16457 8308 1097 7783 11439 8862
cat_boundaries=0 2 3 4 6
cat_threshold=3454669573 33577613 82706 302153 269492400 558400
is_linear=0
shrinkage=1


Tree=1
num_leaves=32
num_cat=5
split_feature=41 40 40 41 41 40 40 41 40 38 39 26 40 26 39 39 39 41 40 40 41 39 39 38 39 40 40 40 41 26 39
split_gain=3906.94 2305.35 1236.23 805.478 530.755 483.14 304.485 302.745 246.558 221.188 213.901 177.394 156.923 145.276 138.658 110.732 106.476 99.4213 97.2351 89.9649 89.7094 88.7017 87.5887 79.2815 85.3013 72.4361 72.3465 70.7616 66.2598 65.6429 62.7236
threshold=0.31311035156250006 0.39270019531250006 0.38415527343750006 0.47497558593750006 0.50195312500000011 0.11618041992187501 0.61840820312500011 0.11358642578125001 0.20733642578125003 0 0.38684082031250006 1 0.65551757812500011 2 0.23919677734375003 0.29528808593750006 0.17022705078125003 0.16003417968750003 0.056152343750000007 0.63647460937500011 0.15240478515625003 0.29235839843750006 0.24249267578125003 3 0.42858886718750006 0.0099143981933593767 0.20147705078125003 0.12652587890625003 0.26147460937500006 4 0.12628173828125003
decision_type=8 8 8 10 10 10 10 10 10 9 10 9 8 9 10 10 8 10 10 10 10 10 8 9 10 10 10 10 10 9 8
left_child=2 3 8 5 6 15 13 -4 14 -7 26 18 16 -3 17 25 -9 -1 -5 29 -10 30 -8 24 28 -2 -11 -13 -18 -6 -15
right_child=1 4 7 11 19 9 22 12 20 10 -12 27 -14 21 -16 -17 23 -19 -20 -21 -22 -23 -24 -25 -26 -27 -28 -29 -30 -31 -32
leaf_value=0.19379091445412061 0.18913236629931335 -0.0085156173881797727 0.079236525787351381 0.083484892938035557 -0.031344728895629892 0.0044369062330287421 0.021915392494979327 0.10063100306026343 0.11432602477565675 0.082924148028894099 0.0022500592378082497 0.017327095896142737 0.00050505963956641771 0.093632308832871422 0.087919027078871226 0.045262253306632944 0.062729375846595964 0.13078566456287538 0.014504550299007846 -0.037426554410263262 0.066290824373940446 -0.0056273959398542642 -0.023830431020024339 0.0092806599020040029 0.012789485610538316 0.10407635484793246 0.049577223355875916 -0.016999400299027839 0.025805999416683181 -0.016648836824963913 0.020468207075914832
leaf_weight=98.719880223274231 27.655402965843678 1537.4228243529797 292.06457096338272 54.947044551372528 1951.8185932412744 456.11189396679401 109.24864420294762 57.238387487828732 137.26966413855553 215.6854430064559 216.18350040912628 177.57626357674599 496.35600225627422 30.318764492869377 113.28565952181816 78.560984224081039 363.81016873568296 171.19201843440533 727.25774835795164 2867.7175866439939 332.96551129221916 389.78115374594927 2478.8073228299618 334.24569519609213 208.25643993169069 263.81556463241577 661.41880314797163 971.49382962286472 182.43009264022112 1396.1307519897819 866.46976588666439
leaf_count=1124 338 20835 3651 684 27015 6089 1438 710 1649 2713 2900 2356 6684 380 1358 1009 4684 2086 9685 39704 4212 5271 34070 4441 2783 3228 8472 13289 2411 19282 11458
internal_value=0 -0.00985456 0.0544462 0.0236768 -0.020959 0.0466152 -0.00951093 0.0323307 0.104574 0.0343561 0.0463735 0.000879141 0.0239892 0.00184249 0.134344 0.0979465 0.0341608 0.15383 0.0191059 -0.030927 0.0803131 0.0141762 -0.0218994 0.0306663 0.0394938 0.112147 0.0577774 -0.0115937 0.0503979 -0.0253597 0.0229418
internal_weight=0 15478.4 2787.83 3850.71 11627.7 1919.43 5412.05 1934.4 853.433 1549.4 1093.29 1931.27 1642.34 2823.99 383.198 370.032 1145.98 269.912 782.205 6215.67 470.235 1286.57 2588.06 1088.74 754.497 291.471 877.104 1149.07 546.24 3347.95 896.789
internal_count=246009 210216 35793 50763 159453 24749 73452 25364 10429 20174 14085 26014 21713 37944 4568 4575 15029 3210 10369 86001 5861 17109 35508 14319 9878 3566 11185 15645 7095 46297 11838
cat_boundaries=0 2 3 4 6 7
cat_threshold=3907655425 33577613 82706 302185 286337202 15238491 265289
is_linear=0
shrinkage=0.05


Tree=2
num_leaves=32
num_cat=6
split_feature=41 40 40 41 41 40 41 40 26 41 38 39 40 39 1 39 40 40 38 40 39 39 39 39 16 11 39 39 95 38 40
split_gain=3394.89 2075.46 971.483 705.342 472.288 422.522 259.812 255.172 188.315 176.19 151.55 137.174 135.719 129.564 127.829 127.437 125.857 111.87 106.931 91.3807 86.1774 80.013 78.3461 77.5965 70.388 69.6975 66.9579 65.3639 63.3546 61.0772 59.3901
threshold=0.31787109375000006 0.40539550781250006 0.38415527343750006 0.50561523437500011 0.50195312500000011 0.15350341796875003 0.14508056640625003 0.61840820312500011 0 0.24517822265625003 1 0.35485839843750006 0.076812744140625014 0.26599121093750006 2 0.50317382812500011 0.24102783203125003 0.63940429687500011 3 0.63354492187500011 0.40319824218750006 0.24249267578125003 0.47009277343750006 0.19781494140625003 -1998.4999999999998 4 0.17950439453125003 0.26599121093750006 1.0000000180025095e-35 5 0.63647460937500011
decision_type=8 8 8 10 10 10 10 10 9 10 9 10 10 8 9 10 10 8 9 10 8 8 10 8 2 9 8 8 2 9 10
left_child=2 3 9 5 7 14 19 15 11 12 16 -7 28 -8 26 18 22 -15 24 -4 -6 -9 -5 -14 -3 -26 -2 -10 -1 -29 -22
right_child=1 4 6 10 20 8 13 21 27 -11 -12 -13 23 17 -16 -17 -18 -19 -20 -21 30 -23 -24 -25 25 -27 -28 29 -30 -31 -32
leaf_value=0.088623101862363815 0.17162033847152269 -0.001735703643134693 0.076911098745111928 0.042912981280347193 -0.013661287547118593 0.055135453074732416 0.061679853956105771 0.020474408832928573 0.060268452857549629 0.060876176259279116 -0.017100936675756778 0.002358214270199447 0.15767849330680739 0.025123906131063731 0.10699582858439548 -0.021023388944351407 -0.0032282019480993117 -0.004218916430981808 -0.0099354479272598072 0.031950560721047509 -0.02749099010357843 -0.023158889138317897 -0.01606757247774308 0.089240449176441472 0.02902313462019307 -0.0016731099937098853 0.053978691134118711 0.025669761243851549 0.17825061987514101 -0.0030508540447164293 -0.038107282300976951
leaf_weight=25.887309327721596 12.548211082816122 484.64496948570013 316.58999440073967 335.51727284491062 682.0101115629077 644.52340622246265 160.82402186095715 109.86781626939774 61.724293924868107 329.54707108438015 865.57359140366316 152.18846140801907 45.466484062373638 879.2956862449646 218.94344022125006 533.03575209528208 590.12637397646904 515.11963740736246 689.91241161525249 175.75254574418068 2765.8698448091745 2404.2220984697342 67.657892316579819 465.12016580253839 741.79396265000105 252.4596194922924 335.16786823421717 272.31578360497952 82.717619068920612 537.20812793821096 2515.4835741370916
leaf_count=264 141 6458 3768 4402 9535 7983 1987 1420 780 3882 11823 2019 500 11305 2508 7277 7939 6930 9356 2198 39189 33716 896 5190 9798 3386 3936 3461 838 7123 36001
internal_value=0 -0.00962272 0.048586 0.0208372 -0.0207761 0.039767 0.0292063 -0.00978745 0.0270945 0.0904115 -0.00191902 0.0444954 0.106131 0.0191853 0.0770683 0.000880484 0.0113684 0.0142842 0.00626387 0.0608614 -0.0303875 -0.0212521 0.0330153 0.0953347 0.0137948 0.0215039 0.0582241 0.0105504 0.156887 0.00688988 -0.0325475
internal_weight=0 15272.8 2996.32 4093.49 11179.3 2234.62 2047.58 5215.94 1667.96 948.739 1858.88 796.712 619.192 1555.24 566.66 2701.85 993.302 1394.42 2168.81 492.343 5963.36 2514.09 403.175 510.587 1478.9 994.254 347.716 871.248 108.605 809.524 5281.35
internal_count=246009 209147 36862 53011 156136 27951 26188 71411 21366 10674 25060 10002 6792 20222 6585 36275 13237 18235 28998 5966 84725 35136 5298 5690 19642 13184 4077 11364 1102 10584 75190
cat_boundaries=0 1 3 4 6 7 9
cat_threshold=213782 20006585 16268562 1 556878074 13155674 24 538010866 9209112
is_linear=0
shrinkage=0.05


Tree=3
num_leaves=32
num_cat=7
split_feature=41 40 40 41 41 40 40 41 26 40 38 39 38 39 40 39 40 40 38 38 16 41 39 26 39 1 39 7 39 16 8
split_gain=2968.87 1821.54 836.529 553.552 440.809 321.119 243.054 228.936 185.709 179.03 139.021 123.968 114.348 105.424 101.026 93.7375 92.7451 86.968 83.731 82.1301 78.3845 78.2591 75.1241 73.4145 69.3135 63.7081 61.2838 59.2605 58.579 58.5223 58.2403
threshold=0.33361816406250006 0.39270019531250006 0.40930175781250006 0.50561523437500011 0.50195312500000011 0.11618041992187501 0.61254882812500011 0.19354248046875003 0 0.20733642578125003 1 0.31774902343750006 2 0.57202148437500011 0.25646972656250006 0.23919677734375003 0.63354492187500011 0.62475585937500011 3 4 -2176.4999999999995 0.14508056640625003 0.39221191406250006 5 0.47009277343750006 6 0.19390869140625003 14793.750000000002 0.26599121093750006 -1972.4999999999998 450117.00000000006
decision_type=8 8 8 10 10 10 10 10 9 10 9 10 9 10 10 10 8 10 9 9 2 10 10 9 10 9 10 10 8 2 8
left_child=2 3 9 5 6 25 11 16 20 15 14 12 29 18 24 -1 -4 -6 -9 22 -7 -11 -10 -8 -5 -2 -22 -23 -20 -3 -29
right_child=1 4 7 10 17 8 23 13 19 21 -12 -13 -14 -15 -16 -17 -18 -19 28 -21 26 27 -24 -25 -26 -27 -28 30 -30 -31 -32
leaf_value=0.1119574978198781 0.059896643410341059 0.0021612201118568256 0.057474596692188143 0.038266426749938229 -0.02338589265574325 0.021217138695303561 -0.027611418110554543 -0.0051467017161629571 0.037692135765498805 0.088615802696938833 -0.0155625814806902 -0.014572271477086042 -0.0075723183467737518 -0.018226712043930195 -0.0036483982188265222 0.064232967110744207 0.022547106927555127 -0.035523669557971892 0.058953096343091094 -0.00061517790388841242 0.072379672136179143 0.019109775936264405 -0.005291570409709314 -0.0097727694358248299 -0.014648079292932839 0.099178356912026713 0.030992665953368182 0.078410248644028221 0.02073746102223923 0.026775834332860939 0.040095627114007604
leaf_weight=361.6161797195673 264.90345794707537 357.42400667816401 520.50080981105566 373.72965148836374 2957.827285207808 175.71268068253994 1476.0894179567695 297.75534578412771 429.90946990251541 170.27537441253662 846.31306680291891 830.88356027752161 662.13639652729034 247.16939290612936 471.91335636377335 143.80582089722157 299.38316416740417 2945.3104584291577 116.57374294102192 512.89570216089487 316.98534739017487 122.21815866976976 133.12892035394907 1004.9134922102094 74.170643873512745 169.11012039333582 124.60595528036356 195.05899668484926 717.27939260005951 744.38677061349154 201.78473822772503
leaf_count=3555 2933 4729 6038 4760 42679 2121 21008 3926 5120 1750 11697 11423 8995 3306 6354 1504 3776 43322 1388 6746 3709 1407 1761 14214 996 1763 1548 2229 9305 9607 2340
internal_value=0 -0.00973133 0.042098 0.0196531 -0.0201517 0.0368317 -0.00934723 0.023798 0.0269964 0.0757748 -0.00103805 0.00135136 0.00885198 0.0113564 0.0123607 0.0983786 0.0447207 -0.0294419 0.017818 0.013977 0.0486738 0.0592017 0.0270484 -0.0205367 0.029504 0.0752025 0.0607013 0.0495526 0.025771 0.0186219 0.0589283
internal_weight=0 14872.3 3393.42 3893.38 10979 2127.25 5075.83 2198.66 1693.24 1194.76 1766.13 2594.83 1763.95 1378.78 919.814 505.422 819.884 5903.14 1131.61 1075.93 617.304 689.337 563.038 2481 447.9 434.014 441.591 519.062 833.853 1101.81 396.844
internal_count=246009 205485 40524 49508 155977 25701 69976 27739 21005 12785 23807 34754 23331 17925 12110 5059 9814 86001 14619 13627 7378 7726 6881 35222 5756 4696 5257 5976 10693 14336 4569
cat_boundaries=0 1 3 5 7 9 10 11
cat_threshold=197398 20006576 15219986 556878074 13156184 2888434508 60055692 806381750 9217304 298057 1
is_linear=0
shrinkage=0.05


Tree=4
num_leaves=32
num_cat=7
split_feature=41 40 41 40 41 40 39 26 26 40 39 11 40 40 1 40 40 38 39 39 39 39 38 40 26 15 15 39 19 15 41
split_gain=2632.99 1705.62 616.913 604.331 445.438 276.949 224.16 170.164 164.222 156.102 131.482 116.862 116.018 93.7182 89.9346 87.9855 87.0028 83.6749 79.4787 74.8512 71.5856 70.2165 68.7059 64.7314 58.0833 57.2835 55.9424 60.83 54.7775 49.752 45.1486
threshold=0.43383789062500006 0.42492675781250006 0.26147460937500006 0.40100097656250006 0.24517822265625003 0.11618041992187501 0.27600097656250006 0 1 0.68627929687500011 0.47277832031250006 2 0.55151367187500011 0.12652587890625003 3 0.65551757812500011 0.18316650390625003 4 0.38684082031250006 0.36413574218750006 0.29528808593750006 0.30187988281250006 5 0.12652587890625003 6 -16737.499999999996 -19062.499999999996 0.25939941406250006 25.500000000000004 -18253.499999999996 0.083099365234375014
decision_type=10 8 8 8 8 10 8 9 9 10 10 9 10 10 9 8 10 9 10 10 10 8 9 8 9 2 2 10 8 2 10
left_child=1 4 10 8 13 20 -4 18 16 11 15 14 24 -1 25 22 -2 19 28 -9 29 -14 -3 -10 -5 -8 -15 30 -7 -6 -28
right_child=3 2 6 12 5 7 9 17 23 -11 -12 -13 21 26 -16 -17 -18 -19 -20 -21 -22 -23 -24 -25 -26 -27 27 -29 -30 -31 -32
leaf_value=0.1089021958348701 0.04146603114614629 0.061354975162258546 0.030791922734367719 -0.0050892334198136728 0.049020375481462618 0.034091959465195193 -0.015119345259439636 0.039608755976169675 0.017087780811501196 -0.026731474902706494 0.0039436376387946941 -0.019660413351585845 -0.0067393445595031638 0.037256208249771793 0.015788119456354079 0.01739292041503214 0.0089044677201218555 0.0033929648172871989 0.0070228763279684102 0.0019682011710958828 0.032915506289270646 -0.032130338179196166 0.027272919259685027 -0.013393844057134114 -0.0232498915151087 0.0046103340279704478 0.13111700893889416 0.052336910601211796 0.065727589427421032 0.091192160161208111 0.081207664341112193
leaf_weight=206.47668616473675 294.97716986387968 466.6321455091238 372.34059325605631 758.87889556586742 92.21553398668766 202.61991554498672 740.85032034665346 502.71518755704165 207.27603637427092 1015.8140813484788 328.16444741934538 862.81766441464424 289.17347867786884 107.91818239539862 767.75265553593636 305.09136366099119 673.63292165100574 588.6884206533432 98.007056728005409 179.14246602356434 97.071950472891331 4661.4578057155013 301.48682460188866 1090.5592712089419 1108.6644702255726 730.8173952922225 54.235016949474812 166.43113629519939 421.43355213105679 289.48362912237644 275.4381715208292
leaf_count=1759 3522 5239 4732 10846 946 2286 10261 5765 2623 14666 4093 11975 4128 1093 10339 3889 8714 7523 1253 2301 1064 69615 3540 15166 16212 9934 508 1727 4727 2798 2765
internal_value=0 0.0187692 0.0026783 -0.0192061 0.0476561 0.0371072 -0.00636015 0.0289027 0.00316133 -0.00971932 0.03164 -0.00414876 -0.0266413 0.079822 0.00190694 0.0401089 0.0186283 0.0174112 0.0482143 0.02929 0.0712538 -0.0306472 0.0491316 -0.00846046 -0.016022 -0.00532176 0.0698814 0.0769784 0.055456 0.0810038 0.0894183
internal_weight=0 9173.64 5891.77 9084.62 3281.88 2471.38 4490.39 1992.61 2266.45 4118.05 1401.37 3102.24 6818.17 810.499 2239.42 1073.21 968.61 1270.55 722.061 681.858 478.771 4950.63 768.119 1297.84 1867.54 1471.67 604.023 496.104 624.053 381.699 329.673
internal_count=246009 115183 78668 130826 36515 28663 61907 23855 30025 57175 16761 42509 100801 7852 30534 12668 12236 15589 8266 8066 4808 73743 8779 17789 27058 20195 6093 5000 7013 3744 3273
cat_boundaries=0 1 2 3 4 6 8 9
cat_threshold=66326 86802 24 1 939601144 9209112 1343226032 4752712 254740
is_linear=0
shrinkage=0.05


Tree=5
num_leaves=32
num_cat=7
split_feature=41 40 40 41 41 40 39 26 40 38 39 40 39 41 11 40 41 40 38 38 40 39 95 16 39 17 26 16 1 19 39
split_gain=2377.71 1454.51 569.661 544.987 354.32 224.277 199.811 183.565 148.055 141.977 139.888 114.45 111.799 81.1799 80.3741 76.2786 76.1773 66.4262 63.0956 62.8366 61.876 60.9067 59.6912 57.8543 55.8957 55.5884 55.357 52.2104 51.8181 65.6478 51.1275
threshold=0.43383789062500006 0.42492675781250006 0.48962402343750006 0.26147460937500006 0.24517822265625003 0.11618041992187501 0.27600097656250006 0 0.64233398437500011 1 0.38684082031250006 0.24102783203125003 0.47277832031250006 0.60839843750000011 2 0.20733642578125003 0.11358642578125001 0.15350341796875003 3 4 0.65844726562500011 0.50024414062500011 1.0000000180025095e-35 -1449.4999999999998 0.29528808593750006 -6813.9999999999991 5 -2905.4999999999995 6 25.500000000000004 0.47546386718750006
decision_type=10 8 8 8 8 10 8 9 10 9 10 10 10 10 9 10 10 10 9 9 8 10 2 2 10 2 9 2 9 8 10
left_child=1 4 7 12 15 24 -5 11 14 -7 22 30 16 21 19 -1 -3 -9 20 23 -18 -4 -11 -8 -6 -24 -10 -13 -27 -30 -2
right_child=2 3 13 6 5 9 8 17 26 10 -12 27 -14 -15 -16 -17 18 -19 -20 -21 -22 -23 25 -25 -26 28 -28 -29 29 -31 -32
leaf_value=0.088348370596670195 0.038955524911830186 0.06078923072062057 -0.016592239076706938 0.02850004494965501 0.072236490745872448 0.0046469479166365985 -0.00017283553614836172 0.01138758260979581 -0.0082433276572986634 0.0215298911389641 0.0029478768123006507 -0.017963084591343742 0.0037340060329876025 -0.033198554016420426 -0.016587383254493784 0.058300459822436451 0.050629841825438532 -0.016201603134238851 0.010590989814920836 -0.0087666277124907026 0.011772004689254418 -0.034097123912906285 0.025391648349499175 0.022045143614912079 0.030442868704294836 0.042444184992084688 -0.02774786695433893 0.0090097719980239983 0.042089120235616784 0.087106395837617243 -0.010813388401388594
leaf_weight=372.31405245512724 399.57251062244177 256.7661395445466 1867.4444952458143 381.91115630418062 405.9172233864665 550.66494436562061 591.42036900669336 254.72099179774523 598.01408150047064 269.14349630475044 277.64581552892923 241.80690155923367 329.23047387599945 3221.2462876141071 637.9291062951088 488.10910599678755 399.75988704711199 1520.5697244927287 313.41635968536139 626.07586111873388 137.75038939714432 677.0923646017909 207.70996893197298 580.67557197809219 99.639344558119774 396.99708802998066 1050.4994047656655 695.24635709822178 134.99722490459681 202.40891548991203 59.256121255457401
leaf_count=3087 4679 2680 27826 4732 3744 7022 7908 3246 8667 3003 3570 3297 4093 49493 8884 4765 4379 21854 3839 8658 1770 10293 2265 7570 1064 4366 15488 9378 1479 2150 760
internal_value=0 0.0175429 -0.0185636 0.00253168 0.0435647 0.0341874 -0.00608504 -0.00154195 -0.00931875 0.0267977 0.0347257 0.011982 0.0293159 -0.0279256 -0.00148796 0.0713025 0.0369193 -0.0121745 0.0297166 0.00393913 0.0399287 -0.0212502 0.0422965 0.0107427 0.0639995 0.0482292 -0.0208907 0.00204942 0.0546883 0.0690948 0.032528
internal_weight=0 9309 8936.96 5903.45 3405.55 2545.12 4466.53 3171.17 4084.61 2039.57 1488.9 1395.88 1436.92 5765.78 2436.1 860.423 1107.69 1775.29 850.927 1798.17 537.51 2544.54 1211.26 1172.1 505.557 942.113 1648.51 937.053 734.403 337.406 458.829
internal_count=246009 115183 130826 78668 36515 28663 61907 43214 57175 23855 16833 18114 16761 87612 33020 7852 12668 25100 9988 24136 6149 38119 13263 15478 4808 10260 24155 12675 7995 3629 5439
cat_boundaries=0 1 3 4 6 8 9 10
cat_threshold=82710 3236565509 33585805 24 1347510450 4752705 20543738 15496210 123666 1
is_linear=0
shrinkage=0.05


Tree=6
num_leaves=32
num_cat=6
split_feature=41 40 41 40 41 40 26 26 39 15 1 40 39 40 11 40 40 40 39 40 49 39 16 19 39 11 15 39 11 39 6
split_gain=2156.51 1383.05 491.203 426.759 338.521 246.027 174.435 145.354 124.872 124.594 97.2382 91.7792 91.5492 89.6518 73.4657 69.1192 68.0456 67.5002 66.3019 63.9788 62.1157 57.0705 56.4889 51.7073 48.8578 48.184 46.8025 46.042 44.449 42.6663 41.1874
threshold=0.47497558593750006 0.45300292968750006 0.26147460937500006 0.48962402343750006 0.24517822265625003 0.20147705078125003 0 1 0.42297363281250006 -19862.499999999996 2 0.67602539062500011 0.45373535156250006 0.63354492187500011 3 0.12652587890625003 0.24102783203125003 0.20733642578125003 0.41442871093750006 0.71557617187500011 0.11163330078125001 0.20941162109375003 -1650.4999999999998 14.500000000000002 0.20599365234375003 4 -9877.4999999999982 0.26281738281250006 5 0.20941162109375003 180294.75000000003
decision_type=10 8 8 10 8 10 9 9 10 2 9 8 10 8 9 8 8 10 8 10 10 8 2 8 8 9 2 8 9 8 2
left_child=1 4 13 7 17 10 12 16 9 -7 20 21 19 25 22 -9 -2 30 -5 23 -6 -8 -11 -4 -19 -3 -24 -17 -23 -15 -1
right_child=3 2 6 18 5 8 11 15 -10 14 -12 -13 -14 29 -16 27 -18 24 -20 -21 -22 28 26 -25 -26 -27 -28 -29 -30 -31 -32
leaf_value=0.033348333286143693 0.027165737964316886 0.016431799001421634 -0.0038201621828784929 -0.013116792582310993 0.046864071560923731 -0.0030426751775709479 0.036115764499180955 0.014605794968970374 -0.0068196876378001231 0.022739359821688412 0.066822159172154241 -0.029520578068694389 -0.018237970838478525 0.06880920769209159 0.0091130830941623057 0.025281439236856759 0.001076246125461253 0.095715156054265602 -0.030650698596342309 -0.018693229339036915 0.013708042662338403 -0.0053021151499133262 0.053643722833154453 0.017489614002125592 0.047277277224507898 0.044701915285338949 0.022193377728768761 -0.019040404467753225 -0.021663090455159632 0.0073073692081891285 0.084457189902843177
leaf_weight=44.393314838409424 371.82727692276239 258.83424158394337 384.64593939483166 613.42160335928202 442.65127567946911 322.89701650291681 65.331905953586102 192.41995984315872 378.19967236369848 388.88651043921709 435.11208267509937 860.78826954215765 398.75656167417765 29.798961773514748 315.94582088291645 61.089569717645645 762.31941134482622 57.726549185812473 4452.8424594029784 192.48550269752741 207.46570854634047 1143.3593727275729 529.61014147847891 1095.1636450141668 530.34668854624033 567.401790112257 152.312987819314 1434.7955352962017 662.54857115447521 525.53099516779184 351.84292720258236
leaf_count=347 4345 2833 5106 9211 4522 4117 802 2429 4978 4448 4100 12974 5706 343 3683 873 10406 508 70161 2805 2169 16068 5927 14438 5090 6128 1697 20998 9560 6497 2740
internal_value=0 0.0148614 -0.00012987 -0.0198475 0.0371629 0.0292163 -0.00768721 -0.00426679 0.0191787 0.0249299 0.0485276 -0.0159503 0.00327425 0.0261436 0.0314432 -0.0135218 0.00954546 0.0627798 -0.0285277 0.0084234 0.0362833 -0.00979309 0.0375955 0.0119506 0.052032 0.0365857 0.046619 -0.0172304 -0.0114539 0.0106076 0.0787311
internal_weight=0 10342 6184.65 7888.72 4157.39 3173.08 4803.08 2822.45 2087.85 1709.65 1085.23 2732.03 2071.05 1381.57 1386.76 1688.31 1134.15 984.309 5066.26 1672.3 650.117 1871.24 1070.81 1479.81 588.073 826.236 681.923 1495.89 1805.91 555.33 396.236
internal_count=246009 127586 83260 118423 44326 35641 67459 39051 24850 19872 10791 39404 28055 15801 15755 24300 14751 8685 79372 22349 6691 26430 12072 19544 5598 8961 7624 21871 25628 6840 3087
cat_boundaries=0 1 2 3 4 5 6
cat_threshold=221974 82704 1 16 6 24
is_linear=0
shrinkage=0.05


Tree=7
num_leaves=32
num_cat=7
split_feature=41 40 40 41 40 41 39 38 11 39 38 38 40 39 40 39 1 39 41 38 95 41 40 1 15 53 16 40 40 39 40
split_gain=1955.77 1202.19 403.426 402.848 321.534 200.155 157.438 138.384 123.291 121.336 115.73 104.73 97.6023 89.3851 87.411 78.526 70.8494 63.4923 57.9125 54.2491 52.9246 50.1401 49.3142 48.6522 47.9341 47.6791 44.133 43.2328 43.1999 43.1676 42.5471
threshold=0.47497558593750006 0.48669433593750006 0.48669433593750006 0.26147460937500006 0.20147705078125003 0.24517822265625003 0.27600097656250006 0 1 0.42565917968750006 2 3 0.25207519531250006 0.32653808593750006 0.70532226562500011 0.44567871093750006 4 0.41442871093750006 0.17510986328125003 5 1.0000000180025095e-35 0.083099365234375014 0.034317016601562507 6 -19386.499999999996 0.030448913574218753 -2293.4999999999995 0.71997070312500011 0.15350341796875003 0.47009277343750006 0.65991210937500011
decision_type=10 8 10 8 10 8 8 9 9 10 9 9 8 10 10 10 9 8 8 9 2 10 10 9 2 10 2 8 8 10 10
left_child=1 4 7 15 10 -6 -5 12 14 11 13 20 29 18 16 19 24 -4 -1 -3 -7 -21 -12 -22 -8 -24 -14 -23 -9 -2 -19
right_child=2 3 17 6 5 9 8 28 -10 -11 22 -13 26 -15 -16 -17 -18 30 -20 21 23 27 25 -25 -26 -27 -28 -29 -30 -31 -32
leaf_value=0.10139259511097076 0.033823837015156878 0.0067352902998706558 -0.012633276695977899 0.022601011841573149 0.046511993358608505 0.012276565575482333 -0.020733305078245692 0.00565007817884798 -0.024760531362479032 -0.006553959909021312 0.066435044184286404 0.007517940708574089 -0.018298574829179945 0.031120758423875947 -0.024739019541150528 0.0020564321933867493 0.010434271598635594 -0.025522941498949514 0.064349180365443501 0.070682457783968908 0.026859037776669106 0.036386861125121649 0.03650219764275927 0.049597561326666192 -0.0018356229394081323 0.00275386653092257 0.0061547148880043805 -0.0061221847725726085 -0.017902444803855593 -0.010195972797394426 -0.035488272471697738
leaf_weight=126.16850147396326 374.22761391103268 214.7102779597044 611.80131350830197 367.92582748830318 732.88686718791723 282.04559859633446 496.8146700784564 229.98604865372181 1222.8042488768697 455.13346878439188 89.988023705780506 797.98489532619715 273.48177088797092 178.19863179326057 499.31893540918827 331.02126521617174 794.35350540280342 2476.6379220709205 644.35257142037153 96.274921059608459 531.02752049267292 580.88449520617723 342.34326250851154 422.33875215053558 1033.8152170106769 150.73690287023783 567.18443904817104 66.67801271378994 1268.6712257042527 65.430629007518291 1887.3137253597379
leaf_count=876 4367 2491 9287 4492 6829 3215 7201 2912 18231 6097 742 9939 3897 1780 7652 4021 10768 39527 5649 946 5921 6252 3249 4544 14376 1486 7932 829 18578 868 31055
internal_value=0 0.0139417 -0.0191952 -0.00153286 0.0325135 0.0235461 -0.00871383 -0.00393513 -0.0115607 0.0167825 0.0513723 0.0220059 0.00811983 0.0623767 -0.00573773 0.0230523 -0.00168165 -0.0277179 0.0704148 0.0303029 0.0310519 0.0365242 0.0318509 0.0369321 -0.00796947 0.0261852 -0.00180032 0.0320098 -0.0141933 0.0272727 -0.0298327
internal_weight=0 10457.8 7754.73 5704.6 4753.2 3221.42 4415.03 2778.98 4047.11 2488.53 1531.79 2033.4 1280.32 948.72 2824.3 1289.57 2324.98 4975.75 770.521 958.548 1235.41 743.837 583.068 953.366 1530.63 493.08 840.666 647.563 1498.66 439.658 4363.95
internal_count=246009 127586 118423 77259 50327 36545 62720 38554 58228 29716 13782 23619 17064 8305 39997 14539 32345 79869 6525 10518 13680 8027 5477 10465 21577 4735 11829 7081 21490 5235 70582
cat_boundaries=0 2 3 5 7 8 10 11
cat_threshold=565200616 15218000 24 1050802 4752706 537995498 13143360 1 2909406789 51673732 1
is_linear=0
shrinkage=0.05


Tree=8
num_leaves=32
num_cat=5
split_feature=41 40 40 41 40 41 39 38 39 40 15 40 38 39 39 11 11 11 15 39 16 16 16 41 39 15 39 39 40 41 40
split_gain=1774.23 1048.66 381.053 357.787 275.179 169.84 146.643 127.025 109.813 101.835 97.8162 97.2632 94.6703 78.8723 77.5613 68.9024 67.6111 66.3891 61.9241 61.3719 52.3379 50.4904 45.589 44.2179 43.9633 51.3904 43.8922 43.4763 41.765 40.5631 40.5588
threshold=0.47497558593750006 0.49255371093750006 0.48962402343750006 0.26147460937500006 0.20733642578125003 0.22949218750000003 0.53784179687500011 0 0.42565917968750006 0.68627929687500011 -19862.499999999996 0.25207519531250006 1 0.32092285156250006 0.17462158203125003 2 3 4 -19980.499999999996 0.41442871093750006 -2293.4999999999995 -1650.4999999999998 -1972.4999999999998 0.17510986328125003 0.44567871093750006 -19743.499999999996 0.47009277343750006 0.20599365234375003 0.034317016601562507 0.094116210937500014 0.65991210937500011
decision_type=10 8 10 8 10 8 10 9 10 10 2 8 9 10 8 9 9 9 2 8 2 2 2 8 10 2 10 8 10 10 10
left_child=1 4 7 16 12 27 9 -2 10 14 -7 26 13 23 -5 18 -3 21 -16 -4 -13 -12 -20 -1 25 -18 -9 -6 -14 -27 -21
right_child=2 3 19 6 5 8 -8 11 -10 -11 17 20 28 -15 15 -17 24 -19 22 30 -22 -23 -24 -25 -26 29 -28 -29 -30 -31 -32
leaf_value=0.089786341631242439 -0.014812995819063774 0.0031963685529495531 -0.012107968906304344 0.040954201521598538 0.081072587170101948 -0.0020423353641132918 -0.027011208063689392 0.030461894365394621 -0.0058976555058637727 -0.018952694741309176 0.018257744656932275 -0.019265286539380484 0.060044999183774345 0.027439711390728344 -0.013338370302571349 -0.015123524587311518 0.0057535273979007181 0.0071183760376573556 -0.0029387857035720181 -0.024914990336313933 0.0055252041159680465 0.03836808283204457 0.015502684213113566 0.058442430086624975 0.0078824979295571244 0.070296179410192977 -0.01164685825089112 0.039449314544096545 0.024768931389385865 0.035040946640212907 -0.034801611091410216
leaf_weight=134.61230911314487 1356.5589347593486 381.9812451377511 600.01780985668302 115.64499989897013 69.833570726215839 390.63772615045309 866.61038865894079 426.05530934780836 478.70053569227457 856.67920464649796 488.96105568110943 323.37250134348869 99.3777806609869 184.93969577550888 404.82244963943958 627.13327993452549 126.34578067064285 403.71201049536467 527.19856258481741 2395.3390475809574 623.23830276727676 862.9394928663969 919.85502575337887 685.62166615575552 194.51740977168083 97.832047745585442 72.400823757052422 617.30432626605034 538.93858586251736 491.36197251081467 1829.7968475483358
leaf_count=880 19839 4366 9211 1313 566 4983 13126 4863 6417 13140 5507 4683 781 1805 5814 9148 1424 4702 7211 39106 8696 9284 12106 5769 2343 919 970 5610 5100 5272 31055
internal_value=0 0.0130893 -0.0185555 -0.00171565 0.0298494 0.0215497 -0.00862283 -0.00388844 0.0157567 -0.00400561 0.0205865 0.00642504 0.0465756 0.056375 0.000929478 -0.000937663 0.0213679 0.0256216 0.00392681 -0.0270716 -0.0029435 0.0308662 0.00878399 0.0635864 0.0286452 0.0346898 0.0243456 0.0436795 0.0297942 0.0408949 -0.0291966
internal_weight=0 10565.6 7626.78 5609.98 4955.58 3312.09 4317.94 2801.63 2624.95 3451.33 2146.25 1445.07 1643.49 1005.17 2594.65 2479.01 1292.04 1755.61 1851.88 4825.15 946.611 1351.9 1447.05 820.234 910.057 715.54 498.456 687.138 638.316 589.194 4225.14
internal_count=246009 127586 118423 76182 51404 37069 61858 39051 30893 48732 24476 19212 14335 8454 35592 34279 14324 19493 25131 79372 13379 14791 19317 6649 9958 7615 5833 6176 5881 6191 70161
cat_boundaries=0 2 4 5 6 7
cat_threshold=3695753479 50645646 1048754 13141314 24 2 16
is_linear=0
shrinkage=0.05


Tree=9
num_leaves=32
num_cat=6
split_feature=41 40 40 41 41 40 26 38 39 39 11 15 26 40 39 41 35 39 11 40 40 38 19 39 39 16 39 7 8 16 40
split_gain=1610.19 923.298 362.9 311.321 246.449 226.196 137.532 101.119 100.884 99.9071 96.4932 86.9355 84.2232 79.1372 75.0581 64.1038 62.9302 64.3304 59.2366 55.6772 53.1252 52.658 48.5505 47.4257 44.7252 43.5304 49.0278 43.1173 74.355 45.1489 42.3087
threshold=0.47497558593750006 0.55786132812500011 0.54956054687500011 0.26574707031250006 0.29931640625000006 0.26354980468750006 0 1 0.26599121093750006 0.35778808593750006 2 -19862.499999999996 3 0.056152343750000007 0.48376464843750006 0.63720703125000011 1.0000000180025095e-35 0.26599121093750006 4 0.20733642578125003 0.26184082031250006 5 21.500000000000004 0.30187988281250006 0.13299560546875003 -2793.4999999999995 0.37829589843750006 15018.750000000002 450117.00000000006 -1798.4999999999998 0.71557617187500011
decision_type=10 8 10 8 8 10 9 9 8 10 9 2 9 8 10 10 2 10 9 10 8 9 8 8 8 2 10 10 8 2 10
left_child=1 3 6 10 14 7 13 16 -6 11 19 -7 30 -2 21 25 17 -5 22 -1 -8 -3 -13 -4 -20 -15 -27 -21 29 -29 -10
right_child=2 4 23 5 8 9 20 -9 12 -11 -12 18 -14 15 -16 -17 -18 -19 24 27 -22 -23 -24 -25 -26 26 -28 28 -30 -31 -32
leaf_value=0.065954104892331722 0.055928946739985108 -0.0024427358979893445 -0.0066409348105632678 0.044185203382878263 0.01899973713218912 -0.0053652918316618413 -0.0016053668676741556 0.012793847210601759 0.00022929806010508114 -0.0065570347074251356 0.021096094496766676 0.0099832502597317664 -0.021817812808181972 -0.0082036680105139828 -0.0083237960628692684 -0.0083195039576679283 0.072274823227494345 0.013862731033900616 0.08075849688394969 0.023087413631374416 -0.020089566007394893 0.026185038720750245 0.030733394251439464 -0.02962909893673514 -0.00082932821574184567 0.026990232592025872 -0.0085468679671284794 0.038440872919365571 0.03213715623981838 0.077383387076646687 -0.025011392540024036
leaf_weight=392.23830204457045 72.508811451494694 208.99816978722811 238.63960902392864 736.42374800890684 233.51471026241779 428.21612158417702 534.20255088806152 476.63177521526814 924.4089146591723 721.14832580834627 442.93076314032078 395.29973018914461 1800.2886829264462 190.88039545714855 301.53003370761871 716.46699319779873 145.31947364658117 229.40247078984976 17.55003384500742 202.95716483145952 1427.3830479122698 758.51814625412226 982.64283650368452 3749.4129085727036 391.67599241435528 451.56492803245783 123.62623445317149 107.56100581586361 324.2664951607585 241.62391586601734 202.36729300022125
leaf_count=2731 721 2507 3656 6406 2810 5698 7419 5041 12944 9927 3959 4475 27778 2666 3856 9881 1287 2434 185 1881 22402 8374 11043 63982 4880 5961 1735 987 3037 2170 3176
internal_value=0 0.0123008 -0.0179287 0.0246997 -0.00515405 0.0178283 -0.0062199 0.0330323 -0.0126272 0.00960749 0.0428634 0.0148693 -0.0151504 0.00489442 0.013458 0.00243141 0.0412276 0.036983 0.0197177 0.0499035 -0.0149794 0.0202464 0.0246021 -0.0282535 0.00260596 0.0124862 0.0193522 0.0432894 0.0493776 0.0653877 -0.00426603
internal_weight=0 10665.5 7504.69 6235.89 4429.63 4524.31 3516.63 1587.78 3160.58 2936.53 1711.58 2215.38 2927.06 1555.05 1269.05 1482.54 1111.15 965.826 1787.17 1268.65 1961.59 967.516 1377.94 3988.05 409.226 766.072 575.191 876.409 673.451 349.185 1126.78
internal_count=246009 127586 118423 66141 61445 51376 50785 15168 46708 36208 14765 26281 43898 20964 14737 20243 10127 8840 20583 10806 29821 10881 15518 67638 5065 10362 7696 8075 6194 3157 16120
cat_boundaries=0 1 3 4 5 6 8
cat_threshold=82710 286353650 15508802 24 217872 16 2905213508 50356740
is_linear=0
shrinkage=0.05


Tree=10
num_leaves=32
num_cat=5
split_feature=41 40 40 41 40 41 38 40 39 39 39 15 26 38 39 38 7 8 16 41 8 19 0 39 16 15 39 40 40 39 118
split_gain=1461.81 815.231 343.214 271.074 222.558 149.518 132.114 99.9404 99.3974 90.4418 85.3481 81.8846 76.441 70.1043 65.7774 64.8479 54.1791 75.1701 52.0768 49.2393 48.6218 47.7615 46.6853 46.6728 44.7386 44.2609 42.0728 41.6186 41.5839 41.4216 41.0534
threshold=0.47497558593750006 0.51684570312500011 0.55151367187500011 0.32727050781250006 0.20147705078125003 0.31787109375000006 0 0.25207519531250006 0.52319335937500011 0.42297363281250006 0.44274902343750006 -19980.499999999996 1 2 0.38952636718750006 3 15018.750000000002 450117.00000000006 -1449.4999999999998 0.16003417968750003 675191.25000000012 14.500000000000002 4 0.30187988281250006 -2293.4999999999995 -9877.4999999999982 0.11911010742187501 0.71997070312500011 0.31213378906250006 0.11080932617187501 3.5000000000000004
decision_type=10 8 10 8 10 8 9 8 10 10 10 2 9 9 10 9 10 10 2 8 8 8 1 8 2 2 8 8 8 8 8
left_child=1 4 6 10 13 16 7 -2 12 11 15 -7 21 14 19 20 -6 -18 -13 -1 22 -5 -3 -4 -9 29 -26 -14 -8 -20 -31
right_child=2 3 23 8 5 9 28 24 -10 -11 -12 18 27 -15 -16 -17 17 -19 25 -21 -22 -23 -24 -25 26 -27 -28 -29 -30 30 -32
leaf_value=0.077353588869745665 0.022045312762365352 0.038960182493209483 -0.0059974123556363178 -0.013265966670175891 0.01322324817949435 -0.0060604527493035732 -0.0063235274381227644 -0.016601243889300971 -0.027436364176667196 -0.0093876278464635823 -0.0053310328410714177 0.0095154912116260839 -0.010275268086763989 0.021760062036039772 0.018277996790382479 0.0031597496369941691 0.050149462145221972 0.023556987455939971 0.11338288229705114 0.04693153594847143 0.0064299708252805498 0.0092231467106663641 -0.0012343491861951696 -0.029013522472823385 0.095745168759495458 0.009247487402339806 0.0014139594231231531 -0.032510180430396135 -0.022406762587874576 0.021899440822670917 0.046005362996946048
leaf_weight=156.23557557910681 512.02878645807505 595.71459272131324 234.50695994496346 325.24431379884481 312.99203626811504 364.87113411724567 657.12150567770004 458.23252969235182 717.40320956707001 447.2278451398015 458.69785711169243 692.23627600073814 1268.483494669199 462.85351111739874 174.16201148182154 422.18211655691266 533.01565904915333 529.97918696701527 15.872120097279547 894.60857263952494 207.59236992523074 861.24844855442643 82.211034715175629 3626.1034441143274 11.986376129090784 252.20622070133686 853.35980325564742 252.31565345823765 1034.7801557816565 432.74900817871094 298.41526406258345
leaf_count=944 5857 6405 3614 4515 2985 4814 9350 7013 11372 6250 5947 7843 18913 4134 1660 5049 4803 5096 153 7044 2340 11636 893 63528 162 2770 12396 4129 16503 4714 3177
internal_value=0 0.0115707 -0.0173141 -0.00268311 0.0248611 0.0182672 -0.00604011 0.00326985 -0.0108889 0.0109902 0.0132262 0.0154221 -0.00650395 0.0400172 0.0463593 0.0197355 0.0315075 0.0368912 0.0200561 0.0514546 0.0272942 0.00303281 0.0340859 -0.0276154 -0.00396877 0.0273583 0.00272059 -0.013873 -0.0160652 0.0334727 0.031738
internal_weight=0 10758.5 7388.12 5191.09 5567.42 3879.56 3527.51 1835.61 3424.7 2503.58 1766.4 2056.35 2707.29 1687.86 1225.01 1307.7 1375.99 1062.99 1691.48 1050.84 885.518 1186.49 677.926 3860.61 1323.58 999.243 865.346 1520.8 1691.9 747.036 731.164
internal_count=246009 127586 118423 71199 56387 42605 51281 25428 50565 29721 20634 23471 39193 13782 9648 14687 12884 9899 18657 7988 9638 16151 7298 67142 19571 10814 12558 23042 25853 8044 7891
cat_boundaries=0 2 3 5 7 8
cat_threshold=565462778 15218001 222000 1343244474 13149506 1347449011 6849627 1
is_linear=0
shrinkage=0.05


Tree=11
num_leaves=32
num_cat=8
split_feature=41 40 40 41 41 39 40 1 39 38 11 26 40 19 53 39 39 19 38 41 7 8 41 40 38 39 41 6 38 1 15
split_gain=1327.93 737.823 314.529 239.342 206.984 172.556 141.466 118.862 92.4089 84.6116 76.9326 70.4555 70.0068 66.652 63.0355 58.9956 55.2177 51.4069 50.2566 46.1628 45.3437 54.7585 44.4474 43.3449 43.9234 43.159 42.9914 42.3958 41.5894 37.131 35.3002
threshold=0.48217773437500006 0.55786132812500011 0.54956054687500011 0.26574707031250006 0.29931640625000006 0.42297363281250006 0.26354980468750006 0 0.26599121093750006 1 2 3 0.12652587890625003 15.500000000000002 0.030448913574218753 0.48376464843750006 0.34924316406250006 14.500000000000002 4 0.083099365234375014 19059.750000000004 459074.25000000006 0.12969970703125003 0.056152343750000007 5 0.30187988281250006 0.62036132812500011 500868.00000000006 6 7 -16922.499999999996
decision_type=10 10 10 8 8 10 8 9 8 9 9 9 8 8 10 10 8 8 9 10 10 10 10 8 9 8 10 2 9 9 2
left_child=1 3 7 10 15 6 14 12 -6 -8 19 -10 -2 -9 20 22 -14 -11 -16 -1 -5 27 -3 -21 -25 -4 -15 -22 -24 30 -19
right_child=2 4 25 5 8 -7 9 13 11 17 -12 -13 16 26 18 -17 -18 29 -20 23 21 -23 28 24 -26 -27 -28 -29 -30 -31 -32
leaf_value=0.065761623356202697 0.013719818056834785 0.036494604384668339 -0.0061269643830524963 0.02591344246352147 0.017941067510235952 -0.0054785102109023371 -0.0011953985226923734 -0.0076337877152215005 -0.0047973541869737761 0.0033074294087813965 0.017859863847767023 -0.020755472547310666 0.012581045842482401 0.030995492694324583 -0.0095586509696021817 -0.0076867589700842613 -0.018083447446573395 -0.0029648791165878441 0.026904640052211538 0.070673169367171149 0.049780349464671109 0.032079067113275725 -0.010718054988943798 0.044544255625862228 0.021341649282713843 -0.028438456576736583 0.0058527941651862212 0.089480214532554683 0.017642052178435019 0.03404477702585406 0.022670296612855401
leaf_weight=194.36980346590281 225.24902669340372 238.59619392454624 231.09580707550049 413.84253749996424 239.38003907352686 814.14284984767437 783.09381360933185 464.36621043458581 1181.4489447101951 402.9715758189559 460.80495239794254 1733.4956304915249 159.36852380633354 302.46572590991855 133.78017670661211 297.85337492078543 1862.5446053370833 175.3245522454381 299.80421114712954 101.19342026114464 224.22823820263147 304.75561726093292 159.73462832719088 654.17569255083799 396.84475984424353 3490.985697362572 388.26917372271419 96.057639680802822 596.3598962277174 521.65430283546448 573.77696761488914
leaf_count=1383 2651 2259 3586 3660 2849 10935 10140 6625 17071 4614 3969 27752 2251 4158 1369 3852 28560 2028 2577 623 1897 2718 1991 5367 3450 62790 5511 811 6599 5550 6413
internal_value=0 0.0107012 -0.0170089 0.0213715 -0.00501746 0.015472 0.019813 -0.00602045 -0.0119227 0.0124682 0.0368544 -0.0143752 -0.0127209 0.00701468 0.0320677 0.0118341 -0.0156665 0.0187562 0.0160541 0.0429031 0.038751 0.0472508 0.0176795 0.0394194 0.0364103 -0.0270532 0.0168625 0.0616868 0.0117422 0.0238027 0.0166705
internal_weight=0 10997.7 7124.34 6550.82 4446.87 4743.43 3929.29 3402.26 3154.32 2456.82 1807.39 2914.94 2247.16 1155.1 1472.47 1292.54 2021.91 1673.73 433.584 1346.58 1038.88 625.041 994.691 1152.21 1051.02 3722.08 690.735 320.286 756.095 1270.76 749.102
internal_count=246009 129877 116132 67504 62373 52712 41777 49756 47672 28745 14792 44823 33462 16294 13032 14701 30811 18605 3946 10823 9086 5426 10849 9440 8817 66376 9669 2708 8590 13991 8441
cat_boundaries=0 1 3 4 5 7 9 11 12
cat_threshold=1 3561101061 51401366 24 217874 2154848270 44059020 1116346 34370 2886208004 58745344 1
is_linear=0
shrinkage=0.05


Tree=12
num_leaves=32
num_cat=9
split_feature=41 40 40 41 40 41 26 11 1 40 41 39 38 26 38 16 26 38 15 39 39 12 39 58 7 8 39 19 95 39 72
split_gain=1206.67 653.998 297.248 228.828 172.897 138.239 96.7766 96.6596 89.892 81.7305 72.305 66.1395 63.6425 60.3041 57.4826 56.9764 55.9732 49.8653 48.662 47.4109 45.4286 45.0211 44.0374 42.9235 44.2317 49.574 42.9045 39.5315 39.408 37.2019 36.5196
threshold=0.48217773437500006 0.51684570312500011 0.40100097656250006 0.32727050781250006 0.12652587890625003 0.34497070312500006 0 1 2 0.64233398437500011 0.16003417968750003 0.50903320312500011 3 4 5 -2176.4999999999995 6 7 -14540.499999999998 0.21307373046875003 0.41174316406250006 8 0.11911010742187501 0.97924804687500011 16877.250000000004 450117.00000000006 0.52905273437500011 16.500000000000004 1.0000000180025095e-35 0.15631103515625003 0.97631835937500011
decision_type=10 8 8 8 10 8 9 9 9 10 10 10 9 9 9 2 9 9 2 8 10 9 8 10 10 8 10 8 2 8 10
left_child=1 4 8 10 26 12 15 11 18 13 -3 14 -6 -4 29 -7 -12 -8 -2 -14 -20 -10 -15 24 -21 -26 28 -17 -1 -5 -30
right_child=2 3 9 7 5 6 17 -9 21 -11 16 -13 19 22 -16 27 -18 -19 20 23 -22 -23 -24 -25 25 -27 -28 -29 30 -31 -32
leaf_value=0.02520145595405961 -0.014591197423634482 0.027157876469182874 -0.02357370943740069 0.048833377973883929 0.0026980248751409595 0.003912102028613018 0.01108562716563787 -0.023119099826769785 0.0064109506865924057 -0.030221961779546083 0.016830904122766211 -0.022298746488018589 0.057017325915462727 0.079884644454530154 -0.011611311679483663 0.01033942127423023 -0.0042039489036719844 -0.0056808081981698476 0.015878645917911178 0.017952303032550267 -0.020665677985354347 0.035286352391341029 -0.0099323455156763579 0.01502374656203853 0.053621401816633878 0.028463704406510394 0.0051369048931547093 0.035864438318652263 0.055501634416988292 0.0040565522733237895 0.030332497156995389
leaf_weight=236.3360950127244 839.64544111862779 534.67359912395477 1678.3841103576124 48.278577074408531 233.66280484199524 302.75582276284695 943.55438604950905 1016.6196932308376 482.71971209347248 2135.0856432691216 561.56819686293602 441.09898922592402 164.50172140449286 13.79779966175556 761.81518403068185 203.37466390430927 704.13927177339792 821.70093758404255 316.24835345894098 310.68244142085314 116.32063475251198 186.11176193505526 1250.5876616686583 413.56788335740566 368.00959172099829 418.50346543639898 81.338747635483742 596.85772843286395 532.64706462621689 1184.0657940469682 197.58291831612587
leaf_count=1734 12043 5268 29257 525 2174 3342 10599 16283 6247 39719 6496 7097 1282 196 11533 2119 8870 10615 4089 2834 1654 2332 20595 3808 3122 3882 711 5891 3728 16543 1421
internal_value=0 0.0100845 -0.0164131 -0.00270989 0.0216207 0.0175862 0.0106473 -0.010247 0.000229355 -0.0227748 0.0117411 -0.00475897 0.0280121 -0.0173716 -0.000903115 0.0221864 0.00522854 0.00329306 -0.00757237 0.0313396 0.00605164 0.0150694 -0.00888196 0.0287511 0.0339254 0.040235 0.040013 0.0293774 0.0429479 0.00576397 0.0486915
internal_weight=0 11077.3 7018.9 5252.26 5825.08 4777.17 2868.24 3451.88 1941.05 5077.86 1800.38 2435.26 1908.93 2942.77 1994.16 1102.99 1265.71 1765.26 1272.21 1675.27 432.569 668.831 1264.39 1510.76 1097.2 786.513 1047.9 800.232 966.566 1232.34 730.23
internal_count=246009 129877 116132 72615 57262 49668 32566 51981 26365 89767 20634 35698 17102 50048 28601 11352 15366 21214 17786 14928 5743 8579 20791 13646 9838 7004 7594 8010 6883 17068 5149
cat_boundaries=0 1 2 3 5 6 8 9 11 12
cat_threshold=205590 24 1 2439644484 20213892 265289 2435942898 29898005 180566 537988348 9213208 2
is_linear=0
shrinkage=0.05


Tree=13
num_leaves=32
num_cat=5
split_feature=41 40 40 41 41 40 40 39 1 39 39 38 38 1 40 38 39 7 8 15 8 15 16 29 39 7 19 41 8 41 19
split_gain=1100.06 623.46 253.304 192.635 190.619 154.627 86.3307 81.9378 78.1203 75.7067 73.1988 71.3842 63.4764 60.8404 59.6715 55.2162 52.5622 52.1273 70.7467 50.3922 53.3918 46.1918 44.5167 41.2941 39.1707 38.691 38.4568 37.1208 37.0897 36.1402 35.641
threshold=0.50561523437500011 0.55151367187500011 0.32238769531250006 0.22949218750000003 0.33850097656250006 0.26354980468750006 0.64086914062500011 0.45617675781250006 0 0.44836425781250006 0.52319335937500011 1 2 3 0.71557617187500011 4 0.11080932617187501 13502.250000000002 450117.00000000006 -19196.499999999996 675191.25000000012 -18190.499999999996 -2941.4999999999995 2.5000000000000004 0.40319824218750006 19649.250000000004 26.500000000000004 0.71459960937500011 675191.25000000012 0.083099365234375014 20.500000000000004
decision_type=10 8 8 8 8 10 10 10 9 10 10 9 9 9 10 9 8 10 10 2 8 2 2 2 10 10 8 8 8 10 8
left_child=1 3 13 17 9 8 11 12 21 19 14 -4 23 27 15 -6 -13 -1 29 -3 25 -5 -18 30 -24 -21 -10 -2 -23 -19 -7
right_child=2 4 6 5 10 7 -8 -9 26 -11 -12 16 -14 -15 -16 -17 22 18 -20 20 -22 28 24 -25 -26 -27 -28 -29 -30 -31 -32
leaf_value=0.014866410600571848 0.0013394232693783945 -0.0051041753286934109 -0.025226429452296823 0.0020578357380965093 0.0021786679298189632 0.0015607485200684881 -0.029909245375959556 -0.0089364519407702705 0.024428469101038866 -0.0094225998905920396 -0.026888531129202781 0.089459433630277266 0.00099477012512684602 0.017728886752063602 -0.024817579204930287 -0.014693676287684521 -0.02306532225820225 0.07474085249308722 0.025512969428493001 0.012608096655678159 -0.00092588453959793456 0.028212644357850508 -4.0263224350858878e-05 0.032050445338346431 -0.019284062825929572 0.035616528938477283 0.046837936115941739 -0.022251364965395599 -0.0013348428198882471 0.044575032591492647 0.018450068015617441
leaf_weight=267.9809573367238 627.06509229540825 248.3172452673316 1365.3245852515101 349.17978552728891 1225.3690528646111 451.88491141796112 1980.69279935956 598.19246733933687 325.01131357252598 423.96975485980511 661.24819062277675 13.19931426271796 967.80388136953115 453.29176827520132 440.63884364441037 792.05547169968486 516.84443523734808 121.21518725901842 524.46849367022514 303.4086963608861 232.0556903667748 702.25216197967529 903.30351183190942 364.18981857970357 373.88910914212465 459.32613036781549 465.86567990481853 227.16054673865438 125.13136576861143 548.89707716554403 1011.7327021174133
leaf_count=2080 8578 3026 23787 3580 17551 5035 37948 8435 2700 5643 11269 177 12300 5589 7434 12349 8861 800 4102 3266 2659 6180 14574 3890 6370 4929 3763 3152 1151 4070 10761
internal_value=0 0.00900802 -0.0167319 0.0187119 -0.00482649 0.0143241 -0.0217188 0.0078588 0.0254766 0.0088225 -0.012121 -0.0166053 0.0114526 0.00292282 -0.0081484 -0.00450757 -0.00989792 0.0347961 0.039267 0.0150451 0.0200747 0.017308 -0.0106841 0.016892 -0.00567375 0.026464 0.0376288 -0.00493397 0.023744 0.0500317 0.0132356
internal_weight=0 11610.2 6460.77 6823.81 4786.39 5361.24 5153.25 3393.8 1967.44 1667.08 3119.31 3172.56 2795.61 1307.52 2458.06 2017.42 1807.24 1462.56 1194.58 1243.11 994.791 1176.56 1794.04 1827.81 1277.19 762.735 790.877 854.226 827.384 670.112 1463.62
internal_count=246009 136973 109036 68847 68126 57795 91717 40421 17374 19523 48603 53769 31986 17319 37334 29900 29982 11052 8972 13880 10854 10911 29805 19686 20944 8195 6463 11730 7331 4870 15796
cat_boundaries=0 1 3 5 6 8
cat_threshold=1 2487224324 34128526 540109042 15240520 1 876204531 13153544
is_linear=0
shrinkage=0.05


Tree=14
num_leaves=32
num_cat=9
split_feature=41 40 40 41 40 41 39 26 38 11 39 38 16 38 39 15 40 1 92 38 19 19 39 19 44 11 6 8 39 38 48
split_gain=1003.99 581.399 218.994 181.249 175.246 140.506 97.7988 82.1407 78.8604 76.1493 68.1817 63.8605 59.5341 57.2573 53.8191 53.749 51.629 47.2647 44.7701 44.4173 46.0516 43.6299 43.2966 42.2345 38.5979 38.1185 37.1223 44.2542 35.7584 35.6045 35.5632
threshold=0.52539062500000011 0.55151367187500011 0.30725097656250006 0.33850097656250006 0.16949462890625003 0.31787109375000006 0.33776855468750006 0 1 2 0.44274902343750006 3 -2114.4999999999995 4 0.27600097656250006 -18526.499999999996 0.63647460937500011 5 1.0000000180025095e-35 6 8.5000000000000018 7.5000000000000009 0.47009277343750006 15.500000000000002 0.98120117187500011 7 180294.75000000003 450117.00000000006 0.13934326171875003 8 0.11245727539062501
decision_type=10 10 8 8 8 8 10 9 9 9 10 9 2 9 8 2 10 9 10 9 8 8 10 8 10 9 2 8 8 9 10
left_child=1 4 11 10 15 13 8 -4 12 -5 19 22 -7 25 -11 30 29 23 21 20 -3 -14 -2 -16 -17 -6 -23 -28 -10 -9 -1
right_child=2 3 7 9 5 6 -8 16 28 14 -12 -13 18 -15 17 24 -18 -19 -20 -21 -22 26 -24 -25 -26 -27 27 -29 -30 -31 -32
leaf_value=0.022989292095649219 0.018233371357219409 -0.0022561589047936413 -0.027124659679765534 -0.024602643049579518 0.036210526692322026 0.0031592165153141345 -0.0071058580857572273 0.012812907364185652 0.061040085377909725 0.017113448894581176 -0.0089845322003929903 -0.011226894280682347 -0.006916657377246534 0.01185381036305083 -0.013575877694335676 0.040877556404808946 -0.024695230037775105 -0.014894582415795091 0.051906432914638735 0.00033359566377296081 0.026779271232004527 0.002116997201468743 -0.016714242611876064 0.010467313117692613 0.018730948366538217 0.01387142319211917 0.037234455509311939 0.014733478570809666 -0.00086905361159916861 -0.010966848065284814 -0.015215198609977294
leaf_weight=270.71022433042526 562.09454310685396 171.56496224552393 2853.8826680742204 866.77017890661955 890.2930872887373 480.36584710329771 889.16431193426251 176.41518312692642 23.89258461073041 206.36827313154936 426.7294132001698 476.08884244039655 127.64520829916 665.3558357656002 310.79681188613176 1010.9731850624084 683.09158217161894 1442.7232231982052 127.25196369364858 406.65228139609098 669.33764899149537 163.8092657700181 105.21482479199767 442.99296335875988 244.2751075848937 297.01955363154411 531.80939313024282 370.93880033865571 980.60535354539752 1092.0425769388676 78.59898803383112
leaf_count=2264 6645 1840 53134 14800 7359 5392 12374 2844 251 2510 5712 6913 1401 6089 4830 7247 13326 23378 1287 4862 7060 1667 1472 6634 1818 2660 5303 3870 12657 17716 694
internal_value=0 0.00807389 -0.0170143 -0.00511091 0.0171872 0.0129784 0.0073445 -0.0216939 0.011923 -0.0119616 0.00826761 0.00265264 0.0181329 0.0242161 -0.0072691 0.0317403 -0.0135436 -0.009593 0.0237132 0.0141687 0.0206102 0.020709 0.0125353 0.000554009 0.0365678 0.0307847 0.0240152 0.0279888 0.000597544 -0.00764504 0.0143928
internal_weight=0 12096.6 5948.83 4943.94 7152.71 5548.15 3695.48 4805.43 2806.32 3269.65 1674.28 1143.4 1801.82 1852.67 2402.88 1604.56 1951.55 2196.51 1321.45 1247.55 840.903 1194.2 667.309 753.79 1255.25 1187.31 1066.56 902.748 1004.5 1268.46 349.309
internal_count=246009 143959 102050 71626 72333 60310 44202 87020 31828 52152 19474 15030 18920 16108 37352 12023 33886 34842 13528 13762 8900 12241 8117 11464 9065 10019 10840 9173 12908 20560 2958
cat_boundaries=0 1 3 4 6 8 9 11 12 14
cat_threshold=298089 554772726 15502656 2 3245425328 13110610 1145016 8947528 2 290484403 15238235 24 1227997320 22028309
is_linear=0
shrinkage=0.05


Tree=15
num_leaves=32
num_cat=9
split_feature=41 40 39 41 40 15 11 16 39 41 29 39 40 40 38 41 39 38 8 1 6 38 19 40 39 38 38 17 1 19 38
split_gain=918.702 577.142 181.861 179.66 160.921 152.94 148.961 128.706 84.8868 81.853 69.2902 62.235 60.0503 58.9485 55.4927 53.3279 52.5112 44.8706 44.566 44.4496 42.1199 42.0832 41.9117 37.3987 37.0035 36.5096 35.3972 34.3539 33.1331 32.998 32.9717
threshold=0.56640625000000011 0.54956054687500011 0.42565917968750006 0.33850097656250006 0.48669433593750006 -20037.499999999996 0 -1798.4999999999998 0.52319335937500011 0.21215820312500003 2.5000000000000004 0.48376464843750006 0.71557617187500011 0.15350341796875003 1 0.33850097656250006 0.16070556640625003 2 675191.25000000012 3 267212.25000000006 4 12.500000000000002 0.18316650390625003 0.57495117187500011 5 6 -7037.9999999999991 7 1.5000000000000002 8
decision_type=10 10 10 8 10 2 9 2 10 8 2 10 10 8 9 8 8 9 8 9 2 9 8 8 10 9 9 2 9 10 9
left_child=1 2 5 11 13 20 7 23 12 -9 25 18 14 26 22 -4 -8 -18 21 -15 -1 -3 -5 -7 30 -11 -2 -25 -22 -27 -6
right_child=4 3 15 8 24 6 16 9 -10 10 -12 -13 -14 19 -16 -17 17 -19 -20 -21 28 -23 -24 27 -26 29 -28 -29 -30 -31 -32
leaf_value=-0.015213315777224429 -0.01025372390883633 -0.0024692250595586217 0.011946771877550109 -0.012804406297755297 -0.025894284075879299 0.029014101577685015 0.044626842793554028 0.051081230864206233 -0.026435255639467099 0.0022725859362972742 0.045053009088768671 -0.010264158966908618 -0.02345550019590106 -0.016972206173669551 -0.012947875894085787 -0.0088062170146054955 -0.01384263988849151 0.0094115546961665367 -0.0036927288492326102 0.00053030123156604233 0.025172251432932696 0.022949463327437972 0.0077462524691355242 -0.0070935660799374065 -0.035899791086937638 0.031488292944065521 0.024233827002982267 0.014636480398219862 0.001082380190174942 0.015631639846323743 -0.011664228505744719
leaf_weight=279.6564841195941 109.33714170008898 209.10827513411641 490.4545415006578 334.90528720244765 1842.7198129817843 327.18310800939798 83.430817041546106 516.79761233180761 794.14704214408994 183.40997514873743 522.80952462553978 375.70699467882514 514.14489124342799 1042.0591740086675 1071.0509203933179 839.24099501222372 270.91191185638309 789.44374484568834 313.0595723092556 556.45807497948408 196.26876104623079 802.13786773756146 957.17537026107311 236.96716549992561 661.67061805725098 1126.9054622575641 206.82522206008434 782.46170558035374 523.31550397723913 462.86000868678093 596.57184112817049
leaf_count=3356 1433 2556 4659 5177 35510 2424 701 3454 14415 1838 4718 5126 9169 16302 17529 11875 2972 7912 3625 7873 2133 8319 14119 2586 13098 10554 2273 8320 6294 4458 11231
internal_value=0 0.00681483 0.0156518 -0.00574135 -0.0183753 0.019197 0.022578 0.0269527 -0.0119638 0.0331031 0.0290565 0.00769685 -0.00796954 -0.00697772 -0.00460027 -0.00115153 0.00637787 0.00342852 0.0127924 -0.0108794 0.0012534 0.0178958 0.00240097 0.0143059 -0.0254127 0.02434 0.0127493 0.00958531 0.00765296 0.0267037 -0.022568
internal_weight=0 13003.6 7632.12 5371.44 5015.64 6302.42 5303.18 4159.39 3671.42 2812.78 2295.98 1700.01 2877.28 1914.68 2363.13 1329.7 1143.79 1060.36 1324.31 1598.52 999.241 1011.25 1292.08 1346.61 3100.96 1773.18 316.162 1019.43 719.584 1589.77 2439.29
internal_count=246009 158289 78254 80035 87720 61720 49937 38352 60409 25022 21568 19626 45994 27881 36825 16534 11585 10884 14500 24175 11783 10875 19296 13330 59839 16850 3706 10906 8427 15012 46741
cat_boundaries=0 1 3 5 6 8 10 12 13 15
cat_threshold=24 607241699 13153560 3295285788 50616452 1 2888435268 33579908 2150323205 18895773 88156678 52429572 2 3556783678 61391502
is_linear=0
shrinkage=0.05


Tree=16
num_leaves=32
num_cat=6
split_feature=41 40 41 39 40 26 40 38 41 16 95 6 16 38 8 6 0 39 38 40 95 8 6 39 39 41 39 8 8 38 16
split_gain=838.59 527.074 236.102 171.038 152.244 117.113 117.052 85.3668 68.9263 66.5764 59.9864 56.6982 55.8832 55.0378 51.3554 59.8555 48.8926 44.3659 48.749 43.9728 39.6444 37.3918 77.1339 37.2869 36.9041 36.4481 36.0578 35.3333 45.953 34.2736 32.7495
threshold=0.56640625000000011 0.38000488281250006 0.22320556640625003 0.53491210937500011 0.48669433593750006 0 0.68481445312500011 1 0.14508056640625003 -1972.4999999999998 1.0000000180025095e-35 269766.00000000006 -3446.4999999999995 2 450117.00000000006 539165.25000000012 3 0.17022705078125003 4 0.12652587890625003 1.0000000180025095e-35 450117.00000000006 335871.00000000006 0.11911010742187501 0.20599365234375003 0.11358642578125001 0.57495117187500011 158283.00000000003 450117.00000000006 5 -2379.4999999999995
decision_type=10 8 8 10 10 9 10 9 8 2 2 2 2 9 8 2 1 8 9 8 2 8 2 8 8 10 10 8 10 9 2
left_child=1 5 16 6 13 12 7 9 -7 -4 -11 -10 -1 19 15 -13 17 -3 25 -2 -14 22 -22 -15 -16 -19 -6 -12 -29 -26 -21
right_child=4 2 3 -5 26 8 -8 -9 11 10 27 14 20 23 24 -17 -18 18 -20 30 21 -23 -24 -25 29 -27 -28 28 -30 -31 -32
leaf_value=0.0066922803147589334 0.028771944602180233 0.057714457684238357 -0.0031010271164717529 -0.021123001049565281 -0.021891506847825318 0.036623010245491999 -0.015753367673095806 -0.0063285919948342685 -0.0014381222886685995 -0.0020640630444273712 -0.0065408962097983497 0.01946935376260368 0.017935492214277843 0.1315545209677432 0.05370836957659697 0.059030036299160031 -0.011393335536363347 0.041015255682662573 0.003213615209557881 -0.016878146526616646 0.030752436616332524 0.025416387986959943 0.061622833484550915 -0.01598698594083536 0.01112625660006342 0.018320597940798024 -0.035247574191889883 0.029115051569356176 0.010650046926450074 -0.010777872307098662 0.0044193121614624041
leaf_weight=218.22324057295918 130.85639379918575 75.910840541124344 973.0916105620563 1288.6134276837111 2391.1287030130625 291.95120655745268 1089.0872824117541 1742.2169269695878 674.17029133811593 503.01581460982561 134.35536316409707 711.88968770578504 317.1099146977067 4.3018123842775813 42.072880141437054 110.44690117612481 131.30972810834646 256.22163305431604 387.55267684161663 265.86648581549525 476.33484660834074 410.8662625439465 351.79078705981374 939.65782104805112 721.08732296526432 571.58271318674088 640.7534892372787 709.3969357162714 641.75783134624362 228.76688826084137 562.19757328182459
leaf_count=1997 1318 580 13302 22100 46741 1804 18439 25606 6659 6383 1645 6695 2622 59 349 972 1263 2095 3933 3911 3734 3425 2671 14915 7422 5476 13098 8519 8204 2394 7678
internal_value=0 0.006438 -0.000913393 -0.00464744 -0.0177566 0.0201638 -0.000982513 0.00243741 0.0135905 0.00758988 0.0128597 0.0109429 0.0302173 -0.00667104 0.0155436 0.0247827 0.0176745 0.0206305 0.0183142 0.00181871 0.0337106 0.0377481 0.0438663 -0.0151541 0.00788418 0.0250425 -0.0247142 0.0179131 0.0203447 0.00585444 -0.00241866
internal_weight=0 13058.8 8504.11 7081.54 4934.76 4554.71 5792.92 4703.83 2780.39 2961.62 1988.53 2488.43 1774.33 1902.88 1814.26 822.337 1422.58 1291.27 1215.36 958.92 1556.1 1238.99 828.126 943.96 991.927 827.804 3031.88 1485.51 1351.15 949.854 828.064
internal_count=246009 158289 117545 104198 87720 40744 82098 63659 26295 38053 24751 24491 14449 27881 17832 7667 13347 12084 11504 12907 12452 9830 6405 14974 10165 7571 59839 18368 16723 9816 11589
cat_boundaries=0 1 3 5 6 8 10
cat_threshold=197398 825352434 15383640 674448568 14167313 1 1343316153 13141337 2550144162 42763340
is_linear=0
shrinkage=0.05


Tree=17
num_leaves=32
num_cat=7
split_feature=41 40 41 40 40 11 15 39 39 1 1 11 38 19 19 8 7 39 1 39 6 40 7 8 40 95 39 6 38 39 41
split_gain=765.186 470.138 159.843 153.129 144.648 107.832 87.3149 79.1192 77.5182 77.2011 68.8604 58.4406 56.9791 56.2554 52.3069 49.6149 50.7796 48.6262 46.105 38.1667 37.1481 37.0599 35.9715 42.2961 35.7838 34.3372 32.3674 31.5399 31.5286 31.2611 30.7114
threshold=0.56640625000000011 0.55395507812500011 0.40930175781250006 0.20733642578125003 0.56958007812500011 0 -16859.499999999996 0.48107910156250006 0.26940917968750006 1 2 3 4 21.500000000000004 34.500000000000007 675191.25000000012 26147.250000000004 0.35778808593750006 5 0.38684082031250006 270022.50000000006 0.24102783203125003 12800.250000000002 450117.00000000006 0.71557617187500011 1.0000000180025095e-35 0.30187988281250006 292531.50000000006 6 0.15106201171875003 0.33850097656250006
decision_type=10 10 8 8 10 9 2 10 10 9 9 9 9 8 8 8 10 8 9 10 2 8 10 8 10 2 8 2 9 8 8
left_child=1 3 7 12 10 29 9 15 13 -7 21 -4 19 -8 -12 16 28 -11 -13 25 -14 -2 -15 27 -20 -1 -6 -24 -3 -5 -10
right_child=4 2 11 5 26 6 8 -9 30 17 14 18 20 22 -16 -17 -18 -19 24 -21 -22 -23 23 -25 -26 -27 -28 -29 -30 -31 -32
leaf_value=0.017824175971702345 -0.0019898619301500779 0.020050690455849483 -0.024944930121610854 0.039943983849024575 -0.0022693998547629458 0.02037988484367215 0.010459244965662313 -0.012824585001241343 0.017340811624796268 0.070283430658914084 -0.0087458077360240399 -0.014414783644520264 -0.0018797523284718393 0.012182329382306527 0.015494996748258725 -0.0052664688763032685 0.028166102915530573 -0.0054006597583678116 0.0053891721866776111 0.010110777309975186 0.021141072377956937 -0.019282475812001217 0.026549137349816444 0.020039730860608049 -0.022835158313876006 0.038725546679998994 -0.027745331651975361 0.047628451571803183 0.00024647217299551144 -0.0064611310920448866 -0.0015134825234083384
leaf_weight=246.36856633424759 411.47911478579044 304.06612436845899 774.7806007489562 37.602040953934193 132.31396578997374 463.03879336640239 622.59170950949192 510.51185354590416 347.97541403770447 21.644837122410536 494.68106692284346 1390.7314163967967 253.65972805768251 278.09417088702321 404.51332616433501 426.28389747440815 442.23997010663152 1088.2424308285117 667.07827508822083 184.855160176754 566.84504693374038 1254.1959851160645 290.16324267536402 450.26255572959781 135.03200852125883 970.70571572333574 2160.2053289934993 456.84862682968378 569.48821751028299 1041.8187004998326 569.39903555065393
leaf_count=1726 5452 3453 14146 324 2293 5146 6156 7647 3133 225 7413 23666 2178 2731 5828 5432 5045 13550 10001 1681 4816 21792 2692 4472 2427 6571 44942 4124 6843 12635 7469
internal_value=0 0.00608374 -0.00555681 0.0137853 -0.0171485 0.00942346 0.0127523 0.00448556 0.0177618 0.00323011 -0.0089912 -0.0131795 0.0249089 0.0230631 0.00215921 0.00955826 0.0143611 -0.00392468 -0.00886835 0.0310578 0.0138553 -0.0150106 0.0283818 0.0321444 0.000637721 0.0344945 -0.026275 0.0394406 0.00737226 -0.00480012 0.00563827
internal_weight=0 13110.3 5220.21 7890.12 4857.39 5667.68 4588.26 2252.59 3015.33 1572.93 2564.87 2967.62 2222.43 2097.96 899.194 1742.08 1315.79 1109.89 2192.84 1401.93 820.505 1665.68 1475.37 1197.27 802.11 1217.07 2292.52 747.012 873.554 1079.42 917.374
internal_count=246009 158289 78660 79629 87720 62657 49698 28420 30777 18921 40485 50240 16972 20175 13241 20773 15341 13775 36094 9978 6994 27244 14019 11288 12428 8297 47235 6816 10296 12959 10602
cat_boundaries=0 1 2 3 4 6 7 9
cat_threshold=2 2 1 2 1065202 13153602 1 285308040 6851611
is_linear=0
shrinkage=0.05


Tree=18
num_leaves=32
num_cat=5
split_feature=41 40 41 1 40 19 39 41 39 40 1 11 39 95 39 19 67 11 35 15 39 39 41 18 70 38 6 39 40 40 39
split_gain=698.778 436.151 187.959 155.97 128.78 106.219 106.03 96.7064 76.1185 62.7286 62.6011 57.8149 56.9141 55.3775 47.8376 45.2365 41.496 40.8693 35.7567 34.843 34.3438 33.4534 32.9107 34.3835 32.5556 32.3352 32.2238 32.0946 31.5325 31.4487 31.139
threshold=0.57177734375000011 0.61254882812500011 0.26574707031250006 0 0.56958007812500011 16.500000000000004 0.26940917968750006 0.32727050781250006 0.68676757812500011 0.41320800781250006 1 2 0.52905273437500011 1.0000000180025095e-35 0.24566650390625003 11.500000000000002 0.055343627929687507 3 1.0000000180025095e-35 -13788.499999999998 0.66723632812500011 0.34631347656250006 0.083099365234375014 -565.49999999999989 0.058547973632812507 4 199116.00000000003 0.29870605468750006 0.25646972656250006 0.034317016601562507 0.15631103515625003
decision_type=10 10 8 9 10 8 8 8 10 10 9 9 10 2 8 8 10 9 2 2 10 10 10 2 10 9 2 8 8 8 8
left_child=1 2 11 5 10 28 -5 14 9 16 19 22 17 29 -3 -12 18 30 -8 -2 24 -21 -1 -24 -16 26 -15 -6 -4 -7 -9
right_child=4 7 3 6 27 13 8 12 -10 -11 15 -13 -14 25 20 -17 -18 -19 -20 21 -22 -23 23 -25 -26 -27 -28 -29 -30 -31 -32
leaf_value=0.044726909299572064 -0.019197499990640784 0.038495940911307786 0.01845217369917862 0.027333907285472466 -0.0010099036225913161 0.068451225141686403 0.0085416012921179941 0.038852537369723328 -0.023730450546025003 -0.0058207737966328148 -0.015980085838174309 0.0096251430339817506 -0.028179328656478222 0.0076594401772570112 0.011895240291740147 0.0089500203695808949 -0.0053724036823645975 -0.021466861450381958 0.032732838449264882 0.0087517734081800445 -0.025670009234573687 -0.020312091937377694 0.023110645583719985 0.050434497613583457 -0.0075781293682039234 0.018428934459449816 0.040173579183354152 -0.027066086888677655 -0.0015939314409176499 0.0066095209780771425 -0.0068949253685421756
leaf_weight=257.18331000953913 1194.879177287221 89.832724295556545 265.98446346074343 363.04603894427419 125.31718016043305 21.53282605856657 1339.9756926856935 38.212939862161875 334.14629426598549 1722.465481184423 256.42451234906912 608.23126924037933 570.88461375236511 85.799511775374413 510.71473061293364 626.61610240489244 495.53245186433196 574.24648692086339 172.40282662212849 257.35116579756141 112.1154373511672 160.91683035343885 1386.6107556298375 125.56051969528198 370.20382886379957 518.27489853277802 681.31943994015455 2075.5583248175681 747.41746888682246 454.07640378922224 1399.4274396747351
leaf_count=1620 20234 832 2160 3474 2176 147 13859 449 5154 24779 3937 5054 11160 793 5882 9051 5337 10392 1635 3821 1600 2692 10468 939 4354 5489 6387 44261 9420 5064 23389
internal_value=0 0.00568041 0.011293 0.00726886 -0.0167654 0.0165641 0.00144425 -0.00898713 -0.000868233 0.00117964 -0.00899148 0.0234825 -0.0142457 0.0239857 0.0035552 0.00171061 0.00718487 -0.0102919 0.0112993 -0.0148498 0.000394365 -0.00242973 0.0280332 0.0253794 0.00371161 0.0293791 0.0360668 -0.0255825 0.00366751 0.00940935 -0.00563971
internal_weight=0 13245.2 9579.56 7201.97 4697.06 2774.41 4427.57 3665.64 4064.52 3730.38 2496.19 2377.59 2582.77 1761 1082.87 883.041 2007.91 2011.89 1512.38 1613.15 993.034 418.268 1769.35 1512.17 880.919 1285.39 767.119 2200.88 1013.4 475.609 1437.64
internal_count=246009 159837 101779 83698 86172 29460 54238 58058 50764 45610 39735 18081 45390 17880 12668 12988 20831 34230 15494 26747 11836 6513 13027 11407 10236 12669 7180 46437 11580 5211 23838
cat_boundaries=0 1 2 3 4 6
cat_threshold=2 1 24 24 1067168 13108224
is_linear=0
shrinkage=0.05


Tree=19
num_leaves=32
num_cat=7
split_feature=41 40 41 39 40 11 26 15 16 40 38 6 95 39 16 8 7 39 0 1 40 39 38 39 38 16 8 6 39 19 19
split_gain=637.526 394.769 184.536 146.229 122.152 103.404 89.5548 72.8376 84.12 56.2456 53.1976 50.5846 46.7178 45.1998 43.7883 43.0456 61.4413 42.9459 42.027 41.6114 39.0538 38.956 38.1407 38.1065 37.7559 34.4128 34.3305 46.5874 33.1762 32.8713 32.8034
threshold=0.57177734375000011 0.38000488281250006 0.22320556640625003 0.57202148437500011 0.45959472656250006 0 1 -18739.499999999996 -1972.4999999999998 0.067108154296875014 2 254556.00000000003 1.0000000180025095e-35 0.19390869140625003 -1630.4999999999998 675191.25000000012 24752.250000000004 0.058502197265625007 3 4 0.64819335937500011 0.11080932617187501 5 0.20941162109375003 6 -1919.4999999999998 450117.00000000006 518922.00000000006 0.11911010742187501 22.500000000000004 8.5000000000000018
decision_type=10 8 8 10 10 9 9 2 2 10 9 2 2 8 2 10 10 8 1 9 10 8 9 8 9 2 10 2 8 8 8
left_child=1 6 18 5 10 7 14 19 -9 -8 25 -11 -10 -13 -1 16 -14 -7 24 23 21 -6 -15 -4 30 -2 27 -24 -12 -21 -3
right_child=4 2 3 -5 20 17 9 8 12 11 28 13 15 22 -16 -17 -18 -19 -20 29 -22 -23 26 -25 -26 -27 -28 -29 -30 -31 -32
leaf_value=0.015514673515070033 -0.0085472253328520587 0.0042135588955224974 0.16658137364648151 -0.021240275543968318 0.099052555574987863 0.16590389163525299 0.028424199868431307 -0.0045674233305850716 -0.0010594071049997416 -0.0045075305523368759 0.12651633325593703 0.043713050436258331 0.01138480012703485 -0.009456249988174726 0.031582470315594198 0.00025931195099960174 0.033556756724388286 -0.012987571745190453 -0.011792131209259487 -0.010423277659779736 -0.028768898448913408 -0.017706855614792981 0.015245481318626958 -0.014341788991669819 0.0040629405898362659 0.011546565612010042 0.00619461191731621 0.047972975605884108 -0.015647643485859394 0.01998791205201534 0.027817258501573086
leaf_weight=665.81746346130967 364.04697427898645 182.18990179896355 2.9201772399246684 1089.3415793068707 7.1745146922767153 3.362325854599475 415.43603969365358 1126.0614138655365 496.0879961438477 571.4613572023809 4.1256757676601401 108.965477026999 751.85714491084218 207.20576252415776 1167.5805322527885 326.04602940753102 534.6487448848784 1523.4804634787142 132.1186395958066 159.89890325069427 1293.9638489484787 1669.9689160957932 637.15110514312983 867.96674470230937 384.26025662571192 513.81011901050806 837.28293702751398 131.11479002982378 774.34086521342397 199.99466047435999 766.37425103038549
leaf_count=5592 5158 1652 33 19655 101 32 2862 16035 6443 5588 49 815 9297 2080 8690 4399 6522 23857 1263 2357 28696 33008 5883 13984 3803 6701 8477 1093 12459 2796 6629
internal_value=0 0.00537199 -0.00104729 -0.0043889 -0.0161772 -0.0013255 0.0169416 0.00252167 0.00646632 0.011352 -0.00529697 0.00855279 0.0123586 0.0124365 0.0256076 0.0164865 0.0205991 -0.0125117 0.0151064 -0.00782507 -0.0222426 -0.0172074 0.0105565 -0.0137351 0.0177727 0.00317748 0.0131165 0.0208309 -0.0147053 0.00647637 0.0230408
internal_weight=0 13288.6 8546.61 7081.67 4627.43 5992.32 4742.02 4465.48 3234.7 2908.62 1656.32 2493.18 2108.64 1921.72 1833.4 1612.55 1286.51 1526.84 1464.94 1230.78 2971.11 1677.14 1812.75 870.887 1332.82 877.857 1605.55 768.266 778.467 359.894 948.564
internal_count=246009 159837 118757 105410 86172 85755 41080 61866 42696 26798 24367 23936 26661 18348 14282 20218 15819 23889 13347 19170 61805 33109 17533 14017 12084 11859 15453 6976 12508 5153 8281
cat_boundaries=0 1 2 4 5 6 8 10
cat_threshold=24 66326 1630749880 14167057 1 1 2422891272 18903173 1410425021 13141337
is_linear=0
shrinkage=0.05


Tree=20
num_leaves=32
num_cat=9
split_feature=41 40 40 41 11 15 39 15 40 1 26 39 7 16 39 41 39 7 8 40 11 8 6 38 7 38 1 41 19 38 38
split_gain=582.849 267.873 229.697 146.126 119.169 94.7705 92.0455 90.4631 80.4134 74.5162 63.9063 61.3289 55.5985 55.4968 51.8815 47.369 45.6919 43.2582 65.869 43.1365 37.5447 38.4781 45.3434 35.8858 35.5724 34.7205 34.4264 32.845 30.691 38.3597 30.329
threshold=0.43383789062500006 0.63647460937500011 0.55151367187500011 0.16003417968750003 0 -16982.499999999996 0.50024414062500011 -17467.499999999996 0.067108154296875014 1 2 0.34338378906250006 12352.500000000002 -3050.4999999999995 0.48645019531250006 0.69335937500000011 0.17462158203125003 17070.750000000004 450117.00000000006 0.17486572265625003 3 450117.00000000006 443133.00000000006 4 20252.250000000004 5 6 1.0000000180025095e-35 11.500000000000002 7 8
decision_type=10 10 10 8 9 2 10 2 10 9 9 10 10 2 10 10 8 10 8 8 9 8 2 9 10 9 9 10 8 9 9
left_child=1 3 6 25 5 9 7 26 -7 -5 27 17 -9 -14 15 28 -6 -10 -19 -15 -21 22 -22 -18 -24 -1 -2 -3 -4 -30 -11
right_child=2 10 14 4 16 8 -8 12 11 30 -12 -13 13 19 -16 -17 23 18 -20 20 21 -23 24 -25 -26 -27 -28 -29 29 -31 -32
leaf_value=-0.0041038878360020372 0.0033305603303607984 -0.0096632313484656413 -0.023919739351396362 -0.0036611929164763824 0.030277145652862658 0.041936710730766477 -0.019244317655442433 -0.0130640899988618 0.0086528539369537163 0.028978923438549398 -0.015317615649264694 0.0015773810687774985 -0.0067555989911652486 0.032606498322262513 -0.03015389993375461 -0.026788229659808684 -0.020948680446459492 0.031276252491458448 0.012349237420513784 -0.0073503009669568398 0.01544188420956033 0.0043757110680382816 -0.033308521799145958 -0.0015366116285579438 0.057824478021759378 0.030179702343780604 -0.01544670056846357 0.0095429541108283805 -0.017806776821586962 -0.0010594526427965525 0.0058142741357004278
leaf_weight=84.39947909116745 344.46706842631102 368.57735154405236 417.85053206980228 1275.6052978113294 95.06010652333498 296.69578380510211 679.29881338402629 284.50732225179672 816.59946181252599 291.18963750824332 1270.7683116160333 697.00289102271199 358.4930629581213 286.20457701012492 946.39761365950108 778.1977248378098 289.39884071797132 988.18527617678046 859.50281194224954 225.17361522838473 329.62257505580783 407.68539121747017 11.730140212923287 1190.9361524805427 122.86433688923717 1083.2428477704525 837.76806342229247 562.04741867259145 604.30273425206542 787.25044224783778 299.90545348450541
leaf_count=623 4851 5829 8312 15180 788 1864 11376 3826 7455 2787 20442 8306 5328 2747 20970 16954 3582 8413 8128 3385 4419 5711 163 13942 1623 7393 13654 7170 12374 15133 3281
internal_value=0 0.00740648 -0.0109105 0.0115335 0.00883783 0.0122841 -0.00252417 0.00101578 0.0169844 0.00313912 -0.00809323 0.0147819 0.0074287 0.0107761 -0.0201365 -0.0164727 -0.00330469 0.0182363 0.0224718 0.0153196 0.0108098 0.0154073 0.0254274 -0.00548348 0.0498821 0.0279249 -0.00997558 0.00191569 -0.0120362 -0.0084678 0.0178144
internal_weight=0 10469.1 7421.81 8267.72 7100.08 5524.69 3887.81 3208.52 3657.99 1866.7 2201.39 3361.29 2026.28 1741.77 3534 2587.6 1575.4 2664.29 1847.69 1383.28 1097.08 871.902 464.217 1480.33 134.594 1167.64 1182.24 930.625 1809.4 1391.55 591.095
internal_count=246009 115183 130826 81742 73726 55414 57083 45707 34166 21248 33441 32302 27202 23376 73743 52773 18312 23996 16541 18048 15301 11916 6205 17524 1786 8016 18505 12999 35819 27507 6068
cat_boundaries=0 1 2 3 4 6 8 9 11 13
cat_threshold=24 1 246550 2 3290563604 17057924 2370442240 19147269 2 1346385423 44845700 1065136 17302912
is_linear=0
shrinkage=0.05


Tree=21
num_leaves=32
num_cat=6
split_feature=41 40 11 41 40 1 41 15 19 1 39 77 39 6 8 38 19 39 39 40 19 26 38 39 7 8 6 40 40 29 39
split_gain=539.517 334.18 144.349 123.122 108.375 105.74 79.9469 77.9718 65.5984 53.8085 49.5882 46.1817 44.9428 42.6193 71.2325 40.5986 40.5928 40.1006 39.9254 39.1309 38.8671 49.4787 32.8967 30.9 30.4622 39.623 40.4501 35.3159 30.2482 29.974 29.324
threshold=0.57177734375000011 0.61254882812500011 0 0.34826660156250006 0.56958007812500011 1 0.32727050781250006 -16859.499999999996 16.500000000000004 2 0.52905273437500011 0.17712402343750003 0.31457519531250006 278905.50000000006 450117.00000000006 3 11.500000000000002 0.21307373046875003 0.26940917968750006 0.20147705078125003 11.500000000000002 4 5 0.29870605468750006 16557.750000000004 450117.00000000006 450020.25000000006 0.58715820312500011 0.24102783203125003 2.5000000000000004 0.66723632812500011
decision_type=10 10 9 8 10 9 8 2 8 9 10 10 10 2 8 9 8 8 8 10 8 9 9 8 10 8 2 10 8 2 10
left_child=1 2 15 11 9 8 18 17 -5 28 20 13 29 -4 -15 19 -11 -7 -3 -1 -8 -22 24 -6 -10 26 -26 -28 -2 -9 -20
right_child=4 6 3 5 23 7 10 12 22 16 -12 -13 -14 14 -16 -17 -18 -19 30 -21 21 -23 -24 -25 25 -27 27 -29 -30 -31 -32
leaf_value=0.020319597238357384 -0.0016028861036539303 0.031652051598650914 0.012844298040541744 0.0039479204614722334 0.00091248958499654377 0.11850511146541071 -0.022447462308894484 0.0098091793755473358 0.013047622290317563 -0.015128032451364907 -0.026515227608975424 0.0039482577828608683 -0.0030699126882079973 0.037322988277504229 0.017407490579508439 -0.013773809027485574 0.0086485702864370125 -0.0081984488373399878 0.0029982053793535853 -0.0023236698565220846 -0.013924341720477433 0.0040226856113700082 0.0043768764318758589 -0.025116778441415796 0.032210111494481067 0.01985671632097959 0.059618184136912583 0.18302356298068312 -0.017617354113717478 0.028437508254412422 -0.024573884067909359
leaf_weight=237.72406773269176 394.00068506225944 110.46153131872416 704.59147486463189 672.81798284128308 121.13272779434919 6.2762015238404265 442.54082129895687 975.2271885573864 305.75450903922319 251.19337966665626 538.46248237416148 353.07067285478115 563.38318825513124 897.01297538727522 898.94483867660165 591.30040179565549 629.04363751038909 1244.8906467370689 869.23696349188685 966.65690977871418 817.29377385228872 713.54910910502076 220.55122448131442 1941.306298404932 322.70542411878705 391.93549136072397 120.59631391987205 6.0903033390641204 1171.8004395514727 277.35615339130163 108.46574419364333
leaf_count=1812 5343 1001 5612 7460 2176 63 7880 10018 2982 3937 11160 2948 7629 6551 7525 7283 9051 16924 10067 12128 15085 11265 2249 44261 2932 3973 1020 77 21404 2593 1600
internal_value=0 0.00485801 0.00966202 0.0125413 -0.0151457 0.00790933 -0.00816198 0.0020415 0.0167296 -0.00802739 -0.0130662 0.0208758 0.00865873 0.0232659 0.0273545 -0.00315556 0.00186344 -0.00756287 0.00315859 0.00212805 -0.00939646 -0.00562364 0.0230177 -0.023588 0.0263341 0.0314757 0.0416091 0.0655507 -0.0135877 0.013934 -6.06255e-05
internal_weight=0 13356.9 9756.89 7961.2 4508.48 5107.58 3600.01 3067.13 2040.45 2446.04 2511.85 2853.62 1815.97 2500.55 1795.96 1795.68 880.237 1251.17 1088.16 1204.38 1973.38 1530.84 1367.63 2062.44 1147.08 841.328 449.392 126.687 1565.8 1252.58 977.703
internal_count=246009 159837 101779 80556 86172 57920 58058 37227 20693 39735 45390 22636 20240 19688 14076 21223 12988 16987 12668 13940 34230 26350 13233 46437 10984 8002 4029 1097 26747 12611 11667
cat_boundaries=0 1 2 3 5 6 8
cat_threshold=2 2 1 697328035 38582107 298057 353397498 48792704
is_linear=0
shrinkage=0.05


Tree=22
num_leaves=32
num_cat=7
split_feature=41 40 11 41 40 86 39 95 7 8 8 6 38 41 93 39 40 26 6 38 38 8 7 38 16 38 39 6 41 39 41
split_gain=491.807 303.013 146.016 114.509 102.333 76.1141 73.172 65.3609 57.4843 84.4598 55.249 92.141 46.892 45.781 43.0546 38.0262 37.6128 34.838 34.7396 34.0683 33.5946 31.8303 40.8323 31.2157 30.4228 30.2952 29.7598 29.4951 29.2715 28.9386 28.8328
threshold=0.57177734375000011 0.38000488281250006 0 0.22320556640625003 0.45959472656250006 0.032943725585937507 0.55200195312500011 1.0000000180025095e-35 25395.750000000004 450117.00000000006 450117.00000000006 315333.00000000006 1 0.30847167968750006 -904.49999999999989 0.63745117187500011 0.70971679687500011 2 526495.50000000012 3 4 675191.25000000012 24752.250000000004 5 -1708.4999999999998 6 0.090911865234375014 573684.75000000012 0.27148437500000006 0.45104980468750006 0.53613281250000011
decision_type=10 8 9 8 10 10 10 2 10 8 8 2 9 8 2 10 10 9 2 9 9 8 10 9 2 9 8 2 8 8 10
left_child=1 6 13 -4 12 8 7 -1 14 18 11 19 -2 -3 -5 21 17 25 -10 28 -16 22 -7 -11 -14 -6 -13 -28 -9 -19 -29
right_child=4 2 3 5 16 15 -8 10 9 23 -12 26 24 -15 20 -17 -18 29 -20 -21 -22 -23 -24 -25 -26 -27 27 30 -30 -31 -32
leaf_value=0.0058762631722162626 -0.014109887102055994 -0.0018353043296930251 0.01714570762972658 -0.011066037501139797 0.016425263026297817 -0.0083924198918743417 -0.0054609081827157119 0.052649409742428079 0.021187676186227491 0.022877332865604779 0.011575869221665978 0.096420025236262336 -0.0068466093419991885 -0.017908167470034562 0.011526889571379623 -0.027424459745628182 -0.032231615588637803 -0.0044313330214645879 0.052860143410241471 0.0088410384813462552 -0.0068199329445314781 -0.01706578520285337 0.009374786671023946 0.00050534007462576754 0.011406459106669133 -0.012203597917323042 0.031884925610611674 0.055828875644481059 0.020114969902390239 -0.024489841136254156 0.21446662411230163
leaf_weight=1101.4410030990839 717.67494956031442 650.63846771046519 1118.8419253230095 737.82385271415114 100.90682896226645 876.30385768413544 417.21011614054441 93.053311996161938 282.31685945391655 177.74994325265288 1244.7861075028777 20.104342512786388 427.15733544528484 1388.5004105083644 655.49863077700138 223.76560912281275 540.53451769426465 207.22023258730769 124.86971259117126 770.25859428569674 392.47258947789669 455.63014126941562 512.49612556770444 935.42219398543239 490.30945156514645 604.21324304491282 843.89651961624622 98.214364975690842 268.9683465436101 1359.5000185593963 2.9503081925213328
leaf_count=9821 11841 7161 9562 10805 2055 12552 4583 554 3622 2506 10638 121 6145 24858 8329 4187 12891 4024 1530 6238 5876 6935 7074 13760 6381 12373 6215 667 2213 30462 30
internal_value=0 0.00459573 -0.00108079 0.00258919 -0.0145942 -0.000436397 0.0145598 0.0164395 0.00426984 0.0114152 0.0199206 0.024873 -0.00464748 -0.0127174 -0.00181347 -0.00795965 -0.0203772 -0.0175568 0.0309005 0.0151975 0.00470079 -0.00559818 -0.00183595 0.00428773 0.00287678 -0.00793424 0.0362238 0.0349433 0.0277121 -0.0216983 0.0604553
internal_weight=0 13393.2 8532.33 6493.19 4447.52 5374.35 4860.88 4443.67 3306.15 1520.36 3342.23 2097.45 1635.14 2039.14 1785.8 2068.2 2812.37 2271.84 407.187 1132.28 1047.97 1844.43 1388.8 1113.17 917.467 705.12 965.166 945.061 362.022 1566.72 101.165
internal_count=246009 159837 118757 86738 86172 77176 41080 36497 46428 21418 26676 16038 24367 32019 25010 30748 61805 48914 5152 9005 14205 26561 19626 16266 12526 14428 7033 6912 2767 34486 697
cat_boundaries=0 1 3 4 6 8 10 12
cat_threshold=2 2219325703 52745166 238358 1116184 20972672 473461164 15244298 2153840785 10523008 16877696 5773392
is_linear=0
shrinkage=0.05


Tree=23
num_leaves=32
num_cat=8
split_feature=41 40 41 1 19 39 40 39 41 39 95 40 11 41 38 38 38 39 40 39 38 95 38 16 39 38 16 49 19 93 40
split_gain=448.546 307.575 165.344 134.847 98.7379 92.7812 83.2984 66.5258 56.7861 53.2328 50.5675 50.0195 46.9948 45.2403 40.8195 36.0424 34.5421 32.664 31.155 30.5375 30.2232 29.0431 27.8809 27.4333 33.0987 27.3835 27.0086 36.3675 26.8717 30.5834 26.8666
threshold=0.60839843750000011 0.65551757812500011 0.34497070312500006 0 16.500000000000004 0.26940917968750006 0.48962402343750006 0.64575195312500011 0.14508056640625003 0.57202148437500011 1.0000000180025095e-35 0.10586547851562501 1 0.43029785156250006 2 3 4 0.19781494140625003 0.71557617187500011 0.13934326171875003 5 1.0000000180025095e-35 6 -2793.4999999999995 0.11911010742187501 7 -984.49999999999989 0.16772460937500003 20.500000000000004 -1793.4999999999998 0.25646972656250006
decision_type=10 10 8 9 8 8 10 10 10 10 2 10 9 8 9 9 9 10 10 8 9 2 9 2 8 9 2 10 8 2 10
left_child=1 2 8 4 23 -5 15 11 22 13 -6 -7 20 16 -13 -2 26 25 -15 -8 -10 -22 -1 24 -4 -12 -3 -28 -16 -30 -25
right_child=6 9 3 5 10 7 19 -9 12 -11 17 14 -14 18 28 -17 -18 -19 -20 -21 21 -23 -24 30 -26 -27 27 -29 29 -31 -32
leaf_value=-0.01610665596920861 0.0007683338013543743 -0.0001890402814761764 0.16502597295464716 0.022078193251963779 0.004762689128882224 0.014987014658739707 0.052417514041222801 -0.022223282663894985 0.0052000067729930065 -0.026673084317093938 0.032402734169597609 -0.010133273673565993 0.00094970103639901006 -0.0083204410455245455 -0.011414833316269135 -0.014685762659348511 -0.012228308283170231 0.0096782113417136478 -0.025101702277716988 -0.022510452069213996 0.0055830310249602626 0.022327747167012101 0.026774211016875119 0.019256960883247763 -0.018450262017595406 0.011959134309232917 0.036594820530224829 -0.011732654183482022 -0.014191237418826136 0.0064981490951741133 -0.0016411061577267017
leaf_weight=36.810255080461502 784.92761196568608 351.16256500408053 2.4858399406075469 358.63052585348487 504.71112732216716 380.32157979160547 13.684817574918268 466.3754013068974 557.68290575966239 492.31464874744415 770.32328920066357 1540.4957216046751 745.90339728444815 714.31549208983779 363.15862259268761 721.77662664279342 334.74027661979198 332.92846149578691 451.331986438483 2151.6277797855437 321.04237037152052 1339.0477467402816 1028.2001852318645 201.81325619295239 219.87551477923989 258.57905046641827 139.24330563470721 54.034798629581928 206.4199069775641 1326.315087530762 646.36411608755589
leaf_count=267 11007 4633 27 3524 5850 3060 228 8243 5378 10059 7139 23198 7535 13185 5076 12120 4751 3941 9163 49100 2730 10859 6813 1625 3048 2805 1741 691 2841 16643 8729
internal_value=0 0.00385771 0.0073048 0.00295392 0.0113383 -0.00235136 -0.015755 -0.00439689 0.0154897 -0.0119128 0.0182811 -0.00221863 0.0119312 -0.00835913 -0.00412286 -0.00672722 0.000204324 0.0232912 -0.014818 -0.0220369 0.0155502 0.0189752 0.0253923 -0.00076688 -0.0163991 0.0276961 0.00792732 0.0230839 0.000810037 0.00371182 0.00333133
internal_weight=0 14144.6 11607.5 7578.8 2937.08 4641.72 3672.02 4283.09 4028.69 2537.14 1866.54 3816.71 2963.68 2044.83 3436.39 1506.7 879.181 1361.83 1165.65 2165.31 2217.77 1660.09 1065.01 1070.54 222.361 1028.9 544.441 193.278 1895.89 1532.73 848.177
internal_count=246009 173554 129331 95749 33164 62585 72455 59061 33582 44223 19735 50818 26502 34164 47758 23127 11816 13885 22348 49328 18967 13589 7080 13429 3075 9944 7065 2432 24560 19484 10354
cat_boundaries=0 1 2 4 6 8 10 12 14
cat_threshold=2 24 3024316957 50350723 2016560296 14183697 271079403 30149655 3431596615 51667865 20976640 19144709 85027568 6849538
is_linear=0
shrinkage=0.05


Tree=24
num_leaves=32
num_cat=6
split_feature=41 40 95 8 6 38 16 40 39 40 41 92 15 39 39 19 41 38 1 38 15 40 6 40 40 38 40 39 38 6 93
split_gain=409.604 278.454 142.227 125.87 122.031 88.6129 82.5536 79.8597 74.5499 58.7697 48.5692 43.6919 42.5666 51.2172 40.9413 40.1134 42.0098 38.3324 37.9359 37.1134 35.4833 34.2366 32.4885 30.7073 29.1025 31.8702 28.398 28.1094 27.8253 27.2304 26.1174
threshold=0.60839843750000011 0.63647460937500011 1.0000000180025095e-35 675191.25000000012 157707.00000000003 0 -2762.4999999999995 0.56958007812500011 0.24566650390625003 0.18316650390625003 0.23468017578125003 1.0000000180025095e-35 -15490.499999999998 0.25598144531250006 0.41174316406250006 12.500000000000002 0.14508056640625003 1 2 3 -10559.499999999998 0.72973632812500011 814270.50000000012 0.40539550781250006 0.076812744140625014 4 0.0099143981933593767 0.27258300781250006 5 388217.25000000006 -1817.4999999999998
decision_type=10 10 2 8 2 9 2 10 8 8 8 10 2 10 10 8 8 9 9 9 2 10 2 10 8 9 10 8 9 2 2
left_child=1 2 11 4 -4 27 29 12 -3 26 -10 17 -2 24 21 -11 -17 -1 -18 22 30 28 -5 -19 -14 -26 -8 -6 -12 -7 -20
right_child=7 8 3 19 5 6 9 -9 10 15 14 -13 13 -15 -16 16 18 23 20 -21 -22 -23 -24 -25 25 -27 -28 -29 -30 -31 -32
leaf_value=-0.016944411673382315 -0.014897144861382364 0.02039890409949506 -0.0081060189687379384 -0.01676239243112462 0.032263365726254434 -0.0046096650566129294 0.06712397195625508 -0.023365910421324198 0.0033630166588315726 0.0066264693161153633 0.0087508959768620009 0.017021256681672044 0.051766298119424681 -0.015088980718768456 -0.024067175101939398 0.041018983212819347 0.014185337965951337 0.0048326400175061875 0.005796198953700947 -0.013661478156360655 0.01172698054488445 -0.023252794785902909 0.0061976884439828538 -0.0072398617531377 0.024578199746867729 -0.0025031596611931463 0.031108732350368797 -5.0229819725300227e-06 -0.0097319034637797942 0.012410740449373363 0.037365558927505656
leaf_weight=475.52825966104865 1117.014330945909 192.90440332144499 577.63890503719449 178.98009733110666 72.751333452761173 382.90117122232914 58.780129909515381 1636.6531711891294 450.51492012664676 557.41694605350494 246.78596456348896 265.41717935353518 38.188564971089363 344.70409794524312 766.71773895248771 247.25339594483376 1399.7035973034799 1029.349431194365 74.134292535483837 442.12171238660812 258.27384231984615 380.37974680587649 1107.0896129533648 1078.7204843945801 151.44424241408706 332.46934333071113 795.11246261000633 933.16450244933367 1026.9338026046753 608.34002135321498 563.47002111002803
leaf_count=5609 19651 2261 6157 2093 650 4265 340 39313 4904 6005 4054 2975 371 5761 15983 1585 15641 9819 739 5652 2294 7476 12928 14750 2202 5157 5097 11789 18332 6849 5307
internal_value=0 0.00365394 0.00733553 0.0106592 0.0138352 0.0159649 0.0187007 -0.0151902 -0.00968976 0.021973 -0.0117112 -0.00229713 -0.00844528 -0.000131055 -0.0145165 0.0187739 0.0214368 -0.00428174 0.0193276 -0.00133978 0.0273618 -0.0100896 0.00297921 -0.00133863 0.00974452 0.00642832 0.0335879 0.00230582 -0.00615852 0.00583602 0.033695
internal_weight=0 14170.4 11106.1 8257.13 6528.94 5951.3 4945.39 3620.47 3064.24 3954.14 2871.33 2849.02 1983.82 866.806 2420.82 3100.25 2542.84 2583.6 2295.58 1728.19 895.878 1654.1 1286.07 2108.07 522.102 483.914 853.893 1005.92 1273.72 991.241 637.604
internal_count=246009 173554 120544 87391 66718 60561 48122 72455 53010 37008 50749 33153 33142 13491 45845 31571 25566 30178 23981 20673 8340 29862 15021 24569 7730 7359 5437 12439 22386 11114 6046
cat_boundaries=0 2 4 5 7 9 11
cat_threshold=2563412229 51839649 3305180684 19417796 1 30469048 49058905 270550152 37750024 11601217 5289224
is_linear=0
shrinkage=0.05


Tree=25
num_leaves=32
num_cat=6
split_feature=41 40 11 15 40 1 39 26 26 19 39 39 6 41 38 41 41 19 52 79 41 38 39 29 6 16 39 16 40 16 31
split_gain=374.631 233.346 109.205 93.3217 90.582 84.9774 80.7811 67.7014 66.1274 52.1158 49.0353 43.8082 42.3043 41.6243 38.4175 37.0491 34.1531 33.6892 33.5993 33.4444 32.6122 31.758 31.0072 29.6451 29.5022 29.3934 28.3447 27.089 27.0329 26.8221 26.2845
threshold=0.57177734375000011 0.61254882812500011 0 -16982.499999999996 0.64672851562500011 1 0.34924316406250006 2 3 27.500000000000004 0.40319824218750006 0.38684082031250006 180294.75000000003 0.43383789062500006 4 0.21215820312500003 0.15240478515625003 11.500000000000002 0.042098999023437507 0.050354003906250007 0.055526733398437507 5 0.25256347656250006 2.5000000000000004 283808.25000000006 -804.49999999999989 0.18890380859375003 -3885.4999999999995 0.056152343750000007 -2793.4999999999995 7.5000000000000009
decision_type=10 10 9 2 10 9 10 9 9 8 8 8 2 8 9 8 8 8 8 10 8 9 8 2 2 2 8 2 8 2 2
left_child=1 2 3 5 8 27 9 13 21 29 -9 -7 -11 18 -4 -14 -16 -15 25 24 -8 -2 -10 -17 -13 -3 -18 -1 -23 -5 -19
right_child=4 7 14 6 -6 11 20 10 22 12 -12 19 15 17 16 23 26 30 -20 -21 -22 28 -24 -25 -26 -27 -28 -29 -30 -31 -32
leaf_value=-0.006948882210162554 0.021440988846795128 0.024863849491391296 -0.011883498860762917 -0.0074651057980766149 -0.025055030230454606 0.046515919243707765 0.070302326380166147 0.0063480623791841856 0.020486533927876669 0.0071919309967394115 -0.015939091439434953 -0.012599938059177467 0.037133261137693635 -0.027279207304194881 0.023005439262359751 0.01780456913087115 0.025954135094933325 0.044064773937074947 0.0070569854565029726 -0.01955726986249981 0.00083538542040921386 0.033901723187098935 -0.016546511516461738 0.032556028051220785 0.0032153969901447125 0.1098620467067393 -0.0023528435443435458 0.020030593023220612 -0.0045470908396617457 0.012369352501093552 -0.0038660821752028993
leaf_weight=107.39820410683751 136.95118882507086 34.208450313657522 674.6029912084341 202.75722962245345 1150.6686687506735 43.368559498339891 17.181144021451473 285.7868834361434 58.514028456062078 444.29506292939186 1808.9450517818332 410.072573851794 438.21793618798256 160.16654468327761 177.46359832584858 1540.8920619152486 95.210151068866253 30.191797133535147 644.00380324199796 299.99947870150208 1015.21236506477 47.480041168630123 1660.9541183486581 437.22304121404886 1049.6698374859989 14.475008066743611 1242.7927130833268 695.88028393685818 1230.4036763682961 1069.6594156846404 543.49014337360859
leaf_count=1125 2170 423 8260 2056 29047 414 107 4004 922 3900 32883 5048 2586 2955 1222 13665 786 501 7871 3769 11790 420 33173 3529 12485 170 14994 6876 20440 9167 9251
internal_value=0 0.00391468 0.00782536 0.0105966 -0.0130569 0.0028971 0.0145022 -0.00714891 -0.00865219 0.0176273 -0.0128371 -0.00312883 0.0213719 0.00128471 -0.00204805 0.0239792 0.00237936 -0.00700417 0.0100847 -0.00435232 0.00199146 -0.000585558 -0.0151979 0.0210651 -0.00122747 0.0501363 -0.000338564 0.0164234 -0.0030943 0.00920877 -0.00134357
internal_weight=0 13483.2 9961.9 7771.83 4284.97 2606.39 5165.44 3521.27 3134.3 4133.04 2094.73 1803.11 2860.63 1426.54 2190.07 2416.33 1515.47 733.848 692.687 1759.74 1032.39 1414.83 1719.47 1978.12 1459.74 48.6835 1338 803.278 1277.88 1272.42 573.682
internal_count=246009 159837 101779 76517 86172 29717 46800 58058 57125 34903 36887 21716 23680 21171 25262 19780 17002 12707 8464 21302 11897 23030 34095 17194 17533 593 15780 8001 20860 11223 9752
cat_boundaries=0 1 2 3 4 6 8
cat_threshold=24 2 181014 221974 3563757084 17058500 1092685952 20971601
is_linear=0
shrinkage=0.05


Tree=26
num_leaves=32
num_cat=6
split_feature=40 41 41 39 6 8 7 26 6 38 39 87 16 16 40 6 38 15 19 39 53 16 11 41 16 40 6 29 40 16 38
