tree
version=v3
num_class=1
num_tree_per_iteration=1
label_index=0
max_feature_idx=151
objective=binary sigmoid:1
feature_names=NAME_CONTRACT_TYPE CODE_GENDER FLAG_OWN_CAR FLAG_OWN_REALTY CNT_CHILDREN AMT_INCOME_TOTAL AMT_CREDIT AMT_ANNUITY AMT_GOODS_PRICE NAME_TYPE_SUITE NAME_INCOME_TYPE NAME_EDUCATION_TYPE NAME_FAMILY_STATUS NAME_HOUSING_TYPE REGION_POPULATION_RELATIVE DAYS_BIRTH DAYS_EMPLOYED DAYS_REGISTRATION DAYS_ID_PUBLISH OWN_CAR_AGE FLAG_MOBIL FLAG_EMP_PHONE FLAG_WORK_PHONE FLAG_CONT_MOBILE FLAG_PHONE FLAG_EMAIL OCCUPATION_TYPE CNT_FAM_MEMBERS REGION_RATING_CLIENT REGION_RATING_CLIENT_W_CITY WEEKDAY_APPR_PROCESS_START HOUR_APPR_PROCESS_START REG_REGION_NOT_LIVE_REGION REG_REGION_NOT_WORK_REGION LIVE_REGION_NOT_WORK_REGION REG_CITY_NOT_LIVE_CITY REG_CITY_NOT_WORK_CITY LIVE_CITY_NOT_WORK_CITY ORGANIZATION_TYPE EXT_SOURCE_1 EXT_SOURCE_2 EXT_SOURCE_3 APARTMENTS_AVG BASEMENTAREA_AVG YEARS_BEGINEXPLUATATION_AVG YEARS_BUILD_AVG COMMONAREA_AVG ELEVATORS_AVG ENTRANCES_AVG FLOORSMAX_AVG FLOORSMIN_AVG LANDAREA_AVG LIVINGAPARTMENTS_AVG LIVINGAREA_AVG NONLIVINGAPARTMENTS_AVG NONLIVINGAREA_AVG APARTMENTS_MODE BASEMENTAREA_MODE YEARS_BEGINEXPLUATATION_MODE YEARS_BUILD_MODE COMMONAREA_MODE ELEVATORS_MODE ENTRANCES_MODE FLOORSMAX_MODE FLOORSMIN_MODE LANDAREA_MODE LIVINGAPARTMENTS_MODE LIVINGAREA_MODE NONLIVINGAPARTMENTS_MODE NONLIVINGAREA_MODE APARTMENTS_MEDI BASEMENTAREA_MEDI YEARS_BEGINEXPLUATATION_MEDI YEARS_BUILD_MEDI COMMONAREA_MEDI ELEVATORS_MEDI ENTRANCES_MEDI FLOORSMAX_MEDI FLOORSMIN_MEDI LANDAREA_MEDI LIVINGAPARTMENTS_MEDI LIVINGAREA_MEDI NONLIVINGAPARTMENTS_MEDI NONLIVINGAREA_MEDI FONDKAPREMONT_MODE HOUSETYPE_MODE TOTALAREA_MODE WALLSMATERIAL_MODE EMERGENCYSTATE_MODE OBS_30_CNT_SOCIAL_CIRCLE DEF_30_CNT_SOCIAL_CIRCLE OBS_60_CNT_SOCIAL_CIRCLE DEF_60_CNT_SOCIAL_CIRCLE DAYS_LAST_PHONE_CHANGE FLAG_DOCUMENT_2 FLAG_DOCUMENT_3 FLAG_DOCUMENT_4 FLAG_DOCUMENT_5 FLAG_DOCUMENT_6 FLAG_DOCUMENT_7 FLAG_DOCUMENT_8 FLAG_DOCUMENT_9 FLAG_DOCUMENT_10 FLAG_DOCUMENT_11 FLAG_DOCUMENT_12 FLAG_DOCUMENT_13 FLAG_DOCUMENT_14 FLAG_DOCUMENT_15 FLAG_DOCUMENT_16 FLAG_DOCUMENT_17 FLAG_DOCUMENT_18 FLAG_DOCUMENT_19 FLAG_DOCUMENT_20 FLAG_DOCUMENT_21 AMT_REQ_CREDIT_BUREAU_HOUR AMT_REQ_CREDIT_BUREAU_DAY AMT_REQ_CREDIT_BUREAU_WEEK AMT_REQ_CREDIT_BUREAU_MON AMT_REQ_CREDIT_BUREAU_QRT AMT_REQ_CREDIT_BUREAU_YEAR MONTHS_BALANCE_mean MONTHS_BALANCE_std MONTHS_BALANCE_min MONTHS_BALANCE_max CNT_INSTALMENT_mean CNT_INSTALMENT_std CNT_INSTALMENT_min CNT_INSTALMENT_max CNT_INSTALMENT_FUTURE_mean CNT_INSTALMENT_FUTURE_std CNT_INSTALMENT_FUTURE_min CNT_INSTALMENT_FUTURE_max SK_DPD_mean SK_DPD_std SK_DPD_min SK_DPD_max SK_DPD_DEF_mean SK_DPD_DEF_std SK_DPD_DEF_min SK_DPD_DEF_max NAME_CONTRACT_STATUS_Active_mean NAME_CONTRACT_STATUS_Amortized_debt_mean NAME_CONTRACT_STATUS_Approved_mean NAME_CONTRACT_STATUS_Canceled_mean NAME_CONTRACT_STATUS_Completed_mean NAME_CONTRACT_STATUS_Demand_mean NAME_CONTRACT_STATUS_Returned_to_the_store_mean NAME_CONTRACT_STATUS_Signed_mean NAME_CONTRACT_STATUS_XNA_mean NAME_CONTRACT_STATUS_nan_mean SK_ID_PREV_count SK_ID_PREV_nunique
feature_infos=-1:0:1 -1:0:1 -1:0:1 -1:1:0 [0:19] [25650:117000000] [45000:4050000] [1615.5:258025.5] [45000:4050000] -1:6:1:5:0:4:7:3 -1:7:1:3:4:6:5:0 -1:4:1:2:3 -1:1:3:0:2:5 -1:1:5:2:4:3 [0.0002899169921875:0.072509765625] [-25229:-7673] [-17583:365243] [-24672:0] [-7197:0] [0:91] none [0:1] [0:1] [0:1] [0:1] [0:1] -1:18:8:14:3:10:4:6:0:11:16:2:1:12:9:15:17:13:5 [1:20] [1:3] [1:3] -1:5:6:1:4:0:2:3 [0:23] [0:1] [0:1] [0:1] [0:1] [0:1] [0:1] -1:5:57:42:33:30:4:11:39:51:28:7:3:55:47:26:20:40:13:16:31:1:2:34:35:53:41:46:38:43:56:24:54:14:9:12:21:50:27:44:22:10:19:0:8:36:45:17:29:32:6:52:23:15:37:48:18:49 [0.01456451416015625:0.95166015625] [5.9604644775390625e-08:0.85498046875] [0.00052738189697265625:0.89599609375] [0:1] [0:1] [0:1] [0:1] [0:1] [0:1] [0:1] [0:1] [0:1] [0:1] [0:1] [0:1] [0:1] [0:1] [0:1] [0:1] [0:1] [0:1] [0:1] [0:1] [0:1] [0:1] [0:1] [0:1] [0:1] [0:1] [0:1] [0:1] [0:1] [0:1] [0:1] [0:1] [0:1] [0:1] [0:1] [0:1] [0:1] [0:1] [0:1] [0:1] [0:1] [0:1] -1:0:3:4:1:2 -1:1:0:2 [0:1] -1:7:4:5:0:6:1:2 -1:0:2 [0:348] [0:34] [0:344] [0:24] [-4292:0] none [0:1] none [0:1] [0:1] [0:1] [0:1] [0:1] none [0:1] none [0:1] [0:1] [0:1] [0:1] [0:1] [0:1] [0:1] [0:1] [0:1] [0:3] [0:9] [0:8] [0:27] [0:8] [0:25] [-96:-1] [0.5771484375:67.1875] [-96:-1] [-96:-1] [1:72] [0:41.71875] [1:72] [1:84] [0:60] [0:42.4375] [0:60] [0:84] [0:2430] [0:1699] [0:882] [0:4050] [0:1741] [0:1135] [0:176] [0:3360] [0:1] [0:0.5673828125] [0:1] [0:0.125] [0:1] [0:0.79296875] [0:1] [0:1] [0:0.00624847412109375] [0:0] [1:295] [1:26]
tree_sizes=3523 3640 3631 3647 3645 3645 3645 3597 3625 3675 3651 3644 3633 3675 3642 3644 3611 3662 3632 3671 3648 3653 3663 3675 3644 3660 3668 3652 3652 3698 3705 3644 3668 3667 3671 3635 3642 3672 3665 3647 3665 3639 3677 3638 3699 3674 3686 3655 3695 3668 3666 3688 3698 3671 3665 3663 3702 3678 3685 3666 3664 3677 3678 3702 3658 3659 3691 3700 3688 3683 3685 3648 3664 3707 3680 3717 3668 3661 3675 3680 3666 3651 3693 3625 3677 3691 3671 3638 3689 3641 3625 3626 3692 3678 3721 3681 3682 3688 3708 3693 3656 3654 3649 3675 3639 3704 3628 3659 3705 3710 3670 3663 3655 3669 3678 3703 3719 3657 3633 3644 3654 3699 3642 3646 3646 3619 3669 3701 3677 3619 3637 3650 3616 3628 3679 3573 3568 3636 3655 3668 3650 3650 3650 3658 3638 3613 3624 3595 3652 3612 3669 3689 3649 3666 3598 3580 3617 3636 3554 3608 3604 3603 3551 3608 3616 3627 3668 3620 3612 3609 3592 3577 3655 3574 3579 3691 3621 3573 3640 3581 3573 3637 3579 3565 3649 3566 3579 3633 3596 3545 3575 3641 3611 3626 3586 3633 3588 3542 3578 3615 3651 3652 3572 3605 3603 3623 3580 3628 3588 3587 3572 3613 3554 3647 3653 3582 3565 3606 3596 3587 3523 3545 3637 3571 3555 3578 3620 3595 3550 3549 3593 3577 3627 3560

Tree=0
num_leaves=32
num_cat=4
split_feature=41 40 40 41 41 40 40 41 40 41 26 39 39 26 40 15 1 40 39 40 121 39 151 39 39 41 39 136 26 7 8
split_gain=4352.83 2569.73 1699.57 822.024 657.976 469.049 403.546 378.697 332.625 252.167 198.64 189.423 181.096 165.821 165.053 163.11 161.387 137.615 124.099 106.956 98.3188 94.278 93.367 91.6649 88.91 80.2383 78.3168 76.0213 75.3448 74.906 85.9111
threshold=0.31311035156250006 0.33312988281250006 0.35534667968750006 0.50561523437500011 0.50195312500000011 0.15435791015625003 0.61157226562500011 0.13134765625000003 0.066802978515625014 0.16003417968750003 0 0.15496826171875003 0.38122558593750006 1 0.61499023437500011 -18191.499999999996 2 0.63256835937500011 0.33752441406250006 0.57934570312500011 4.7636718750000009 0.40051269531250006 1.5000000000000002 0.23468017578125003 0.46740722656250006 0.18145751953125003 0.48107910156250006 0.54589843750000011 3 16791.750000000004 451660.50000000006
decision_type=8 8 8 10 10 10 10 10 10 10 9 8 10 9 8 2 9 8 10 10 8 10 8 8 10 10 10 10 9 10 10
left_child=2 3 8 5 6 12 10 17 25 -10 18 -9 15 21 26 -2 -5 -4 -3 28 -17 27 -15 -8 29 -1 -13 -7 -6 -11 -31
right_child=1 4 7 16 19 13 23 11 9 24 -12 14 -14 22 -16 20 -18 -19 -20 -21 -22 -23 -24 -25 -26 -27 -28 -29 -30 30 -32
leaf_value=-2.1734044828007049 -2.3742819388458627 -2.4041792650792804 -2.3290454032553662 -2.4408502379241894 -2.4436654740665253 -2.3587420911544137 -2.4091894880342153 -2.3141456623862564 -2.2711787520340154 -2.3680978873945455 -2.4387252227239444 -2.3881954076660485 -2.4016440298961781 -2.3827003085505845 -2.4295514185420317 -2.2690998968145992 -2.4037712241843372 -2.3920506716712819 -2.4385321990119682 -2.467778293231099 -2.3268584789859004 -2.4310054656790547 -2.4209682055673478 -2.4557568938082475 -2.3962104189151487 -2.2620049410395624 -2.4244883338967704 -2.2238383630703615 -2.4615004160384659 -2.2864823745401752 -2.3469053461805327
leaf_weight=45.936992652714252 109.684774056077 998.81419081240892 240.44564813375473 912.50607699155807 994.21307038515806 288.75741261988878 110.05583215504885 52.393403574824333 181.96689173579216 100.1856867223978 1769.6502856165171 663.74872744083405 86.23390220105648 235.17662312835455 663.74872744083405 124.8981561139226 432.57953178137541 135.51041774451733 356.80946797132492 4183.4574310481548 179.66633152216673 45.640146173536777 494.62044592946768 2655.8112375810742 63.970416262745857 57.588216960430145 191.54019068926573 10.834896489977835 1634.9561956897378 118.51595681160688 116.8090895563364
leaf_count=619 1478 13459 3240 12296 13397 3891 1483 706 2452 1350 23846 8944 1162 3169 8944 1683 5829 1826 4808 56372 2421 615 6665 35787 862 776 2581 146 22031 1597 1574
internal_value=-2.43249 -2.44251 -2.37301 -2.40022 -2.45223 -2.37571 -2.43999 -2.39683 -2.30526 -2.31997 -2.42768 -2.40762 -2.33572 -2.39432 -2.41084 -2.322 -2.42893 -2.35176 -2.41336 -2.46281 -2.30317 -2.36599 -2.40896 -2.4539 -2.34219 -2.22269 -2.39632 -2.35386 -2.45491 -2.33189 -2.31647
internal_weight=0 15624.4 2632.36 2920.6 12703.8 1575.51 5891.14 1947.39 684.973 581.448 3125.27 1571.43 500.483 1075.03 1519.04 414.249 1345.09 375.956 1355.62 6812.63 304.564 345.232 729.797 2765.87 399.481 103.525 855.289 299.592 2629.17 335.511 235.325
internal_count=246009 210538 35471 39355 171183 21230 79383 26241 9230 7835 42113 21175 6744 14486 20469 5582 18125 5066 18267 91800 4104 4652 9834 37270 5383 1395 11525 4037 35428 4521 3171
cat_boundaries=0 1 2 3 4
cat_threshold=221970 66324 1 222000
is_linear=0
shrinkage=1


Tree=1
num_leaves=32
num_cat=4
split_feature=40 41 41 41 41 40 40 26 40 40 39 38 41 40 39 39 121 38 39 40 150 39 41 121 6 39 95 39 26 39 136
split_gain=3857.35 1983.21 1671.19 806.146 562.857 430.985 256.139 238.126 224.128 192.553 189.023 180.424 144.603 143.458 141.747 132.39 121.506 118.341 107.115 98.2397 89.1612 79.0615 77.0837 75.2265 73.6843 73.1326 70.3501 67.8613 67.7851 67.4217 65.2097
threshold=0.41394042968750006 0.43383789062500006 0.26574707031250006 0.24121093750000003 0.50195312500000011 0.15435791015625003 0.61499023437500011 0 0.13677978515625003 0.63110351562500011 0.38684082031250006 1 0.13897705078125003 0.055801391601562507 0.50268554687500011 0.38122558593750006 5.9199218750000009 2 0.24444580078125003 0.14569091796875003 16.500000000000004 0.30114746093750006 0.63549804687500011 9.0117187500000018 202632.75000000003 0.21978759765625003 1.0000000180025095e-35 0.44201660156250006 3 0.57104492187500011 0.10968017578125001
decision_type=8 10 8 8 10 10 10 9 10 10 10 9 10 10 10 10 10 9 8 10 8 8 10 10 2 10 2 10 9 10 10
left_child=1 3 9 8 6 15 14 13 25 12 11 -7 -2 -3 17 16 26 -4 -8 -9 24 -6 -15 -10 -13 -1 -5 -14 -20 -11 -18
right_child=2 7 4 5 21 10 18 19 23 29 -12 20 27 22 -16 -17 30 -19 28 -21 -22 -23 -24 -25 -26 -27 -28 -29 -30 -31 -32
leaf_value=0.19000648388542479 0.08571352153033579 0.10087821722481349 0.015687737761617707 0.082084278110063566 -0.0081411513317843458 0.013315747277258996 0.023735905384966973 0.019225178528340225 0.11661776766487116 0.024162430905545658 0.0051069201004031702 0.031999488228840307 0.049797516061692026 0.031398775957606484 -0.020739874881263443 0.033761995044204393 0.062967424649426562 -0.0077730561069762425 -0.011264806043049944 -0.015402867388766712 0.045403875947679091 -0.03240712687834079 0.0010810324355646607 0.075250215742961549 0.086530631660552082 0.11577828426605992 0.14403552972627495 0.0093910955023263545 -0.027863918965537606 -0.020107100750074734 0.13933157367416737
leaf_weight=110.88288097828627 247.9529642611742 55.967116504907608 1439.7740944847465 63.481047734618187 356.62522687017918 323.84484407305717 135.50982146710157 246.97869315743446 251.54373686760664 426.0752906575799 336.60081242769957 76.219600178301334 421.96287241578102 483.21349615603685 575.4119788184762 86.58207444101572 184.18794110417366 848.71547199785709 1028.5558379292488 1199.8795682936907 546.06002590805292 5711.8561317846179 370.33976187556982 195.16534697264433 330.83650068938732 47.353998057544231 164.76321867853403 137.8597889393568 1722.2829522266984 107.75788155198097 32.958268560469151
leaf_count=1284 3084 731 19165 774 4922 4267 1794 3286 3089 5667 4480 990 5476 6405 7788 1125 2288 11408 14110 16255 7107 79011 4975 2408 4273 551 1984 1840 23625 1438 409
internal_value=0 0.03684 -0.0143564 0.06568 -0.0203596 0.0513065 -0.00915021 0.00317655 0.116658 0.0385273 0.0384393 0.0472255 0.0539262 0.0230756 0.00144379 0.0903349 0.101332 0.00702159 -0.0196618 -0.00942671 0.0579989 -0.0309811 0.0182445 0.0985445 0.0763199 0.167793 0.126805 0.0398472 -0.0217996 0.0152263 0.0745579
internal_weight=0 5106.86 13160.3 2750.48 11818.7 2145.53 5750.25 2356.38 604.946 1341.61 1613.56 1276.96 807.776 909.52 2863.9 531.973 445.39 2288.49 2886.35 1446.86 953.116 6068.48 853.553 446.709 407.056 158.237 228.244 559.823 2750.84 533.833 217.146
internal_count=246009 66681 179328 35029 161823 27697 77890 31652 7332 17505 21117 16637 10400 12111 38361 6580 5455 30573 39529 19541 12370 83933 11380 5497 5263 1835 2758 7316 37735 7105 2697
cat_boundaries=0 1 3 5 6
cat_threshold=82704 2370438661 33845789 615539376 13415770 127762
is_linear=0
shrinkage=0.05


Tree=2
num_leaves=32
num_cat=6
split_feature=40 41 41 41 41 40 40 26 26 40 40 39 41 39 40 26 39 39 136 15 40 38 121 39 39 38 121 122 137 26 41
split_gain=3408.95 1638.58 1502.53 643.808 535.113 388.155 236.855 195.463 175.332 161.071 148.809 129.332 121.259 119.417 114.097 107.182 99.2891 98.1804 91.2816 83.4532 80.7374 80.2987 79.186 75.9227 68.5803 68.1749 66.4534 66.1782 76.9344 64.5498 62.8881
threshold=0.41394042968750006 0.46960449218750006 0.26574707031250006 0.24786376953125003 0.50195312500000011 0.15972900390625003 0.61499023437500011 0 1 0.65893554687500011 0.20928955078125003 0.50268554687500011 0.12411499023437501 0.38684082031250006 0.055801391601562507 2 0.41418457031250006 0.24444580078125003 0.87573242187500011 -19689.499999999996 0.12762451171875003 3 4.3339843750000009 0.30114746093750006 0.44470214843750006 4 5.0136718750000009 -57.499999999999993 0.61328125000000011 5 0.14599609375000003
decision_type=8 10 8 8 10 10 10 9 9 10 10 10 10 10 10 9 10 8 10 2 10 9 8 8 10 9 10 10 8 9 10
left_child=1 3 9 10 6 13 11 16 14 12 22 15 -2 19 -3 -4 26 -8 21 -5 -10 -9 -1 -6 25 -14 -7 -17 -29 -19 -12
right_child=2 8 4 5 23 7 17 18 20 -11 30 -13 24 -15 -16 27 -18 29 -20 -21 -22 -23 -24 -25 -26 -27 -28 28 -30 -31 -32
leaf_value=0.16262467767991062 0.076711904431946837 0.088753859165781254 -0.0039540985433478889 0.046667791737393438 -0.0077887767292096292 0.085571279670389105 0.022095799366992019 0.030387534475933505 0.018794129148876737 0.0087737305700240163 0.10354887212087222 -0.020058633998878403 0.056658817748279605 0.028238686971339855 0.013325612187386184 0.0033752825154348314 0.003583876135371979 -0.010810757605169339 0.11194683950997908 0.096563265529227282 -0.016442590428938888 0.0036916373934341561 0.10793851645482173 -0.03166450165914958 0.0092847803943053222 0.016185247543689937 0.049603941205775631 0.023863627199734155 0.099295767941352531 -0.027121405664597122 0.062837965232160994
leaf_weight=100.38799297809601 245.96685086190701 53.563253797590733 1176.4378212839365 103.19785077124834 354.18523915112019 218.75822003930807 138.21740559488535 624.07761597633362 190.2777574211359 402.85698621720076 160.86642502993345 565.46439710259438 376.15521046519279 101.85324615240097 783.51173909753561 468.7301904335618 76.684900857508183 1018.8405311107635 26.709224693477154 445.91264519095421 1116.1277200505137 528.0655912309885 194.35445290803909 5557.4890185520053 179.46930184215307 180.85480556637049 310.98933500051498 621.04571355134249 35.748124621808529 1682.2676378488541 231.19179829210043
leaf_count=1052 2880 649 15848 1236 4922 2654 1794 7974 2505 5298 1781 7788 4696 1293 10334 6136 1023 14110 343 5025 15323 6898 2063 79011 2366 2265 3831 8122 467 23625 2697
internal_value=0 0.0338598 -0.0138224 0.0569652 -0.0196912 0.0449117 -0.00876975 0.0328603 0.00019538 0.0353985 0.0997219 0.00136652 0.0463161 0.0779629 0.0179379 0.0066295 0.0558383 -0.0190063 0.0203931 0.0871861 -0.0112244 0.0184477 0.126564 -0.030234 0.0361646 0.0448253 0.0644566 0.0175709 0.0279693 -0.0211096 0.0795422
internal_weight=0 5266.53 13003.7 3123.05 11618.4 2436.25 5706.75 1785.28 2143.48 1385.3 686.801 2867.43 982.446 650.964 837.075 2301.96 606.432 2839.33 1178.85 549.11 1306.41 1152.14 294.742 5911.67 736.479 557.01 529.748 1125.52 656.794 2701.11 392.058
internal_count=246009 66681 179328 37870 161823 30277 77890 22723 28811 17505 7593 38361 12207 7554 10983 30573 7508 39529 15215 6261 17828 14872 3115 83933 9327 6961 6485 14725 8589 37735 4478
cat_boundaries=0 1 2 3 5 7 8
cat_threshold=197396 82704 302153 271678714 11306008 3490775218 6849866 127762
is_linear=0
shrinkage=0.05


Tree=3
num_leaves=32
num_cat=5
split_feature=40 41 41 41 41 40 40 41 1 39 38 40 39 39 38 39 40 128 40 11 121 136 40 40 39 150 39 39 38 128 95
split_gain=3022.15 1369.84 1367.64 484.262 419.649 290.461 205.451 195.319 173.722 149.232 136.204 128.253 111.485 109.545 92.3457 90.4946 89.0568 86.2157 80.8057 74.4097 75.2678 99.4117 74.3229 72.2713 70.8863 67.7253 67.1601 65.2096 74.382 63.8661 61.7368
threshold=0.41394042968750006 0.45886230468750006 0.31787109375000006 0.28149414062500006 0.50195312500000011 0.15972900390625003 0.61791992187500011 0.14599609375000003 0 0.42272949218750006 1 0.20928955078125003 0.50268554687500011 0.19659423828125003 2 0.38122558593750006 0.12762451171875003 12.941406250000002 0.14569091796875003 3 6.4941406250000009 0.041793823242187507 0.65747070312500011 0.62963867187500011 0.21978759765625003 27.500000000000004 0.24444580078125003 0.44470214843750006 4 12.417968750000002 1.0000000180025095e-35
decision_type=8 10 8 8 10 10 10 10 9 10 9 10 10 8 9 10 10 10 10 9 10 10 10 8 10 10 8 10 9 8 2
left_child=1 3 7 11 6 15 12 23 18 10 -7 24 14 -9 -4 25 -10 27 -3 -12 21 -21 -6 -2 30 -5 -8 28 -15 -13 -1
right_child=2 8 4 5 22 9 26 13 16 -11 19 29 -14 17 -16 -17 -18 -19 -20 20 -22 -23 -24 -25 -26 -27 -28 -29 -30 -31 -32
leaf_value=0.077405092032027625 0.06754039494959245 0.054474303619516357 0.013747147987172977 0.087974449753111361 -0.024940921418310905 0.0073529473257154324 0.016311358248111547 0.070770949439100186 0.020311144790070665 -0.0031014330509700943 0.0098904117659869353 0.056129224465770844 -0.021124802574040622 0.026476874033673683 -0.0072885426720459019 0.023718579001505272 -0.014238038355017671 0.036951575158860155 0.012577009701050273 0.060004707190001311 0.036736872196871634 0.16161203823672787 -0.036578968647520152 0.027619849211872907 0.071866816896320448 0.048731991837867 -0.021963361985225971 -0.013488546859318796 -0.0042477038667785355 0.095652367275593966 0.1323084098549501
leaf_weight=68.253137975931168 303.74344886094332 142.60027722269297 1232.9139737039804 382.64177621901035 3509.6246298700571 338.5044161900878 120.43073230236769 86.196366384625435 219.33661935478449 298.44172362983227 151.12397442758083 380.48343953490257 508.15240763872862 463.32790341228247 892.41515830159187 94.836675979197025 1246.7620804905891 289.98048712313175 596.37558802962303 408.94896388798952 445.41589710861444 25.578517623245716 2252.15568998456 180.89317907392979 115.47780156135559 154.27369167655706 2371.7868622913957 301.95793121308088 339.07060467451811 139.75785914808512 204.95443721860647
leaf_count=666 3366 1757 16122 4008 50985 4384 1538 1029 2810 3917 1845 4167 7129 5868 12065 1180 17115 3768 7896 4832 5425 294 32948 2287 1174 1702 33785 4075 4363 1536 1973
internal_value=0 0.0312338 -0.0133019 0.0520836 -0.0202313 0.0398721 -0.00982372 0.0250885 0.000894393 0.0289364 0.0359178 0.0829811 -8.55857e-05 0.0160699 0.00494475 0.0687456 -0.00906929 0.0126883 0.0206619 0.04479 0.0506053 0.0659858 -0.02949 0.0526398 0.10471 0.0766988 -0.0201138 0.00631727 0.0137706 0.0667467 0.118592
internal_weight=0 5413.77 12852.6 3208.69 10887.5 2299.77 5125.7 1965.17 2205.07 1668.01 1369.57 908.927 2633.48 1480.53 2125.33 631.752 1466.1 1394.34 738.976 1031.07 879.943 434.527 5761.78 484.637 388.685 536.915 2492.22 1104.36 802.399 520.241 273.208
internal_count=246009 66681 179328 37103 154572 27587 70639 24756 29578 20697 16780 9516 35316 19103 28187 6890 19925 18074 9653 12396 10551 5126 83933 5653 3813 5710 35323 14306 10231 5703 2639
cat_boundaries=0 1 3 5 6 8
cat_threshold=2 2370704901 34894365 741884576 13120858 2 275800243 23643217
is_linear=0
shrinkage=0.05


Tree=4
num_leaves=32
num_cat=5
split_feature=40 41 41 41 41 26 26 26 41 40 40 40 39 39 40 38 40 39 16 39 39 40 128 40 128 39 39 38 40 41 121
split_gain=2689.04 1209.16 1196.33 422.526 380.612 268.634 177.244 162.544 152.539 139.708 127.696 97.0067 96.7386 87.7996 87.5824 85.2283 85.1764 74.444 74.3428 70.8297 70.4865 70.0899 69.4264 69.3206 67.562 65.4672 61.2212 60.6488 65.4394 56.6609 56.604
threshold=0.42907714843750006 0.46960449218750006 0.31787109375000006 0.24121093750000003 0.50195312500000011 0 1 2 0.14599609375000003 0.10671997070312501 0.15435791015625003 0.076812744140625014 0.17852783203125003 0.33752441406250006 0.055801391601562507 3 0.61157226562500011 0.52856445312500011 -2471.4999999999995 0.43127441406250006 0.57104492187500011 0.25354003906250006 14.167968750000002 0.67211914062500011 12.941406250000002 0.38684082031250006 0.15960693359375003 4 0.59936523437500011 0.14599609375000003 7.0722656250000009
decision_type=8 10 8 8 10 9 9 9 10 10 10 10 8 10 10 9 8 10 2 10 10 10 10 10 10 10 8 9 10 10 8
left_child=1 3 8 11 6 10 13 14 26 -7 -5 -1 -10 23 -3 25 -8 24 -12 29 27 -9 -17 30 -14 -11 -2 -6 -29 -13 -4
right_child=2 7 4 5 20 9 16 21 12 15 18 19 17 -15 -16 22 -18 -19 -20 -21 -22 -23 -24 -25 -26 -27 -28 28 -30 -31 -32
leaf_value=0.11734923140410003 0.12897398844487581 0.072387886685724656 0.027411155330373915 0.088860727579361642 -0.032157770195646113 0.05615902493377372 -0.0084552732623928966 0.0016208283714994086 0.070499593193563345 0.038105707923725689 0.019172006826645886 0.095995000897921456 0.011312035956248596 -0.015275889463201518 0.011142219014313587 -0.0024158133451833833 -0.025568708080945593 -0.010841500728805596 0.05674550965487251 0.035188480177014002 -0.039814772665499633 -0.021764876837594559 0.037232913052869715 -0.010973275131052347 0.042204291915948336 0.0050359884220766947 0.042979870812708709 -0.0093968530104244427 -0.027063204879800906 0.063666555124956309 0.0044469154431409988
leaf_weight=131.01709926873446 21.65157362818718 62.489223025739193 467.08759184926748 255.37452170997858 2143.7314742133021 298.62613242119551 1329.3220491930842 546.92089518159628 73.39078476279974 608.2936394661665 173.28234462440014 241.36084926128387 872.65506748110056 563.83955420553684 885.98800622671843 551.56790923327208 1604.8969475775957 291.88093963265419 547.92626246064901 118.24106591939926 1188.2355159819126 773.59440755099058 138.04184476286173 363.510383464396 222.0160117149353 198.49464571475983 469.36855766922235 880.83531449735165 1294.6103766039014 309.1230818554759 630.63183682411909
leaf_count=1088 235 689 6089 2558 32069 3084 18227 7354 820 7112 2024 2280 11058 7892 11625 6947 23361 3967 6273 1223 17825 10949 1750 5131 2759 2550 5266 12966 19434 3118 8286
internal_value=0 0.027857 -0.0132822 0.045991 -0.0199825 0.0367527 -0.00993473 -0.000685497 0.0226642 0.0247957 0.0578839 0.0780073 0.0145561 0.00147697 0.015019 0.0187024 -0.0177551 0.011595 0.0477179 0.0702994 -0.0290303 -0.0119884 0.00544191 0.00795144 0.0175775 0.0296026 0.0467718 -0.0260634 -0.019819 0.077841 0.0142184
internal_weight=0 5840.34 12417.7 3571.35 10466.7 2771.61 4959.29 2268.99 1950.96 1795.02 976.583 799.742 1459.94 2025.07 948.477 1496.4 2934.22 1386.55 721.209 668.725 5507.41 1320.52 689.61 1461.23 1094.67 806.788 491.02 4319.18 2175.45 550.484 1097.72
internal_count=246009 70624 175385 40007 151280 32298 68986 30617 24105 21443 10855 7709 18604 27398 12314 18359 41588 17784 8297 6621 82294 18303 8697 19506 13817 9662 5501 64469 32400 5398 14375
cat_boundaries=0 1 2 3 5 7
cat_threshold=197396 221970 82708 270609658 9209112 3556784132 36227726
is_linear=0
shrinkage=0.05


Tree=5
num_leaves=32
num_cat=5
split_feature=40 41 41 41 41 40 38 40 26 41 128 38 41 39 39 8 38 19 40 38 39 39 39 7 39 39 136 121 121 40 140
split_gain=2412.53 1130.9 970.38 353.592 305.244 211.66 203.437 185.614 164.557 148.486 126.299 105.319 100.699 97.8081 89.4616 84.2068 80.6269 79.824 78.851 77.8425 68.9671 68.1439 66.2294 68.6251 64.1093 61.1355 61.1023 60.4177 57.9573 57.829 56.494
threshold=0.45983886718750006 0.42675781250000006 0.33361816406250006 0.31311035156250006 0.55590820312500011 0.16302490234375003 0 0.17474365234375003 1 0.21948242187500003 11.144531250000002 2 0.14599609375000003 0.34313964843750006 0.33752441406250006 675191.25000000012 3 16.500000000000004 0.61157226562500011 4 0.42565917968750006 0.39514160156250006 0.39514160156250006 15792.750000000002 0.43127441406250006 0.44738769531250006 2.0097656250000004 6.0488281250000009 6.3300781250000009 0.58129882812500011 0.90356445312500011
decision_type=8 10 8 8 10 10 9 10 9 10 10 9 10 10 10 8 9 8 8 9 10 10 10 10 10 10 10 10 8 8 10
left_child=1 3 9 10 8 19 7 21 14 15 12 13 -1 -7 17 22 -14 -4 -10 27 28 -3 23 -2 -18 -11 -13 -5 -9 -25 -12
right_child=2 6 4 5 -6 11 -8 20 18 25 30 26 16 -15 -16 -17 24 -19 -20 -21 -22 -23 -24 29 -26 -27 -28 -29 -30 -31 -32
leaf_value=0.077188010734497506 0.020179076617577743 0.054124127074378449 -0.011908495237936016 0.089595972607299526 -0.030447900925597252 0.03978844414075712 -0.014592634664046093 0.02687288364184064 -0.010469664913372588 0.012124225222273598 0.12252197297894957 0.0048822916303901606 0.0095275244181834643 0.0026441822985385083 -0.017887901332702332 0.0044965322288082468 0.060174378695836007 0.013092531877329359 -0.026209310668822868 0.028745501525179754 -0.018563077495896457 -0.0002797297119754385 0.015641518895316175 0.083752105586797854 0.014642057040385653 -0.014755142780481297 0.18375909132092585 0.049288076092216519 0.00083991400982836955 0.044358325167281366 0.076344856450318702
leaf_weight=308.03862492740154 146.60773740708828 294.46758165210485 467.4039970934391 208.65972816944122 4276.5937742590904 810.72765782475471 1261.7551421150565 318.29993459582329 1381.1944263353944 783.3806366622448 88.07455200701952 697.27449480444193 163.79281130433083 226.80863739550114 588.6136732250452 215.04606929421425 469.38861703872681 1007.3836920335889 1877.1538316607475 237.83257246762514 285.76136571913958 71.542311519384384 201.32600238919258 156.87856478989124 92.550293639302254 289.7969975322485 4.8069914579391471 167.66911196708679 651.18812624365091 229.36603113263845 267.11465562134981
leaf_count=2702 1652 3500 6357 1952 65583 9236 17452 4242 19371 9940 853 8823 1733 2919 8468 2531 4670 13620 28100 2449 3969 904 2424 1688 1047 4011 55 1707 8745 2685 2621
internal_value=0 0.023937 -0.0138691 0.0420668 -0.0205013 0.0302612 0.000400795 0.012085 -0.0125082 0.0176075 0.062073 0.0213524 0.0532352 0.0313663 -0.00140153 0.0320131 0.0430684 0.00516896 -0.0194776 0.0554956 0.00302408 0.04349 0.0400729 0.0493037 0.0517543 0.00486582 0.00602126 0.0697829 0.00938699 0.0603587 0.0877952
internal_weight=0 6625.75 11620.7 3742.74 9598.34 2353.78 2883.01 1621.26 5321.75 2022.4 1388.96 1739.62 1033.77 1037.54 2063.4 949.224 725.732 1474.79 3258.35 614.161 1255.25 366.01 734.178 532.852 561.939 1073.18 702.081 376.329 969.488 386.245 355.189
internal_count=246009 79579 166430 40767 141499 27141 38812 21360 75916 24931 13626 21033 10152 12155 28445 10980 7450 19977 47471 6108 16956 4404 8449 6025 5717 13951 8878 3659 12987 4373 3474
cat_boundaries=0 2 3 5 7 9
cat_threshold=28329210 15246674 221968 1138938 32015440 3242738245 50657796 2226 13141058
is_linear=0
shrinkage=0.05


Tree=6
num_leaves=32
num_cat=6
split_feature=40 41 41 41 41 40 39 38 41 39 40 41 40 15 128 40 136 136 8 38 39 39 39 7 39 11 121 26 0 38 122
split_gain=2159.71 983.31 888.418 358.575 291.819 235.597 135.682 128.245 127.942 125.414 109.222 108.844 106.469 100.448 95.5996 90.3377 85.9421 79.9574 71.2858 71.0941 70.5537 68.787 66.8668 64.2098 62.482 61.9286 62.1602 58.9998 58.3043 61.3099 62.6449
threshold=0.45983886718750006 0.50561523437500011 0.33361816406250006 0.34497070312500006 0.48400878906250006 0.16302490234375003 0.53735351562500011 0 0.21948242187500003 0.41711425781250006 0.66625976562500011 0.16003417968750003 0.24798583984375003 -19326.499999999996 11.761718750000002 0.0096855163574218767 1.5043945312500002 0.099670410156250014 675191.25000000012 1 0.17852783203125003 0.57104492187500011 0.50854492187500011 16791.750000000004 0.41149902343750006 2 7.7871093750000009 3 4 5 -49.499999999999993
decision_type=8 10 8 8 10 10 10 9 10 10 10 10 10 2 10 10 10 10 10 9 8 10 10 10 10 9 10 9 1 9 10
left_child=1 3 8 11 6 15 10 -3 18 13 16 -1 24 -7 22 -5 20 25 28 -17 -4 -6 23 -13 -9 26 -15 -22 29 30 -2
right_child=2 7 4 5 21 9 -8 12 -10 -11 -12 14 -14 17 -16 19 -18 -19 -20 -21 27 -23 -24 -25 -26 -27 -28 -29 -30 -31 -32
leaf_value=0.073455610355686748 0.03431840372847491 -0.016698600675413334 0.04136881837839599 0.11895168589479768 -0.024649963929267646 -2.0436822369996237e-05 -0.028081163044763081 0.036946503493487735 0.0046006781499908474 -0.0094852478798543461 -0.018843212926060903 0.020592044223764795 -0.0041354827357234277 0.042185652564860343 0.071403117971354457 0.056932614090853401 0.099579994158463928 0.066036989680206007 0.0041539573026257368 0.020128727044822377 0.0068897336122117243 -0.03853727087885267 0.0015736190260977037 0.052153859841424177 -0.011416310409666841 0.0016447836261900169 0.016089627405826749 -0.0096004046460147346 -0.00054245710969221493 0.018219686104977324 0.072219001909413091
leaf_weight=509.14493499696255 209.49254135787487 1097.0443454310298 97.358890645205975 44.025198750197887 4137.5202753022313 390.74274671077728 825.04143278300762 334.644356302917 1077.4680100381374 382.40129712969065 1043.0639337152243 227.34892094880342 757.86543632298708 524.4162972420454 277.26521435379982 437.38089999556541 21.756377287209034 130.31924759596586 214.51218912750483 239.82161940634251 983.39258322864771 1136.6419830359519 111.52080038189888 553.38638231903315 83.434676490724087 244.8055752068758 403.9812839999795 1186.489697240293 91.902112320065498 230.69321724027395 227.34473471343517
leaf_count=4263 2329 15504 1250 412 64391 4950 12306 4131 13951 5096 15472 2322 10493 5905 2761 4141 295 1469 2515 2498 12892 18038 1303 5505 1097 2957 4772 16855 1045 2606 2485
internal_value=0 0.0222912 -0.0133481 0.0358901 -0.0198345 0.024929 -0.00992789 -0.00449136 0.0164724 0.0163785 -0.00543301 0.0541593 0.00697949 0.022216 0.0457588 0.0495489 0.000677828 0.0288815 0.029606 0.045037 -0.000271234 -0.0276428 0.0377899 0.0429631 0.0272949 0.0247543 0.0305017 -0.00213955 0.0367953 0.0419358 0.0528337
internal_weight=0 6749.55 11482.7 4476.56 9431.27 2797.89 4157.1 2272.99 2051.41 2076.67 3332.06 1678.67 1175.94 1694.27 1169.52 721.228 2289 1303.52 973.945 677.203 2267.24 5274.16 892.256 780.735 418.079 1173.2 928.398 2169.88 759.433 667.53 436.837
internal_count=246009 79579 166430 48354 141499 32200 59070 31225 24931 25149 46764 16154 15721 20053 11891 7051 31292 15103 10980 6639 30997 82429 9130 7827 5228 13634 10677 29747 8465 7420 4814
cat_boundaries=0 2 4 5 6 7 9
cat_threshold=4232657684 50633356 10418 13141186 24 226096 1 1343291570 6849802
is_linear=0
shrinkage=0.05


Tree=7
num_leaves=32
num_cat=5
split_feature=40 41 41 41 41 11 39 38 1 15 40 40 39 41 40 1 39 136 39 40 40 11 16 95 41 120 132 40 39 7 18
split_gain=1936.98 934.683 738.116 342.711 234.034 167.36 153.322 138.117 136.47 127.074 116.079 111.577 93.2047 92.9458 89.0543 76.689 76.6138 71.0363 70.8525 62.6153 62.0584 59.3846 59.3595 58.014 57.896 56.5034 53.7039 52.9534 50.1755 49.9076 46.5261
threshold=0.41394042968750006 0.31787109375000006 0.47668457031250006 0.50195312500000011 0.33044433593750006 0 0.38684082031250006 1 2 -14970.499999999998 0.65893554687500011 0.19573974609375003 0.33752441406250006 0.22448730468750003 0.055801391601562507 3 0.30114746093750006 1.6723632812500002 0.40612792968750006 0.12762451171875003 0.63989257812500011 4 -2007.4999999999998 1.0000000180025095e-35 0.12411499023437501 -29.742187499999996 1.1323242187500002 0.61157226562500011 0.10980224609375001 16647.750000000004 -1970.4999999999998
decision_type=8 8 10 10 8 9 10 9 9 2 8 10 10 10 10 9 8 10 10 10 10 9 2 2 10 10 10 8 8 10 2
left_child=2 10 4 5 14 9 7 11 19 15 13 -6 22 21 -1 -3 -5 -9 23 -4 -18 30 -11 -16 -25 -19 -24 -17 -10 -28 -2
right_child=1 3 8 16 6 -7 -8 17 28 12 -12 -13 -14 -15 18 27 20 25 -20 -21 -22 -23 26 24 -26 -27 29 -29 -30 -31 -32
leaf_value=0.08681404749143648 0.036838935317075133 -0.016935199718019486 0.015012027561239078 -0.0030876409466034792 0.058536820024479824 -0.022463948429855263 -0.00073914786357088245 0.008550607140292597 0.12569103260050982 -0.0018018139494685973 0.00032548020844418981 0.029881020805249243 -0.010641016456554917 0.012285154160908985 0.032923580196227931 0.018347376883041184 -0.022979037325871265 0.066823395271892114 0.022954451272643017 -0.014197564828735854 -0.034249227148029228 0.015562228607355523 0.021787942662896992 0.086947038557559253 0.053404685127779739 0.37001086139841255 -0.022908126073656322 -0.010220655687736158 0.01566679454830899 0.12107184249605336 0.066862291645239075
leaf_weight=168.13961421698332 382.63223120570183 1403.4529330208898 217.91986768692732 324.2494151443243 560.46825944632292 1459.0574721470475 412.14624887704849 528.83446348458529 10.51577492803335 295.71305014938116 606.6890606880188 862.37906570732594 428.75272223353386 667.76665515452623 252.96151763945818 319.64481695741415 2646.3729634284973 4.4700846895575523 229.52399146556854 1160.6549439206719 2268.5086350999773 265.40741455554962 699.7104429602623 163.32061670720577 605.97037719190121 2.3417466208338729 7.8950733318924895 329.33269418030977 709.86025343090296 25.324456341564655 194.69747121632099
leaf_count=1254 4032 20350 2684 4922 5063 21235 5165 6191 129 4022 7639 9323 6248 8226 2308 4211 42021 46 2311 16384 36990 2828 9268 1263 5504 22 104 4872 9034 329 2031
internal_value=0 -0.0114352 0.0234232 -0.0177059 0.0365949 -0.00829858 0.0269797 0.0328129 -0.00036403 -0.00233927 0.0187988 0.0408814 0.00894423 0.0262186 0.052648 -0.0103629 -0.0266279 0.0104226 0.0480588 -0.00958022 -0.0281809 0.0372591 0.0171076 0.0536954 0.0605257 0.171052 0.024737 0.00385013 0.0172729 0.086853 0.0461643
internal_weight=0 12325.2 5889.51 10208 3790.56 4968.88 2370.64 1958.49 2098.95 3509.83 2117.19 1422.85 1457.4 1510.5 1419.92 2052.43 5239.13 535.646 1251.78 1378.57 4914.88 842.737 1028.64 1022.25 769.291 6.81183 732.93 648.978 720.376 33.2195 577.33
internal_count=246009 179328 66681 154572 38450 70639 25810 20645 28231 49404 24756 14386 19971 17117 12640 29433 83933 6259 11386 19068 79011 8891 13723 9075 6767 68 9701 9083 9163 433 6063
cat_boundaries=0 1 3 4 5 6
cat_threshold=24 806447350 32017858 1 1 24
is_linear=0
shrinkage=0.05


Tree=8
num_leaves=32
num_cat=6
split_feature=41 40 40 41 40 121 1 41 26 39 7 39 38 8 6 26 131 136 41 1 38 40 129 39 41 128 136 40 40 39 40
split_gain=1756.97 980.725 483.638 396.285 191.697 161.228 147.756 109.307 105.302 105.248 97.0982 94.029 87.8846 83.1146 82.1738 74.594 69.96 69.8434 69.3781 69.3553 68.2093 66.1725 65.6913 62.5691 58.859 56.8733 53.4305 52.8301 52.7074 50.7647 49.635
threshold=0.43383789062500006 0.35534667968750006 0.40197753906250006 0.26147460937500006 0.61303710937500011 6.4941406250000009 0 0.33850097656250006 1 0.19207763671875003 11697.750000000002 0.53149414062500011 2 451660.50000000006 508497.75000000006 3 41.500000000000007 0.20068359375000003 0.071289062500000014 4 5 0.65454101562500011 8.8476562500000018 0.20880126953125003 0.61694335937500011 10.785156250000002 0.24902343750000003 0.10671997070312501 0.18341064453125003 0.54028320312500011 0.17474365234375003
decision_type=10 8 10 8 10 8 9 8 9 8 10 10 9 10 2 9 10 10 10 9 9 10 10 8 10 10 10 10 8 10 8
left_child=1 5 6 11 9 10 24 -7 21 22 -1 12 18 14 -12 -11 19 23 -3 -9 28 29 -5 -6 30 -20 -18 -21 -8 -4 -2
right_child=2 3 8 4 17 7 20 16 -10 15 13 -13 -14 -15 -16 -17 26 -19 25 27 -22 -23 -24 -25 -26 -27 -28 -29 -30 -31 -32
leaf_value=0.019318495757215306 0.05910578049914883 0.077688111789365979 -0.0057842353548120959 0.035063946423429485 0.026982844662821109 0.042707960703125547 0.028244466709908697 -0.00039954863717384494 -0.029021690008669228 0.015103002399919595 0.059355484225567481 -0.00094957247142456083 0.0092800905433465235 0.038793186945145296 0.10320494179991072 -0.0027586096183409444 0.042268598492914922 0.018523226350218643 0.026276255947938382 0.068203726347052643 -0.015371938553262797 -0.026860362253840309 0.1436598916861084 -0.018644296259828951 0.0063083573282030157 0.054526150518189757 0.16299789081000349 0.018674312163955212 -0.0032225962705058585 -0.031045790808177431 0.021728855733170641
leaf_weight=199.75212004035711 128.97397064417601 99.457189992070198 1351.1333738043904 131.15118588507175 78.160608612000942 707.43350868672132 190.25209745019674 491.68600378930569 3841.8247608616948 858.22619348019361 596.37383357435465 298.45172269642353 403.62742434442043 398.36992698907852 130.16160015016794 1784.4209381043911 107.65365401655436 149.63331194967031 675.84203860908747 69.549062997102737 862.99532994627953 840.27471730858088 15.580130666494368 1942.2558095157146 390.44215436652303 241.94136159867048 10.017136231064795 238.34232477843761 442.80441911518574 233.20114533603191 285.30995783954859
leaf_count=1892 1375 937 20550 1536 968 6089 2238 5414 62436 10557 5384 3576 4383 3752 1135 23852 1193 2206 7157 613 12210 13731 183 29169 4956 2502 101 2541 6032 3769 3572
internal_value=0 0.0144825 -0.0166448 0.00387809 -0.00329306 0.0384962 0.00296099 0.0279403 -0.0238432 0.00537741 0.051443 0.0245635 0.0299225 0.0571474 0.0672113 0.00308884 0.0165507 -0.0144381 0.0376517 0.0112534 -0.00633203 -0.0154543 0.0465948 -0.0168792 0.0202375 0.0337233 0.0525461 0.0298624 0.00613724 -0.00950253 0.033365
internal_weight=0 9628.09 8567.21 6678.75 4959.43 2949.34 2300.78 1624.68 6266.43 2789.38 1324.66 1719.32 1420.87 1124.91 726.535 2642.65 917.248 2170.05 1017.24 799.577 1496.05 2424.61 146.731 2020.42 804.726 917.783 117.671 307.891 633.057 1584.33 414.284
internal_count=246009 115140 130869 87026 68471 28114 30383 15951 100486 36128 12163 18555 14979 10271 6519 34409 9862 32343 10596 8568 20480 38050 1719 30137 9903 9659 1294 3154 8270 24319 4947
cat_boundaries=0 1 2 4 5 6 8
cat_threshold=2 221974 1343320243 15238475 205586 1 20072107 15246677
is_linear=0
shrinkage=0.05


Tree=9
num_leaves=32
num_cat=4
split_feature=41 40 40 41 41 26 38 39 136 26 39 40 39 39 40 39 40 121 137 38 40 122 40 129 16 39 95 40 6 39 15
split_gain=1590.14 860.739 451.011 289.313 188.899 141.113 133.027 129.039 108.084 101.107 98.8057 91.8704 86.0499 81.8093 79.3808 73.1067 72.0568 68.8406 70.3966 68.7405 63.0329 59.7652 56.9667 54.6194 53.0698 51.6081 49.9539 49.5432 48.831 48.6076 47.353
threshold=0.43383789062500006 0.45983886718750006 0.40197753906250006 0.26147460937500006 0.23596191406250003 0 1 0.52270507812500011 0.039840698242187507 2 0.42565917968750006 0.22991943359375003 0.23089599609375003 0.20880126953125003 0.26525878906250006 0.39782714843750006 0.65747070312500011 13.167968750000002 0.44763183593750006 3 0.66479492187500011 -64.499999999999986 0.13677978515625003 13.746093750000002 -2439.4999999999995 0.54028320312500011 1.0000000180025095e-35 0.68530273437500011 247518.00000000003 0.31042480468750006 -14564.499999999998
decision_type=10 8 10 8 8 9 9 10 10 9 10 10 8 8 10 10 10 8 10 9 10 10 10 10 2 10 2 10 2 8 2
left_child=1 4 6 15 22 14 10 8 13 20 11 -2 30 -5 24 19 -15 18 28 27 25 -10 -1 -19 -6 -4 -26 -3 -14 -11 -7
right_child=2 3 9 7 5 12 -8 -9 21 29 -12 -13 17 16 -16 -17 -18 23 -20 -21 -22 -23 -24 -25 26 -27 -28 -29 -30 -31 -32
leaf_value=0.069111192125245594 0.036847574909571155 0.044112926383497224 -0.0059746751255669991 0.02781305781578719 0.022772715431148158 0.15933309305671461 -0.011012616033335207 -0.023955065621852303 0.0057531399146715095 -0.0034428147500194135 -0.014373626772929216 0.0071126700092533236 -0.00098507822908091062 -0.0013559491726221559 0.025837820709505261 0.0019522627048578021 -0.018559791323153465 -0.0034672595520282273 0.066400991625549438 0.0089413595665811373 -0.027263175082791836 0.045305777659586183 0.042208172552147448 0.035346923300444165 0.02859141583553286 -0.030938924072694718 0.069028852775930655 0.0084776581239991034 0.024011035988043827 -0.029672638717383279 0.045337979335842035
leaf_weight=262.90467406064272 459.52851995453238 524.13737065345049 1425.6143026649952 177.24797987192869 120.56793974339962 9.7325896471738798 989.10651875287294 818.42583059892058 218.94040834531188 185.84531876444817 259.86740116402507 597.55904131382704 258.60762452334166 1775.8506855070591 575.20902632176876 398.50501077622175 926.02691062539816 655.30223467200994 80.509867288172245 364.9797685444355 724.49555507302284 169.40762359648943 782.21702124923468 105.18576270341873 97.828386791050434 242.19520029425621 348.24103676527739 119.83570920675993 799.20308596640825 3560.2339511327446 142.39357206970453
leaf_count=1768 5186 5274 21886 2120 1121 100 13891 12591 3031 2873 3535 7771 2786 24112 6035 4732 14117 7425 819 4012 12134 2295 6483 1151 859 4030 3004 1377 8533 59563 1395
internal_value=0 0.0135948 -0.0160578 0.000533781 0.0305251 0.0244855 0.00279469 -0.00620077 -0.00175373 -0.0231403 0.0131485 0.0200388 0.016368 -0.00509357 0.0385846 0.0200844 -0.0072523 0.0135489 0.0213304 0.0272461 -0.0148869 0.023007 0.0489757 0.00190127 0.0522052 -0.00959992 0.0601604 0.0369085 0.0179001 -0.0282958 0.0526311
internal_weight=0 9731.26 8444.45 5493.36 4237.9 3192.78 2306.06 4085.9 3267.47 6138.38 1316.95 1057.09 2050.93 2879.13 1141.85 1407.46 2701.88 1898.81 1138.32 1008.95 2392.31 388.348 1045.12 760.488 566.637 1667.81 446.069 643.973 1057.81 3746.08 152.126
internal_count=246009 115140 130869 73661 41479 33228 30383 58266 45675 100486 16492 12957 22209 40349 11019 15395 38229 20714 12138 10663 38050 5326 8251 8576 4984 25916 3863 6651 11319 62436 1495
cat_boundaries=0 1 3 4 6
cat_threshold=66324 556810426 16295251 221974 1343307939 6849867
is_linear=0
shrinkage=0.05


Tree=10
num_leaves=32
num_cat=7
split_feature=41 40 40 40 41 41 40 121 26 11 136 38 121 38 129 39 39 38 127 39 39 39 137 129 39 38 16 11 39 7 16
split_gain=1443.22 795.847 392.991 257.687 190.212 168.9 155.534 114.641 98.4262 96.8047 89.3879 85.6113 84.053 70.0919 68.3944 67.4561 65.6311 62.5936 61.336 57.8922 56.7309 56.3677 58.393 54.3642 53.5887 51.7493 51.5625 51.1931 48.1539 47.272 50.4238
threshold=0.44982910156250006 0.54956054687500011 0.25354003906250006 0.20281982421875003 0.26574707031250006 0.22448730468750003 0.55151367187500011 7.7871093750000009 0 1 0.34301757812500006 2 6.2050781250000009 3 11.363281250000002 0.42272949218750006 0.17852783203125003 4 36.500000000000007 0.30114746093750006 0.48645019531250006 0.62133789062500011 0.14117431640625003 17.601562500000004 0.090606689453125014 5 -3821.4999999999995 6 0.42565917968750006 12377.250000000002 -1614.4999999999998
decision_type=10 8 10 10 8 8 10 8 9 9 10 9 8 9 10 10 8 9 10 8 10 10 10 10 8 9 2 9 10 10 2
left_child=1 3 11 12 20 27 8 10 26 -6 13 15 24 -7 17 23 -11 -14 25 -8 -3 22 -18 29 -1 28 -4 -5 -9 -2 -31
right_child=2 4 6 5 9 7 19 18 -10 16 -12 -13 14 -15 -16 -17 21 -19 -20 -21 -22 -23 -24 -25 -26 -27 -28 -29 -30 30 -32
leaf_value=0.15343290062540296 -0.0094610420567160548 0.020215821767101762 -0.023740188159737163 0.012451497723784595 -0.024290821710816993 0.028859368293512318 -0.0034275406911789871 0.012061934494144512 -0.019283305097768832 0.038576928809986456 0.076903679881557371 -0.0061816044961163557 -0.0002157974684947411 0.0064669423526512509 0.061960651802154015 -0.01023414700193327 -0.0067976038750469023 0.033350585091814544 0.026314680732132941 -0.027999431207319677 -0.0071802702766252877 -0.027397187114605537 0.018461413399730477 0.11426320862076039 0.052109384368595073 -0.012726958243669241 0.0045634334439186401 0.043146324563145988 -0.015318319169808843 0.016411801833262404 0.049904670669103521
leaf_weight=13.291658759117125 72.853516288101673 842.16458459198475 192.68367982283235 202.59040244668722 869.2201698385179 883.56890314072371 255.28352949395776 826.2889836654067 1572.9772617407143 84.124481350183487 72.290876243263483 399.08997616544366 198.208062723279 607.52684384211898 146.99376087635756 122.01251623407006 1717.7172319255769 517.24955403059721 264.53862662240863 3928.8306611739099 243.63189964741468 280.0621986053884 263.96752579882741 18.882332880049944 716.17398972064257 504.33232796192169 975.89228342100978 711.37957416474819 199.31733303517103 214.60909767448902 235.89850286394358
leaf_count=92 845 9021 2792 1799 13243 9740 3945 9260 24881 973 742 5414 1868 7309 1259 1634 24975 4350 3139 67435 3006 4436 3685 226 5643 6438 13880 6099 2695 2525 2660
internal_value=0 0.0123108 -0.0160897 0.0242929 -0.00402523 0.0178943 -0.020435 0.0127074 -0.0111783 -0.0101359 0.0226053 0.0122118 0.0414631 0.0199728 0.0308968 0.0230093 -0.00476715 0.0245146 0.00408409 -0.0265002 0.0140687 -0.00640039 -0.00343301 0.0309139 0.0539556 0.000240239 -0.000102605 0.0369508 0.00667574 0.0279067 0.0339496
internal_weight=0 10164.6 7989.01 5863.75 4300.89 4271.83 6925.67 3357.86 2741.55 3215.09 1563.39 1063.35 1591.92 1491.1 862.451 664.256 2345.87 715.458 1794.48 4184.11 1085.8 2261.75 1981.68 542.243 729.466 1529.94 1168.58 913.97 1025.61 523.361 450.508
internal_count=246009 119772 126237 60433 59339 47221 112933 39323 41553 47312 17791 13304 13212 17049 7477 7890 34069 6218 21532 71380 12027 33096 28660 6256 5735 18393 16672 7898 11955 6030 5185
cat_boundaries=0 1 2 4 6 8 10 11
cat_threshold=213812 2 3228647608 15256786 1144078512 12617040 3309895684 50348420 605168638 13403467 2
is_linear=0
shrinkage=0.05


Tree=11
num_leaves=32
num_cat=7
split_feature=41 40 40 40 41 41 39 26 11 38 38 41 7 8 39 38 10 40 40 136 121 39 128 8 7 38 121 6 16 39 129
split_gain=1315.81 758.006 320.38 237.414 184.021 157.866 105.662 100.173 98.1091 89.0722 87.985 75.8003 73.3726 86.6994 68.2468 65.0566 63.7607 60.8616 57.5143 56.9146 51.2247 50.1756 49.7063 49.2088 51.5377 47.5527 46.5071 46.088 45.5724 45.0822 44.6581
threshold=0.47668457031250006 0.54956054687500011 0.33312988281250006 0.20281982421875003 0.26574707031250006 0.31311035156250006 0.41711425781250006 0 1 2 3 0.20739746093750003 14991.750000000002 451660.50000000006 0.53442382812500011 4 5 0.63696289062500011 0.055801391601562507 0.46887207031250006 7.0722656250000009 0.66088867187500011 16.210937500000004 675191.25000000012 26043.750000000004 6 6.2050781250000009 508497.75000000006 -3298.4999999999995 0.18743896484375003 11.496093750000002
decision_type=10 8 10 10 8 8 10 9 9 9 9 8 10 10 10 9 9 10 8 10 10 10 8 10 10 9 8 2 2 8 10
left_child=1 3 10 11 21 12 9 17 -6 19 18 -1 -5 27 15 -10 22 28 -2 20 -7 25 26 24 -17 -3 -13 -14 -4 -15 -31
right_child=2 4 7 5 8 6 -8 -9 14 -11 -12 16 13 29 -16 23 -18 -19 -20 -21 -22 -23 -24 -25 -26 -27 -28 -29 -30 30 -32
leaf_value=0.058943695491060488 0.05624635659065045 0.024268588620454629 -0.02415075215831863 0.0091405388652943641 -0.024079442069250782 0.027529296805573367 -0.0096683999609551222 -0.027368803588378805 -0.013492286214976001 0.00056278005739532095 -0.0081520503712721581 0.04938244213569503 0.041268556909816401 0.075957780414591947 -0.023324420339159893 0.0022641244880660621 0.018245602282203201 -0.024417328621055577 0.011219867624916655 0.062329018433406339 0.0090294174035989664 -0.019003921988397648 0.071785949335804594 -0.011309220605481363 0.025634100194503004 0.00070603661478803174 0.023532133348578343 0.075548010578798785 -0.0027732824798921297 0.011981833782894467 0.050000261188610555
leaf_weight=346.45404462516308 79.187445238232613 663.16821527481079 320.18802367895842 359.47396947443485 930.28947350382805 801.29226917773485 582.36910279840231 3478.1572620533407 722.72849343344569 820.58251288533211 768.25978561490774 363.0238983258605 487.45133583247662 35.759141311049461 428.24041946604848 678.87595037743449 541.09242704510689 841.57630892470479 679.45509666576982 79.389112159609795 701.99148035049438 108.87603248655796 120.37556584179401 349.08931600674987 361.55138906091452 325.80653040111065 334.13832612335682 122.7431838363409 1126.1286941356957 480.69902335852385 92.02952253818512
leaf_count=2247 770 6988 5088 3355 14535 8661 8057 60681 10795 10256 10654 2811 4345 299 6911 9465 4902 14798 8560 799 8087 1380 995 5018 5043 3659 2932 1067 17431 4578 842
internal_value=0 0.0108594 -0.0166104 0.022148 -0.00463033 0.0162004 0.00943946 -0.0220032 -0.0102741 0.0140698 0.00375465 0.0380671 0.0289911 0.0348465 -0.00510392 -0.00143402 0.0327435 -0.0136668 0.0157126 0.020937 0.0188904 0.0132121 0.0416069 0.00489967 0.0103853 0.0167587 0.0369928 0.048164 -0.00750586 0.0214915 0.0180909
internal_weight=0 10837.5 7292.95 6268.86 4568.63 4563.78 2985.62 5766.05 3470.78 2403.26 1526.9 1705.08 1578.16 1218.68 2540.49 2112.25 1358.63 2287.89 758.643 1582.67 1503.28 1097.85 817.538 1389.52 1040.43 988.975 697.162 610.195 1446.32 608.488 572.729
internal_count=246009 128027 117982 64233 63794 50346 35860 97998 51767 27803 19984 13887 14486 11131 37232 30321 11640 37317 9330 17547 16748 12027 6738 19526 14508 10647 5743 5412 22519 5719 5420
cat_boundaries=0 1 2 4 6 8 9 11
cat_threshold=221974 2 1613842618 13405776 74465520 13124817 3426751004 50612972 128 1343307827 6866251
is_linear=0
shrinkage=0.05


Tree=12
num_leaves=32
num_cat=5
split_feature=41 40 40 41 95 39 11 121 1 15 15 41 39 129 16 15 1 15 136 40 41 38 39 128 137 136 128 16 1 122 40
split_gain=1194.81 670.078 302.597 229.663 166.541 160.695 123.763 122.729 109.915 85.3527 82.7022 75.5834 69.1721 62.8458 60.8078 63.066 83.3992 68.2349 60.6592 59.3596 57.1313 52.6393 51.3595 51.0928 89.4606 49.8419 49.5715 49.553 48.4496 47.6863 42.4091
threshold=0.47668457031250006 0.48718261718750006 0.46325683593750006 0.26574707031250006 1.0000000180025095e-35 0.39514160156250006 0 9.1210937500000018 1 -13855.499999999998 -16501.499999999996 0.12411499023437501 0.57104492187500011 9.9023437500000018 -3052.4999999999995 -9518.4999999999982 2 -16147.499999999998 0.46887207031250006 0.66625976562500011 0.63720703125000011 3 0.17364501953125003 17.601562500000004 3.7529296875000004 0.34814453125000006 15.003906250000002 -1924.4999999999998 4 -35.499999999999993 0.044906616210937507
decision_type=10 8 10 8 2 10 9 10 9 2 2 8 10 10 2 2 9 2 10 10 10 9 10 10 8 10 10 2 9 8 10
left_child=1 4 8 19 18 7 9 11 21 23 -9 -6 20 -12 -13 16 17 -16 30 29 26 25 -11 28 -25 -2 -4 -10 -5 -3 -1
right_child=2 3 12 6 5 -7 -8 10 27 22 13 14 -14 -15 15 -17 -18 -19 -20 -21 -22 -23 -24 24 -26 -27 -28 -29 -30 -31 -32
leaf_value=0.039700184785874615 -0.0019773678009719314 0.012540961786047154 -0.017400013184321616 -0.016892938365408089 0.073956045892547201 0.006889231752972064 -0.020637582310342052 0.0037674727003192197 -0.0036445242262342701 0.020998689713655067 0.023365511644079601 0.012730161493360058 -0.035263265215818074 0.055518504153212501 0.01382035844494111 0.019784917995131334 0.062064649230950911 0.046826988447327841 0.054674394017053755 -9.8389288206148911e-05 -0.026359918937560536 -0.017408693947201161 -0.0019227365954859856 0.0096198544781112647 0.29995643964475133 0.064000676226810813 0.0060811754799104754 0.02106612980435156 0.00058611830300986118 0.034576161021785748 0.0033912717919766522
leaf_weight=86.078952267765999 654.73908375203609 545.59975465387106 1525.6349677145481 1157.4129491895437 164.18211586773396 709.89209045469761 1249.9720991626382 435.34835178405046 315.80446083471179 516.77076116576791 700.92407605797052 202.67180801928043 986.8553169593215 194.04949431866407 238.59422498196363 263.56540258228779 513.18398932367563 455.54454085230827 66.655397139489651 413.18542785197496 1919.4015333689749 924.22159980982542 463.65315809473395 265.52129173651338 2.6799678914248934 29.932991672307253 263.60211404412985 567.38172414898872 603.00632590055466 446.42459677904844 1223.6269458271563
leaf_count=644 8867 5596 26336 17429 1069 7953 19338 4406 4081 6755 6572 1884 18246 1744 2347 2254 4450 4020 612 4837 34134 14105 6571 3918 36 400 4585 7228 8550 4461 12581
internal_value=0 0.010227 -0.0160247 -0.00170296 0.0230876 0.0283908 -0.00748606 0.0332088 -0.00194252 -0.0019478 0.0216421 0.0415819 -0.0234987 0.030337 0.0384058 0.0419437 0.046781 0.0354817 0.00814564 0.0158249 -0.0203682 -0.00972252 0.0101589 -0.00780852 0.012521 0.00089405 -0.0139406 0.0122302 -0.0109057 0.0224571 0.00577763
internal_weight=0 10918.5 7187.57 5664.23 5254.32 3877.96 4259.02 3168.06 2492.08 3009.04 1330.32 1837.74 4695.49 894.974 1673.56 1470.89 1207.32 694.139 1376.36 1405.21 3708.64 1608.89 980.424 2028.62 268.201 684.672 1789.24 883.186 1760.42 992.024 1309.71
internal_count=246009 128027 117982 77491 50536 36699 62597 28746 34681 43259 12722 16024 83301 8316 14955 13071 10817 6367 13837 14894 65055 23372 13326 29933 3954 9267 30921 11309 25979 10057 13225
cat_boundaries=0 1 2 3 5 6
cat_threshold=24 1 1 20072171 13153617 1
is_linear=0
shrinkage=0.05


Tree=13
num_leaves=32
num_cat=5
split_feature=41 40 40 40 41 41 26 38 121 16 39 133 39 40 39 38 39 38 128 38 120 95 6 8 39 8 121 128 19 136 16
split_gain=1085.17 646.677 254.346 205.14 167.435 129.006 113.629 105.682 84.6641 84.5601 74.7533 72.6756 66.0246 63.6417 60.6016 60.742 59.319 58.7265 58.2596 57.4574 55.8276 55.3258 52.9556 66.5039 49.2072 48.3222 47.2811 46.8563 46.479 45.8879 43.0474
threshold=0.50195312500000011 0.54956054687500011 0.24798583984375003 0.26818847656250006 0.33361816406250006 0.22448730468750003 0 1 7.7871093750000009 -2907.4999999999995 0.53735351562500011 1.5219726562500002 0.26550292968750006 0.59936523437500011 0.48645019531250006 2 0.18292236328125003 3 13.160156250000002 4 -28.179687499999996 1.0000000180025095e-35 279173.25000000006 675191.25000000012 0.50268554687500011 675191.25000000012 6.3300781250000009 17.070312500000004 14.500000000000002 0.23925781250000003 -688.49999999999989
decision_type=10 8 10 10 8 8 9 9 8 2 10 10 10 10 10 9 8 9 10 9 10 2 2 8 10 8 10 10 8 10 2
left_child=1 3 19 7 14 26 13 -1 11 -9 17 22 21 16 15 -3 30 -6 24 29 -13 -11 -7 -24 -10 -17 -5 -23 -19 -2 -4
right_child=2 4 6 5 10 8 -8 9 18 12 -12 20 -14 -15 -16 25 -18 28 -20 -21 -22 27 23 -25 -26 -27 -28 -29 -30 -31 -32
leaf_value=0.0099763965233110371 0.016735693189093931 -0.0033172066553133692 0.017623656985568358 0.042370995192797918 -0.01631511950431469 -8.6679900181194764e-05 -0.02592533068262376 0.013163926401364438 -0.00023540647133277345 0.025161327397102608 -0.027031461131819586 0.023342613911635491 0.022210612960505905 -0.021012480072682971 -0.0097618668224375548 0.02739532101535469 -0.0060869710211365526 -0.015125914085882619 0.017508865966340503 -0.0052114776087447291 0.10230236201089207 0.047491075866690317 0.028082217564433978 -0.0022114763165960176 -0.025606416460384435 -0.0003945135211776422 0.01848468016502413 0.084761417874338663 0.0047667979899601691 0.08149921528280224 0.11692389275134146
leaf_weight=549.93235872685909 440.18419966474175 385.14663302525878 34.078130379319191 392.39378143101931 1122.2385692633688 469.02917311713099 3481.1107455305755 350.98583241552114 1180.0500162094831 263.19433878362179 632.9287175424397 48.213158871978521 393.3017892614007 953.49784886837006 366.80034122243524 660.13531204685569 1198.7806556932628 414.20346818119287 389.3038595430553 405.23137057200074 41.789547812193632 933.73911295086145 715.95557555183768 242.54264847189188 228.04767275974154 205.00763751938939 438.89166713505983 92.702129833400249 1008.7702096961439 29.163356378674507 16.056346233934164
leaf_count=5293 5063 4557 478 3190 17513 5369 62751 3072 14009 2103 10810 508 3529 17368 4896 7113 18264 6153 4678 5628 421 7078 8080 2882 3301 2363 3668 693 14629 327 222
internal_value=0 0.00904161 -0.0164351 0.0190389 -0.00498952 0.0121477 -0.0202977 0.0300969 0.00773113 0.0353144 -0.011654 0.0164275 0.0401439 -0.011234 0.00810858 0.0133513 -0.00385854 -0.00783008 0.000388891 0.00866658 0.0600048 0.045613 0.01368 0.0204166 -0.00434435 0.0205723 0.0297598 0.0508571 -0.00101649 0.0203268 0.0494261
internal_weight=0 11525.3 6558.1 6730.07 4795.23 4146.22 5683.52 2583.86 3314.93 2033.92 3178.14 1517.53 1682.94 2202.41 1617.09 1250.29 1248.92 2545.21 1797.4 874.579 90.0027 1289.64 1427.53 958.498 1408.1 865.143 831.285 1026.44 1422.97 469.348 50.1345
internal_count=246009 135908 110101 67874 68034 46106 99083 21768 39248 16475 49105 17260 13403 36332 18929 14033 18964 38295 21988 11018 929 9874 16331 10962 17310 9476 6858 7771 20782 5390 700
cat_boundaries=0 1 3 5 7 9
cat_threshold=213780 2372801285 34621957 2905284172 43262852 3976215068 52710086 2150645936 13126994
is_linear=0
shrinkage=0.05


Tree=14
num_leaves=32
num_cat=5
split_feature=40 41 41 40 41 39 39 40 15 1 16 41 128 38 11 40 38 41 150 133 15 122 11 121 139 81 70 40 39 39 7
split_gain=990.75 515.055 390.188 211.171 150.883 117.407 97.5501 92.4729 90.5241 76.4342 74.961 74.9234 74.4795 71.0609 63.8088 60.4175 59.2645 58.1055 57.2579 61.6474 54.7236 51.5494 48.8475 51.4306 54.8098 47.7644 46.5048 43.479 42.9194 42.1226 41.4345
threshold=0.54956054687500011 0.57006835937500011 0.41271972656250006 0.18341064453125003 0.34497070312500006 0.41711425781250006 0.44201660156250006 0.69995117187500011 -19926.499999999996 0 -2182.4999999999995 0.56640625000000011 13.035156250000002 1 2 0.0096855163574218767 3 0.20147705078125003 17.500000000000004 0.33361816406250006 -14360.499999999998 -40.499999999999993 4 13.035156250000002 5.5000000000000009 0.079162597656250014 0.055953979492187507 0.076812744140625014 0.30432128906250006 0.27185058593750006 12809.250000000002
decision_type=10 10 8 8 8 10 10 10 2 9 2 10 8 9 9 10 9 8 8 8 2 10 9 8 10 10 10 10 10 10 10
left_child=1 3 6 15 12 8 13 11 -6 20 -10 22 16 -2 18 -1 26 -17 19 30 -3 -14 23 24 -4 -19 29 -11 -22 -5 -12
right_child=2 9 7 4 5 -7 -8 -9 10 27 14 -13 21 -15 -16 17 -18 25 -20 -21 28 -23 -24 -25 -26 -27 -28 -29 -30 -31 -32
leaf_value=0.066259268704120688 0.028250250768406978 -0.022587350936178401 0.00048125524142360576 0.039614819502187454 -0.0071812233614176966 -0.011669092839418941 -0.013043721791993049 -0.030141974549316799 0.00044135242886094518 0.04470312918511346 0.0048518693772127879 -0.023457675926782183 0.026869956275759527 0.0044401121188188944 0.0018589479502571886 0.049599503147470358 0.0020301987450116405 0.029076789571433677 0.015809700327719146 0.0860565126408918 0.011804670522940349 0.059041228934021008 -0.02175415995581589 -0.014792161523067249 0.06646776794472066 0.0040419699312055383 0.0090500447941647879 -0.00077810608689104924 -0.018761818535483726 0.012403630361327174 0.038142771784106771
leaf_weight=117.84384433180094 409.36903036385775 1085.3275032304227 838.89897483214736 486.49414289742708 580.65758153051138 742.05764037743211 602.79767969995737 1640.3405981361866 660.14194827899337 56.303098738193512 116.96628192067146 1896.6733442619443 321.85558570921421 1290.4716496132314 386.54855369403958 290.32975339889526 454.59534291177988 1178.6388809606433 730.70952927321196 56.730057679116726 253.15858685225248 203.08408350497484 627.19389099627733 767.6244930177927 32.695869371294975 227.26351984590292 339.85472407564521 787.86265724897385 210.19521364569664 200.9707209430635 465.1888073310256
leaf_count=809 4792 17429 12905 4089 7762 10778 8677 29932 7983 574 1294 35529 2889 15927 4689 1744 4374 9838 8365 537 3710 1718 10586 12120 464 1967 3059 11272 3341 1940 4916
internal_value=0 0.0103689 -0.0131772 0.0167681 0.0120726 0.00613665 0.00423809 -0.0200871 0.0105454 -0.00984851 0.0148053 -0.0161253 0.023132 0.0103666 0.0202048 0.0316404 0.0173992 0.0292353 0.0251852 0.0363024 -0.0164462 0.0393161 -0.00998913 -0.00532245 0.00295659 0.0250299 0.0239471 0.00225534 -0.00206147 0.03166 0.031454
internal_weight=0 9952.78 8106.07 7559.93 5745.86 3739 2302.64 5803.43 2996.94 2392.85 2416.29 4163.09 2006.85 1699.84 1756.14 1814.08 1481.91 1696.23 1369.59 638.885 1548.68 524.94 2266.41 1639.22 871.595 1405.9 1027.32 844.166 463.354 687.465 582.155
internal_count=246009 115077 130932 78751 64393 46324 29396 101536 35546 36326 27784 71604 18069 20719 19801 14358 13462 13549 15112 6747 24480 4607 36075 25489 13369 11805 9088 11846 7051 6029 6210
cat_boundaries=0 1 3 4 6 7
cat_threshold=1 269484163 4752392 24 68251832 15238490 24
is_linear=0
shrinkage=0.05


Tree=15
num_leaves=32
num_cat=8
split_feature=41 40 40 121 41 128 1 6 8 1 39 11 41 19 38 121 137 7 39 38 39 40 38 15 39 38 122 139 133 129 38
split_gain=901.606 507.763 228.109 167.657 141.398 112.331 104.103 100.008 185.739 79.326 70.3069 69.9478 66.5858 64.1309 63.2577 58.8166 60.2959 55.4775 52.5986 51.1222 50.539 47.6887 44.1543 44.0909 44.939 43.7904 42.2487 42.0189 41.0668 40.5264 40.2321
threshold=0.50195312500000011 0.54956054687500011 0.42541503906250006 6.4941406250000009 0.33361816406250006 13.160156250000002 0 279173.25000000006 451660.50000000006 1 0.57104492187500011 2 0.27148437500000006 78.000000000000014 3 11.769531250000002 1.4057617187500002 21143.250000000004 0.63452148437500011 4 0.19207763671875003 0.59936523437500011 5 -14360.499999999998 0.34899902343750006 6 -39.499999999999993 33.500000000000007 1.0698242187500002 11.496093750000002 7
decision_type=10 8 10 8 8 10 9 2 8 9 10 9 8 8 9 8 10 10 10 9 8 10 9 2 10 9 10 10 8 10 9
left_child=1 3 9 7 18 6 12 30 17 23 14 15 -5 -8 -4 16 25 -9 19 -3 -10 -16 -22 -2 -25 -6 -11 -7 -28 -17 -1
right_child=2 4 10 5 11 27 13 8 20 26 -12 -13 -14 -15 21 29 -18 -19 -20 -21 22 -23 -24 24 -26 -27 28 -29 -30 -31 -32
leaf_value=-0.0049726496228955875 -0.015275227956640767 0.018104781976813422 -0.02517333810070406 0.013408683851128323 0.0085816344547646108 0.024875924115209998 0.0059491613640683507 0.031168929143516301 0.060593035530195974 0.0031269577086179704 -0.034184992615123193 -0.02228455109079298 -0.0078281606844234179 0.029053684970761995 -0.0019345383990857158 -0.018981320735868359 0.061375017887162098 0.055226032598306135 -0.017291621950285652 -0.00120769523234772 -0.0088540565560146188 -0.018733701508305833 0.018627845150369134 0.016665343303495662 -0.018106626727963895 -0.011500026353194893 0.024258185141286859 0.14502819807252329 0.12520296784317214 0.005645094810212116 0.018296605448156943
leaf_weight=248.95085054636002 860.87788311392069 878.06402503699064 1759.2461281791329 508.66404436528683 616.23507159203291 851.11991334706545 635.00246738269925 372.63990116864443 60.305155120790005 476.3379607014358 896.78751742094755 917.87744278088212 1345.2173173837364 569.87844139710069 740.7166359052062 865.30826755985618 41.372356113046408 671.47174180671573 190.42151968181133 564.09995208308101 179.20750423893332 983.2126870341599 731.94577694311738 268.59140944108367 142.06732299551368 469.19957580417395 239.70344841107726 7.339208595454692 10.517498090863226 207.03188524022698 723.61139831319451
leaf_count=2599 12965 9598 33364 4099 9046 8517 6275 3321 483 5917 17845 15526 15857 5481 12599 13360 550 5677 2673 6658 1793 18690 7151 3586 2108 7389 2902 60 125 3234 6561
internal_value=0 0.00806995 -0.0153137 0.0167252 -0.00451376 0.00992069 0.00543512 0.0256455 0.0319995 -0.00131386 -0.0217003 -0.0107573 -0.00200124 0.016877 -0.018486 -0.00581828 0.00213217 0.0466401 0.00740676 0.0106679 0.0162639 -0.0114492 0.0133299 -0.00884465 0.00463599 -0.000125929 0.0118656 0.0259031 0.0285012 -0.0142268 0.0124773
internal_weight=0 11655 6378.06 6905.35 4749.61 3917.22 3058.76 2988.13 2015.57 1998.1 4379.96 3117.02 1853.88 1204.88 3483.18 2199.15 1126.81 1044.11 1632.59 1442.16 971.458 1723.93 911.153 1271.54 410.659 1085.43 726.559 858.459 250.221 1072.34 972.562
internal_count=246009 135908 110101 67874 68034 40289 31712 27585 18425 27603 82498 49105 19956 11756 64653 33579 16985 8998 18929 16256 9427 31289 8944 18659 5694 16435 8944 8577 3027 16594 9160
cat_boundaries=0 1 2 3 5 7 9 11 13
cat_threshold=1 1 24 3556784132 44616334 269574307 6865946 3557958172 25228 2558007783 12637320 2621459973 35932741
is_linear=0
shrinkage=0.05


Tree=16
num_leaves=32
num_cat=7
split_feature=41 40 41 40 11 39 15 15 26 11 39 1 41 1 11 121 41 39 129 19 7 38 132 16 128 136 39 19 136 128 39
split_gain=821.671 487.002 209.714 196.383 127.251 121.428 105.894 89.5683 82.8671 80.0983 77.6967 66.0139 65.9763 59.2193 55.9527 54.8573 51.3977 49.7652 48.6145 45.7773 40.9329 40.4144 39.8614 39.2557 39.2001 36.237 35.3184 35.2308 35.2173 34.7267 34.2954
threshold=0.51806640625000011 0.41003417968750006 0.26147460937500006 0.33312988281250006 0 0.38684082031250006 -20043.499999999996 -16558.499999999996 1 2 0.27868652343750006 3 0.19464111328125003 4 5 4.6191406250000009 0.12411499023437501 0.19207763671875003 10.863281250000002 12.500000000000002 13133.250000000002 6 0.090454101562500014 -3092.4999999999995 15.347656250000002 0.032867431640625007 0.40344238281250006 19.500000000000004 0.46191406250000006 12.503906250000002 0.11795043945312501
decision_type=10 8 8 10 9 10 2 2 9 9 10 9 8 9 9 10 10 8 10 8 10 9 10 2 10 10 8 8 10 10 8
left_child=1 5 14 11 24 6 -1 13 17 12 19 -2 -8 -6 16 20 -3 -5 22 -9 -14 -21 -17 -19 -4 -25 -10 -15 -23 -7 -18
right_child=3 2 4 8 7 29 9 10 26 -11 -12 -13 15 27 -16 18 30 23 -20 21 -22 28 -24 25 -26 -27 -28 -29 -30 -31 -32
leaf_value=0.0047225313530366818 -0.0068676522622119728 0.038206580140744739 -0.021978665133769809 0.030679014880366912 -0.015354070334587473 -0.0033461443984737979 0.049001938304937646 -0.0042948435421514943 -0.0078299520647760797 0.011083177898918259 -0.0068325812388034673 0.016361737115305492 0.015726372634636759 -0.009709708087557797 0.0014723919257537369 0.011114958481356269 0.07630748636838694 -0.02549366772730622 0.042708819053105876 -0.0049225343682968437 0.042195937853284328 0.018323831465324021 0.034810268456584782 -0.011770757146095845 0.003640795447625952 0.015452693509170763 -0.027552114332641889 0.015588463407921183 0.062005359538111163 0.021142753432112919 0.012855296773687415
leaf_weight=625.58235393092036 833.55149576440454 314.53335054963827 1191.9837298206985 66.209953710436821 1283.1996736340225 625.38196399062872 435.61101319640875 343.37203114852309 249.33618077635765 662.86960990726948 866.54901610314846 483.10163030028343 182.2409510910511 250.59479102492332 567.85470695048571 803.4484349489212 21.864848650991917 491.93240820616484 210.64735836535692 191.35362431779504 735.59205712378025 980.35532746836543 227.81320383772254 1164.0101935863495 170.6900953873992 136.58094435557723 2534.3848940990865 305.26537766680121 48.421455107629299 188.37005070969462 817.48153308033943
leaf_count=6308 11882 2678 19232 1013 19871 6665 2688 4553 4509 5604 13088 5597 1540 3623 5871 7205 177 8990 1819 2586 5671 12557 1975 20446 2721 2365 49736 4299 556 1885 8299
internal_value=0 0.00730898 -0.000724633 -0.0153883 -0.00539333 0.0198847 0.0235644 -0.0011211 -0.0202222 0.0271821 0.00517668 0.00165559 0.0311312 -0.00944881 0.0145467 0.0276709 0.0207879 -0.0118265 0.0208204 0.0118326 0.0369403 0.0163713 0.0163494 -0.0134625 -0.0186328 -0.0089119 -0.0256933 0.00418345 0.0201836 0.00232263 0.0145082
internal_weight=0 12051.1 7353.52 5959.11 5631.79 4697.56 3883.8 4269.11 4642.45 3258.22 2430.05 1316.65 2595.35 1839.06 1721.73 2159.74 1153.88 1858.73 1241.91 1563.5 917.833 1220.13 1031.26 1792.52 1362.67 1300.59 2783.72 555.86 1028.78 813.752 839.346
internal_count=246009 141471 100111 104538 83086 41360 32810 61133 87059 26502 33340 17479 20898 27793 17025 18210 11154 32814 10999 20252 7211 15699 9180 31801 21953 22811 54245 7922 13113 8550 8476
cat_boundaries=0 1 2 3 4 5 6 8
cat_threshold=2 213782 24 1 1 24 3377137156 25447317
is_linear=0
shrinkage=0.05


Tree=17
num_leaves=32
num_cat=5
split_feature=40 41 41 39 95 8 6 40 39 39 7 38 6 121 39 136 38 8 41 38 137 120 7 1 128 121 6 136 38 19 131
split_gain=759.311 376.105 321.823 168.695 151.966 117.262 202.915 87.0784 78.1129 72.5652 72.2305 68.4445 66.3409 61.9384 59.1394 59.01 57.1434 57.531 57.029 51.8578 49.0016 62.4228 45.6096 44.7343 42.5577 41.7743 39.3465 44.5603 38.2996 38.1683 37.7481
threshold=0.55151367187500011 0.57006835937500011 0.41271972656250006 0.51098632812500011 1.0000000180025095e-35 451660.50000000006 340267.50000000006 0.69995117187500011 0.46130371093750006 0.31359863281250006 21818.250000000004 0 540180.00000000012 11.097656250000002 0.25500488281250006 0.46887207031250006 1 675191.25000000012 0.59985351562500011 2 5.6308593750000009 -22.492187499999996 15999.750000000002 3 13.160156250000002 6.3300781250000009 157275.00000000003 0.62817382812500011 4 27.500000000000004 29.500000000000004
decision_type=10 10 8 10 2 8 2 10 10 8 10 9 2 10 8 10 9 8 10 9 10 10 10 9 10 10 2 10 9 8 10
left_child=1 3 8 4 15 6 13 9 16 -4 -8 -3 -12 26 -7 25 -2 22 20 -16 23 -22 -18 -11 -24 28 -6 29 -1 -28 -5
right_child=2 11 7 30 5 14 10 -9 -10 18 12 -13 -14 -15 19 -17 17 -19 -20 -21 21 -23 24 -25 -26 -27 27 -29 -30 -31 -32
leaf_value=0.014415981543961809 -0.0072597264594219573 0.00062933106552673487 0.0070285936009252641 -0.010797359612892278 0.0046551595798044239 0.03698205013184757 0.023140202530479732 -0.028566457129361608 -0.012548721175520609 -0.01721794932297659 0.041251970857641346 -0.016485799443163869 0.07052206611365687 0.0044714682356060548 0.016640190829067255 0.045003428306801423 0.0021598358797656112 -0.0041661367071054453 -0.024477601987240777 -0.00037381602955371854 0.038014748172118334 0.34447541891001632 0.020642254901280077 -0.0019401864786387038 0.051457486590057847 -0.0063456822877326364 0.0066747468971305032 0.081699783148724336 -0.011030732447050438 0.031776480990178983 0.011782518097128717
leaf_weight=731.22104964032769 411.13274547830224 1075.3712191283703 353.94423408806324 747.22928987815976 217.35398407652974 210.40292393416166 345.51504863426089 1546.9142045453191 554.99600587785244 1447.1665349826217 653.87533493712544 1279.3940975032747 275.00256275758147 666.79032779112458 983.33741865679622 84.503261063247919 263.5587623603642 325.93136302381754 1423.7890218570828 824.00033455714583 9.7761237099766713 2.0018848106265059 600.90382517501712 716.29566081985831 137.72346108406782 774.95160319283605 196.32158522680402 37.527113374322653 178.9473719149828 662.39937255904078 246.03955078125
leaf_count=7272 5376 15555 5365 9623 2042 1855 3231 29932 8194 25126 5722 21097 2293 6781 9560 760 3048 4097 28602 8981 150 25 6875 11634 1543 8478 1751 285 1821 5923 3012
internal_value=0 0.00878528 -0.0119472 0.0140512 0.0168465 0.0212478 0.0274262 -0.0185093 0.00378359 -0.0145736 0.0426577 -0.00873702 0.0499176 0.0165236 0.0118938 0.00423058 0.00899524 0.0139766 -0.016698 0.00897318 -0.011606 0.0901033 0.0200164 -0.0121597 0.026388 0.00218596 0.02374 0.0283683 0.00945012 0.0260377 -0.00520417
internal_weight=0 10190.2 7794.13 7835.42 6842.15 5072.53 3054.79 5499.89 2294.25 3952.97 1274.39 2354.77 928.878 1780.39 2017.74 1769.62 1739.25 1328.12 3599.03 1807.34 2175.24 11.778 1002.19 2163.46 738.627 1685.12 1113.6 896.248 910.168 858.721 993.269
internal_count=246009 116042 129967 79390 66755 48424 28028 100834 29133 70902 11246 36652 8015 16782 20396 18331 20939 15563 65537 18541 36935 175 11466 36760 8418 17571 10001 7959 9093 7674 12635
cat_boundaries=0 2 4 6 7 9
cat_threshold=700237034 13661521 2903179844 51381204 556794339 13403456 1 141582515 46663114
is_linear=0
shrinkage=0.05


Tree=18
num_leaves=32
num_cat=6
split_feature=41 40 41 39 40 26 26 137 19 40 40 128 136 40 39 39 6 8 7 38 151 11 136 39 1 128 38 41 150 129 132
split_gain=693.276 444.909 212.902 173.215 145.124 118.082 93.7655 68.9559 67.8431 67.492 60.5468 61.5625 56.8443 55.813 51.984 50.9491 50.0821 54.3635 60.0985 47.495 46.088 45.9372 45.521 43.2337 42.5968 42.4091 45.4712 39.0272 41.5082 38.1946 38.1693
threshold=0.56640625000000011 0.33312988281250006 0.22448730468750003 0.57934570312500011 0.25793457031250006 0 1 0.26989746093750006 14.500000000000002 0.066802978515625014 0.68823242187500011 17.070312500000004 0.29199218750000006 0.65747070312500011 0.15960693359375003 0.25500488281250006 204797.25000000003 451660.50000000006 25404.750000000004 2 3.5000000000000004 3 0.081787109375000014 0.10980224609375001 4 16.507812500000004 5 0.12411499023437501 16.500000000000004 19.695312500000004 1.1518554687500002
decision_type=10 8 8 10 10 9 9 10 8 10 8 10 10 10 8 8 2 8 10 9 10 9 10 8 9 10 9 10 10 10 10
left_child=1 6 14 5 19 8 20 13 -4 -8 11 23 16 24 -3 -11 -10 18 -18 -2 22 27 -1 -7 -6 26 -17 28 -16 -21 -25
right_child=4 2 3 -5 7 10 9 -9 12 15 -12 -13 -14 -15 21 25 17 -19 -20 29 -22 -23 -24 30 -26 -27 -28 -29 -30 -31 -32
leaf_value=0.031211745884991367 -0.012802746818564385 0.054446708997422794 -0.0060092036725444909 -0.021893399457868244 -0.022660407715403855 0.059040426170819116 0.03229535220062215 0.00027697684967189091 -0.0091245337305420424 0.034744694955945475 -0.020897168595341499 0.016398402959715137 0.040280670445428025 -0.031173716438923561 0.052241942074321923 0.0130205322541987 0.011713221604885245 0.0028948233813788429 0.03866993692254464 0.01201564568177522 0.012199039599921356 0.0011412760224041002 0.064104521866184525 -0.0089150445091600826 -0.0091532529936366111 0.026309636790154835 -0.003767549111460869 0.013076373361089581 0.018314534857788119 0.11568961733295575 0.019290975734377911
leaf_weight=1062.1657836399972 252.85897361114621 85.132530592381954 823.87451835349202 1118.1769824996591 1680.1420301496983 24.757063373923302 408.68087851256132 380.28279551491141 336.50508007407188 189.41041712090373 647.04741927981377 329.08110521733761 151.60254136100411 1160.8566154539585 162.85143963247538 781.10712750256062 670.6997453533113 887.02904921770096 298.90805093944073 454.03888569772243 289.33787824586034 473.06172789633274 116.74526209384203 2208.3334557041526 894.4363366663456 258.60867351293564 818.78359965607524 659.02861382812262 201.94343459606171 9.0611746646463853 126.83024595305324
leaf_count=8082 3729 627 10927 19493 31614 273 2903 7115 4271 1510 11337 4639 1733 24555 1274 6904 8471 11761 3604 5387 2401 4609 838 32241 15270 2363 8412 6193 1641 108 1724
internal_value=0 0.00575951 -0.000250568 -0.00371473 -0.0163927 -0.00058975 0.0198549 -0.0200069 0.00631343 0.0136875 -0.00714398 -0.00386115 0.0106702 -0.0220718 0.0164413 0.010041 0.00862331 0.01184 0.0200234 0.00438368 0.029877 0.0142798 0.0344691 -0.00668626 -0.0179679 0.0075233 0.00448665 0.0201426 0.0334604 0.0137473 -0.00738308
internal_weight=0 13129.7 9204.86 7622.85 4831.68 6504.67 3924.84 4115.72 3168.62 2456.59 3336.05 2689 2344.74 3735.43 1582.02 2047.91 2193.14 1856.64 969.608 715.959 1468.25 1496.89 1178.91 2359.92 2574.58 1858.5 1599.89 1023.82 364.795 463.1 2335.16
internal_count=246009 158231 124818 110474 87778 90981 33413 78554 40767 22092 50214 38877 29840 71439 14344 19189 28107 23836 12075 9224 11321 13717 8920 34238 46884 17679 15316 9108 2915 5495 33965
cat_boundaries=0 1 2 4 5 6 8
cat_threshold=221974 197428 285751302 52703756 24 1 671160051 13412184
is_linear=0
shrinkage=0.05


Tree=19
num_leaves=32
num_cat=5
split_feature=40 41 41 1 41 19 137 39 40 15 39 39 38 41 7 128 137 38 38 15 39 128 15 39 122 120 39 150 10 86 92
split_gain=638.414 302.491 280.897 168.776 124.145 103.886 98.5655 82.2674 74.7453 70.6495 76.8448 66.5122 64.8345 60.5458 57.9105 57.8712 53.5353 53.3721 51.168 46.523 46.3216 46.1291 44.1639 54.5242 43.9191 43.6416 43.307 42.0971 37.3497 36.2324 36.0897
threshold=0.55151367187500011 0.60839843750000011 0.41271972656250006 0 0.34497070312500006 16.500000000000004 2.2841796875000004 0.58813476562500011 0.71899414062500011 -16431.499999999996 0.32287597656250006 0.44201660156250006 1 0.67773437500000011 14991.750000000002 17.601562500000004 0.44763183593750006 2 3 -15390.499999999998 0.21612548828125003 19.273437500000004 -17162.499999999996 0.26550292968750006 -71.499999999999986 -26.523437499999996 0.27526855468750006 25.500000000000004 4 0.039657592773437507 1.0000000180025095e-35
decision_type=10 10 8 9 8 8 10 10 10 2 10 10 9 10 10 10 10 9 9 2 8 10 2 10 10 10 10 10 9 10 10
left_child=1 3 11 5 15 -1 9 8 13 20 -11 17 14 18 -7 22 19 -2 30 -3 -6 24 -5 -24 -8 -18 -21 -16 -19 -26 -4
right_child=2 16 7 4 6 12 21 -9 -10 10 -12 -13 -14 -15 27 -17 25 28 -20 26 -22 -23 23 -25 29 -27 -28 -29 -30 -31 -32
leaf_value=0.0093383818753684268 0.022951333444519852 -0.019685168379277196 -0.0034732641425042816 0.00024116598480509451 0.12535158317293624 0.013994684436308658 0.0048539399334406388 -0.030521902978928723 -0.028189165355149093 0.012539436865982438 -0.0087495463904389923 -0.01121402136045057 0.0060681700645888719 -0.023419818919572892 0.042593925342873477 0.040425423509174212 0.0044509976632591168 0.011405881485942855 -0.014745886599979944 0.0062587132807727253 -0.010252904734094489 0.14470497434829774 0.027854551756208552 0.0052802963996567481 0.092888059862960712 0.068855256757462457 -0.018669399440292164 0.023577980000118341 -0.0055998014298446206 0.0039026196940942087 0.025926941555767039
leaf_weight=1194.5197915062308 450.9781292565167 998.38326177373528 1289.2535129077733 442.55035121738911 6.3271990157663813 357.70618160068989 58.11795175075531 979.74053016677499 810.75121497735381 1253.6049070544541 640.43024153262377 578.4934184551239 310.73927190154791 805.5729043148458 926.45959659293294 230.98761808127165 138.51640697568655 643.85717088729143 1346.3496674634516 461.54518245533109 1346.6785510890186 10.513393133878706 674.54487586766481 443.25773887336254 39.384189926087856 32.469011828303337 279.8802015632391 424.35028780251741 630.31455982476473 16.122001491487026 113.57658811658621
leaf_count=11734 5022 16558 21369 3863 69 3371 673 20532 16121 13166 8599 8612 2979 16573 8115 1767 2130 7549 24406 6590 17706 90 4998 3920 381 478 4580 4121 7950 154 1833
internal_value=0 0.00793587 -0.011138 0.0120309 0.00643109 0.0210264 0.000779094 -0.0174282 -0.0144896 -0.000892572 0.00534099 0.00345757 0.0279406 -0.0113651 0.0316976 0.0170678 -0.0100156 0.00837739 -0.00783281 -0.0126392 -0.00961876 0.0445045 0.01361 0.0189029 0.0352332 0.0166809 -0.00315138 0.0366202 0.00301532 0.0670419 -0.00108522
internal_weight=0 10287.1 7648.89 8376.29 5162.52 3213.78 3371.18 5345.24 4365.5 3247.04 1894.04 2303.64 2019.26 3554.75 1708.52 1791.34 1910.79 1725.15 2749.18 1739.81 1353.01 124.138 1560.35 1117.8 113.624 170.985 741.425 1350.81 1274.17 55.5062 1402.83
internal_count=246009 116042 129967 85706 55386 30320 40838 100834 80302 39540 21765 29133 18586 64181 15607 14548 30336 20521 47608 27728 17775 1298 12781 8918 1208 2608 11170 12236 15499 535 23202
cat_boundaries=0 1 3 5 7 8
cat_threshold=2 272714482 63473611 269508739 4752392 540787171 5805401 128
is_linear=0
shrinkage=0.05


Tree=20
num_leaves=32
num_cat=7
split_feature=40 41 40 41 41 11 1 15 1 39 39 128 19 136 128 120 39 15 38 136 150 39 136 38 38 137 38 121 129 123 129
split_gain=583.638 354.982 148.248 146.383 132.659 112.589 101.357 91.0634 81.3486 76.3212 64.7478 62.6806 61.2644 58.6518 54.6168 50.0288 49.7451 51.9352 48.3948 47.2771 45.1516 42.3533 40.0637 39.7926 38.118 37.7807 36.7474 36.7824 39.5581 38.119 36.5432
threshold=0.61645507812500011 0.40222167968750006 0.24798583984375003 0.43383789062500006 0.16003417968750003 0 1 -16977.499999999996 2 0.34313964843750006 0.24444580078125003 15.167968750000002 19.500000000000004 0.62084960937500011 15.003906250000002 -22.492187499999996 0.61010742187500011 -17478.499999999996 3 0.047210693359375007 17.500000000000004 0.27868652343750006 0.23925781250000003 4 5 4.1660156250000009 6 5.1777343750000009 7.5566406250000009 -4.4999999999999991 8.0117187500000018
decision_type=10 10 8 8 8 9 9 2 9 10 8 10 8 10 10 10 10 2 9 10 8 8 10 9 9 8 9 10 10 10 10
left_child=1 4 18 10 26 -6 12 8 11 19 -2 -7 -4 14 21 -15 17 -8 22 20 -9 -5 -3 -12 -14 -13 -1 -28 -29 -30 -25
right_child=3 2 6 13 5 7 16 9 -10 -11 23 25 24 15 -16 -17 -18 -19 -20 -21 -22 -23 -24 30 -26 -27 27 28 29 -31 -32
leaf_value=-0.0018568895996254821 0.033122006374444027 0.0164884167521764 -0.0085850511429872451 -0.00021698918733517987 -0.0043329687065830243 -0.010477186791437823 -0.020735474584440985 0.025870085962925594 0.019646699147310688 0.0030015978277371613 -0.015973586089990735 0.014266838161597475 -0.0093397450117187874 0.0056601652394404223 -0.0057289959403019931 0.11695944296354908 -0.030047504660515614 -0.0051571598651108828 -0.00042558672344101926 0.038833684929983237 0.012133714084362465 -0.025105176434097883 0.063131586869746972 -0.004042117606565844 0.017596318242953671 0.14614970958784929 0.04284517176457292 0.013605200198841537 0.071680376875846649 0.025535054102079121 0.01878271398768451
leaf_weight=97.441189095377922 121.81495808437467 648.42615272477269 729.51763807609677 182.0880449488759 1136.4405941590667 874.89810399338603 909.62821685522795 1200.3178112842143 535.95290744304657 698.57714691385627 510.63108378648758 268.20197504386306 164.83531035110354 74.628114480525255 500.53959442302585 11.676324591040609 436.35216846689582 1299.0758775472641 541.6274284645915 344.55191800743341 1192.6311297155917 2791.7531279027462 49.556258954107761 783.82224291563034 583.75078593939543 5.5426408648490897 430.54207894206047 363.00968661904335 68.113305278122425 130.49284893274307 225.8995311036706
leaf_count=694 1274 6623 11272 2921 12623 10183 16364 10137 5373 8048 7454 2827 2483 1361 9951 179 8465 20952 7089 2852 11044 56490 451 10552 8639 41 2799 2518 466 895 2989
internal_value=0 0.00557835 -0.00420214 -0.0143024 0.0127177 0.00991394 -0.00876038 0.0130587 0.0035615 0.0177529 -0.00195284 -0.0039438 0.00172651 -0.019998 -0.0210094 0.0207181 -0.0146206 -0.0115729 0.0109594 0.0215173 0.019024 -0.0235813 0.0195204 -0.00476313 0.0117754 0.0169371 0.0288184 0.031532 0.0234205 0.0413609 0.00105392
internal_weight=0 12709.5 5362.77 5202.85 7346.71 6257.11 4123.16 5120.67 1684.6 3436.08 1642.17 1148.64 1478.1 3560.69 3474.38 86.3044 2645.06 2208.7 1239.61 2737.5 2392.95 2973.84 697.982 1520.35 748.586 273.745 1089.6 992.158 561.616 198.606 1009.72
internal_count=246009 152838 82338 93171 70500 63128 68175 50505 18424 32081 22269 13051 22394 70902 69362 1540 45781 37316 14163 24033 21181 59411 7074 20995 11122 2868 7372 6678 3879 1361 13541
cat_boundaries=0 1 2 3 5 7 9 11
cat_threshold=2 2 1 5326000 13157458 2235640348 36967108 3226476052 8966661 2302806020 19146757
is_linear=0
shrinkage=0.05


Tree=21
num_leaves=32
num_cat=8
split_feature=41 40 11 41 40 150 26 26 128 40 18 131 128 41 39 38 16 39 133 38 7 8 41 38 1 128 136 39 38 128 39
split_gain=547 346.446 177.006 134.595 115.414 86.1294 72.0811 65.1282 63.4357 57.3299 56.6712 56.3448 52.9044 48.0719 46.3156 42.6609 41.1864 41.0896 40.1846 38.924 43.0055 50.3851 38.5152 38.5044 36.7886 36.6649 35.9573 35.1642 34.5471 34.5154 33.3244
threshold=0.57006835937500011 0.33312988281250006 0 0.34497070312500006 0.25793457031250006 19.500000000000004 1 2 14.589843750000002 0.066802978515625014 -3766.4999999999995 35.500000000000007 12.941406250000002 0.094757080078125014 0.058731079101562507 3 -920.49999999999989 0.38684082031250006 0.27478027343750006 4 15792.750000000002 451660.50000000006 0.26147460937500006 5 6 14.316406250000002 0.53149414062500011 0.44470214843750006 7 16.367187500000004 0.38122558593750006
decision_type=10 8 9 8 10 8 9 9 10 10 2 10 8 10 8 9 2 10 10 9 10 10 8 9 9 10 10 10 9 10 8
left_child=1 6 8 12 23 10 19 16 14 -8 -5 24 13 -4 -3 -15 -6 28 -9 20 -1 26 -16 -2 -7 -23 -22 -17 -11 -30 -13
right_child=4 2 3 5 7 11 9 18 -10 17 -12 30 -14 15 22 27 -18 -19 -20 -21 21 25 -24 -25 -26 -27 -28 -29 29 -31 -32
leaf_value=0.013022916933907639 -0.012417404179790648 0.17147852191696822 0.032172233655922776 -0.0048700474388488971 -0.015408989157720702 -0.017618734478289537 0.028585174310694239 -0.026530998677498432 0.0076462177469659737 0.019107325873999596 0.012470622015912902 0.033682951080816967 0.025518812413023013 -0.0099560533427058388 -0.0041721589296317653 0.0141117778403516 0.0027486946809033115 -0.0057033252620061776 -0.007937137271747224 0.011680305701021057 0.042856813448627837 0.015467944265298267 -0.020782482855653237 0.011754163920800177 -0.0033076671569144348 0.060781483478598297 0.095622648503065261 -0.0082275328858259725 0.00023602509748563814 0.027445361409907432 0.00043164895150881328
leaf_weight=257.94144761562347 242.58815337345004 3.2768213115632525 193.11246280372143 735.16651123017073 1119.1750447191298 1148.7510875761509 423.96927232295275 1996.3146158270538 323.3043880276382 827.47677789628506 1312.0353271439672 85.164892502129078 636.30613135918975 334.03110657259822 464.0487425327301 989.40433530136943 433.17728156223893 413.17866330593824 340.07646788656712 409.97168624773622 470.30000743642449 308.83387201651931 1407.5606287568808 467.15886588767171 737.2778333351016 52.184064671397209 34.666457653045654 214.31538297981024 713.89579553157091 139.29220241680741 653.84983054548502
leaf_count=1959 3660 32 1471 11022 20853 18297 2917 42091 4664 6584 18102 1106 6173 3829 4677 9438 7731 4465 6953 3156 3261 2389 23732 5446 10284 391 215 2729 6970 1265 10147
internal_value=0 0.00494863 -0.000397948 0.00347244 -0.0150584 -0.0014438 0.0171384 -0.0184425 -0.0127501 0.0117715 0.00624345 -0.00743888 0.0131906 0.00865847 -0.0163353 0.00570559 -0.010276 0.0084232 -0.023723 0.0257037 0.0306708 0.0362816 -0.0166641 0.00348309 -0.0120243 0.0220179 0.0464792 0.0100509 0.0118961 0.00462405 0.00426357
internal_weight=0 13289.3 9237.61 7039.41 4598.49 4672.25 4051.71 3888.74 2198.19 2517.81 2047.2 2625.04 2367.17 1730.86 1874.89 1537.75 1552.35 2093.84 2336.39 1533.9 1123.93 865.984 1871.61 709.747 1886.03 361.018 504.966 1203.72 1680.66 853.188 739.015
internal_count=246009 159275 125703 92598 86734 68958 33572 77628 33105 22201 29124 39834 23640 17467 28441 15996 28584 19284 49044 11371 8215 6256 28409 9106 28581 2780 3476 12167 14819 8235 11253
cat_boundaries=0 1 2 3 5 7 9 10 12
cat_threshold=2 197428 254738 2166887432 41972612 1078012074 21529730 285747206 52695564 1 805393127 13141824
is_linear=0
shrinkage=0.05


Tree=22
num_leaves=32
num_cat=5
split_feature=40 41 1 41 19 39 136 11 35 151 41 39 136 121 128 122 128 121 40 121 7 8 38 7 90 39 41 38 129 129 38
split_gain=505.313 296.921 193.343 128.103 120.114 114.485 107.923 75.2834 73.9808 65.2213 60.7168 56.0645 54.4866 51.6528 56.3893 51.5461 50.5174 50.2817 45.6005 45.3498 45.2397 45.5072 42.6713 41.6418 39.4839 38.3103 37.4761 35.5628 34.4862 34.4766 33.9814
threshold=0.61645507812500011 0.34497070312500006 0 0.43383789062500006 19.500000000000004 0.31359863281250006 0.12014770507812501 1 1.0000000180025095e-35 2.5000000000000004 0.63549804687500011 0.24444580078125003 0.29199218750000006 5.9199218750000009 13.160156250000002 -65.499999999999986 15.003906250000002 9.3710937500000018 0.25793457031250006 15.558593750000002 10644.750000000002 675191.25000000012 2 28136.250000000004 1.0000000180025095e-35 0.27868652343750006 0.083099365234375014 3 9.3789062500000018 6.1777343750000009 4
decision_type=10 8 9 8 8 8 10 9 2 8 10 8 10 8 10 10 10 10 10 10 10 10 9 10 10 8 10 9 10 10 9
left_child=1 7 4 11 18 -4 8 17 10 20 13 -2 16 -7 -15 -8 25 26 -3 -14 -6 23 -11 24 30 -5 -1 -13 -19 -28 -22
right_child=3 2 5 12 9 6 15 -9 -10 22 -12 27 19 14 -16 -17 -18 28 -20 -21 21 -23 -24 -25 -26 -27 29 -29 -30 -31 -32
leaf_value=0.050028030477079634 0.030101923957853955 0.013797108629037116 0.017228234048852917 -0.00041387887442414741 -0.0046024825784024082 -0.0001396360053345835 0.0014945937719765844 0.0046949948091369919 0.013086455207082832 0.017349003004408243 -0.021884050911195684 -0.015261373411610239 0.037339050898842367 -0.017960062628628631 0.00089535671830305032 0.035656883628779661 -0.0054675471558508996 0.0078865826786781619 -0.0061388522804545756 -0.015649720386011461 0.043161198138581471 0.0058460410086180565 -0.0056913648571160543 0.049121693145569488 0.059285802251950882 -0.024432565036234057 0.020897283615986927 0.00085761366017853371 0.026108758675108559 0.041109686824653345 0.013231516078380693
leaf_weight=167.07582813501358 125.65618692710996 384.76639189198613 510.83936075121164 177.18962059915066 117.45149322971702 1241.7744027450681 266.10903199389577 908.1690627373755 327.46023095399141 411.2873524390161 1073.205339346081 509.43818753957748 76.459644310176373 1522.9998542368412 536.09289967268705 188.72953258827329 486.50808161124587 788.26507221162319 1126.9875616393983 85.564986433833838 126.91277574375272 190.60285597667098 379.83430467918515 271.2311372756958 76.925039488822222 2633.3017022870481 1064.8205223456025 1007.021029446274 387.18232279270887 263.10275416448712 429.70144912227988
leaf_count=981 1274 3393 5702 2862 1326 15852 3748 8021 4360 4769 19986 7536 1345 22133 7394 2268 9795 6749 15911 1645 1249 2329 4923 2792 799 55255 8357 13459 3093 2011 4692
internal_value=0 0.00512547 0.000364377 -0.0134928 0.00957571 -0.00534995 -0.00758676 0.0173427 -0.00983666 0.0176028 -0.0115528 -0.00199294 -0.0189521 -0.00819378 -0.013051 0.0156698 -0.0203432 0.0215457 -0.00106482 0.00935575 0.024888 0.0280502 0.00643419 0.0327278 0.0257092 -0.0229183 0.02771 -0.00465237 0.0138888 0.024902 0.0210689
internal_weight=0 12761.5 9182.91 5101.14 3515.7 5667.21 5156.37 3578.62 4701.53 2003.95 4374.07 1642.12 3459.02 3300.87 2059.09 454.839 3297 2670.45 1511.75 162.025 1212.82 1095.37 791.122 904.77 633.539 2810.49 1495 1516.46 1175.45 1327.92 556.614
internal_count=246009 152838 123626 93171 42183 81443 75741 29212 69725 22879 65365 22269 70902 45379 29527 6016 67912 21191 19304 2990 13187 11861 9692 9532 6740 58117 11349 20995 9842 10368 5941
cat_boundaries=0 1 2 4 6 8
cat_threshold=2 24 292554976 23102464 2235640348 36707012 144 1024
is_linear=0
shrinkage=0.05


Tree=23
num_leaves=32
num_cat=4
split_feature=41 40 39 95 8 7 40 95 6 8 6 39 39 7 93 8 128 38 38 38 133 41 16 11 40 136 120 39 121 15 136
split_gain=466.574 288.206 158.751 124.672 120.604 143.042 105.291 63.7968 57.8527 101.104 56.4204 58.2938 56.0378 50.2274 48.9062 48.317 47.1888 45.4487 45.3632 45.0865 41.3583 37.213 36.3192 36.2214 34.4871 34.0618 40.5376 33.2523 32.1996 31.7054 31.2702
threshold=0.57006835937500011 0.33312988281250006 0.63745117187500011 1.0000000180025095e-35 675191.25000000012 26214.750000000004 0.48718261718750006 1.0000000180025095e-35 331877.25000000006 451660.50000000006 193536.00000000003 0.18292236328125003 0.38684082031250006 35948.250000000007 -1087.4999999999998 463981.50000000006 20.335937500000004 0 1 2 0.27478027343750006 0.056289672851562507 -1924.4999999999998 3 0.055801391601562507 0.30578613281250006 -31.367187499999996 0.22735595703125003 6.3300781250000009 -15283.499999999998 0.60205078125000011
decision_type=10 8 10 2 10 10 10 2 2 10 2 8 10 10 10 10 10 9 9 9 10 8 2 9 8 10 10 8 8 2 10
left_child=1 7 3 16 5 10 19 -1 -7 13 -5 30 18 -10 -13 -11 25 -16 21 -2 -8 -9 -21 -19 -24 28 -27 -17 -3 -20 -12
right_child=6 2 -4 4 -6 8 20 12 9 15 11 14 -14 -15 17 27 -18 23 29 22 -22 -23 24 -25 -26 26 -28 -29 -30 -31 -32
leaf_value=0.0046401068295232632 -0.014066409955419055 -0.0043620029294462823 -0.019620830793429737 -0.011434694122515202 -0.0068764500385962843 -0.011641225469355579 -0.022956397198841436 0.084908079782327256 0.046556053165232265 -0.021212115454639326 0.031138583111838897 -0.0051504333303375831 0.0035708766085404057 0.013009846796432044 -0.0080931523694660126 0.052494386281373789 0.01883216672198821 0.018998322530707639 0.0054507975217170492 -0.0090372676693307816 -0.0054628041888991627 0.027152114321763322 0.05614900034567747 -0.0032028504746712152 0.0067639194196356962 -0.0071558973875043876 0.051247346770220026 0.013842798413858846 -0.017106148505710263 0.02181083718765946 0.13035300062631519
leaf_weight=1018.1185303963721 746.28357284516096 877.73837642371655 962.72020926699042 540.91579898074269 1455.1751951351762 119.42792740091681 2296.3548752628267 28.463354364037514 508.91435370594263 92.82006211951375 140.38950753584504 835.42136418446898 491.15889496356249 142.91736792400479 273.93299078568816 60.826577998697758 152.1558683514595 902.87389960885048 534.4372241795063 439.11403780058026 396.15293276682496 1383.4197856076062 37.653985589742661 233.44429775327444 578.0748542547226 77.343839891254902 48.244565397500992 653.23546817153692 1138.5739376470447 664.1904706582427 8.4180538393557054
leaf_count=8994 12846 11673 16916 6980 20634 1500 50837 144 5716 1250 1324 11413 4934 1702 3837 585 2011 10525 4794 6360 8359 9745 327 3089 8005 967 544 8602 16367 4961 68
internal_value=0 0.00450464 -0.000405573 0.00183325 0.00564087 0.00967648 -0.0141227 0.0155001 0.0218161 0.0245553 0.00314993 0.00644462 0.0190649 0.0392009 0.00443638 0.012724 -0.00807345 0.0101155 0.0219801 -0.00476496 -0.0203825 0.0281173 0.0019307 0.0144492 0.00978399 -0.00998476 0.0152796 0.0171353 -0.0115584 0.0143962 0.0367511
internal_weight=0 13345.3 9225.49 8262.77 5968.71 4513.54 4493.63 4119.79 1578.14 1458.71 2935.4 2394.48 3101.67 651.832 2245.67 806.882 2294.06 1410.25 2610.51 1801.13 2692.51 1411.88 1054.84 1136.32 615.729 2141.9 125.588 714.062 2016.31 1198.63 148.808
internal_count=246009 159275 125703 108787 77225 56591 86734 33572 19355 17855 37236 30256 24578 7418 28864 10437 31562 17451 19644 27538 59196 9889 14692 13614 8332 29551 1511 9187 28040 9755 1392
cat_boundaries=0 2 4 6 7
cat_threshold=2892105285 51643076 65768 21529664 1430862597 52726412 24
is_linear=0
shrinkage=0.05


Tree=24
num_leaves=32
num_cat=5
split_feature=40 41 1 41 2 15 39 137 11 39 151 129 40 38 39 39 128 39 16 7 8 137 8 39 38 16 120 41 128 6 7
split_gain=434.209 250.386 169.866 114.176 104.299 102.5 114.111 66.507 63.5827 61.3217 54.8505 57.4438 52.2939 51.4296 48.5199 48.5069 48.5025 46.7449 46.4877 44.5363 74.5058 38.2438 38.0947 36.795 35.6474 43.7537 34.6445 34.2313 34.2136 33.9462 33.3524
threshold=0.61645507812500011 0.34497070312500006 0 0.43737792968750006 1 -15178.499999999998 0.39245605468750006 0.21563720703125003 2 0.17852783203125003 1.5000000000000002 12.285156250000002 0.71899414062500011 3 0.13177490234375003 0.24444580078125003 23.039062500000004 0.50854492187500011 -2796.4999999999995 15153.750000000002 451660.50000000006 4.0175781250000009 900121.50000000012 0.52270507812500011 4 -1653.4999999999998 -27.992187499999996 0.68090820312500011 13.410156250000002 273672.00000000006 13502.250000000002
decision_type=10 8 9 8 1 2 10 10 9 10 8 10 10 9 8 8 10 10 2 10 8 10 10 8 9 2 10 10 10 2 10
left_child=1 8 4 15 9 7 10 27 19 13 29 -12 17 -3 -6 -2 23 21 -16 -1 -21 24 -18 -9 -5 -26 -23 -4 -17 -7 -20
right_child=3 2 5 12 14 6 -8 16 -10 -11 11 -13 -14 -15 18 28 22 -19 30 20 -22 26 -24 -25 25 -27 -28 -29 -30 -31 -32
leaf_value=0.0079793653457057943 0.02720989345590152 0.031626023063688349 -0.011312215376261217 -0.020327853438741456 0.048459578441243156 0.0058372841687902516 -0.014878105607602552 0.061876800340752061 0.0041929556778730675 0.0019712788363308565 -0.0015806477506942612 0.033287551590675611 -0.028084786700984223 0.010475564401487843 -0.016063883033243572 -0.0082461465790470423 0.038460567163224796 -0.026727436002758731 -0.015170574841566748 0.032092828847078377 0.013207443328382324 0.018850211148092426 0.17742801913370032 -0.00099969208121165258 -0.015487136163767304 0.0037856571307317332 0.16644024355264764 -0.025535660561701153 0.010330377828385305 0.028759380864044753 0.0067068923198611817
leaf_weight=626.45253446698189 131.33444472402334 751.16812004894018 2119.1869976483285 654.36353410407901 51.287030298262835 263.27181121706963 716.61322172358632 25.124426197260618 913.41088166460395 456.86474831774831 1090.5220656357706 132.46847078949213 927.98717226833105 516.96127966791391 391.9883148483932 1215.1339254491031 18.497158039361242 563.84628487750888 204.63995125889778 1105.8083451241255 989.63151913881302 15.173791397362949 6.7242360040545455 314.83952934667468 581.06024732813239 597.10484395176172 5.3879951275885096 528.50840613618493 311.37598958238959 417.90575969964266 1171.5520102530718
leaf_count=5055 1295 7469 31692 13979 507 2839 11657 330 8021 5688 13543 1595 20569 6100 5481 17159 242 12869 2556 7970 8166 260 63 4573 11572 11208 62 10426 4198 4483 14382
internal_value=0 0.00469194 0.000293124 -0.0126776 0.00886877 -0.00510231 0.00212894 -0.0113925 0.0157977 0.0176775 0.00852935 0.00219611 -0.0179954 0.0233359 0.000517438 -0.00194828 0.0086103 -0.0141216 -0.00087315 0.0196046 0.0231737 -0.010286 0.0755105 0.00364708 -0.0110468 -0.00567137 0.0575246 -0.0141514 -0.00445693 0.0199001 0.00345371
internal_weight=0 12813.4 9178.12 5002.77 3544.46 5633.66 2620.78 3012.88 3635.3 1724.99 1904.17 1222.99 3344.92 1268.13 1819.47 1657.84 365.185 2416.94 1768.18 2721.89 2095.44 1853.09 25.2214 339.964 1832.53 1178.17 20.5618 2647.7 1526.51 681.178 1376.19
internal_count=246009 152838 123626 93171 42183 81443 34117 47326 29212 19257 22460 15138 70519 13569 22926 22652 5208 49950 22419 21191 16136 37081 305 4903 36759 22780 322 42118 21357 7322 16938
cat_boundaries=0 1 2 3 5 7
cat_threshold=2 1 24 18106552 6292488 3439344132 52710020
is_linear=0
shrinkage=0.05


Tree=25
num_leaves=32
num_cat=6
split_feature=41 40 39 38 40 19 39 26 39 38 128 0 8 7 40 11 6 8 129 151 6 151 16 15 128 95 18 41 137 93 38
split_gain=398.825 241.617 135.945 112.467 96.518 86.0882 78.3325 69.6434 59.6644 56.8397 56.7929 55.5687 65.2104 100.541 54.6097 45.1248 41.4504 56.0192 39.4167 58.2914 38.5172 38.1327 38.0203 35.5815 34.215 32.7082 32.5963 31.2889 31.0807 30.9803 30.2542
threshold=0.57006835937500011 0.37683105468750006 0.63745117187500011 0 0.25793457031250006 12.500000000000002 0.15960693359375003 1 0.61010742187500011 2 14.589843750000002 3 675191.25000000012 26133.750000000004 0.044906616210937507 4 340267.50000000006 451660.50000000006 11.644531250000002 1.5000000000000002 728586.00000000012 3.5000000000000004 -889.49999999999989 -14457.499999999998 20.570312500000004 1.0000000180025095e-35 -4211.4999999999991 0.12411499023437501 0.26989746093750006 -1193.4999999999998 5
decision_type=10 8 10 9 10 8 8 9 10 9 10 1 10 10 10 9 2 10 10 8 2 10 2 2 10 2 2 8 10 10 9
left_child=1 7 3 6 30 27 -3 14 9 -6 15 12 13 24 -1 -8 -15 -18 19 -16 -19 25 28 -17 29 -9 -27 -5 -11 -7 -2
right_child=4 2 -4 5 8 11 10 21 -10 22 -12 -13 -14 16 18 23 17 20 -20 -21 -22 -23 -24 -25 -26 26 -28 -29 -30 -31 -32
leaf_value=0.02873035133622185 -0.010792368099564228 0.039065648097646649 -0.019469719934057498 0.02455108309759884 -0.020936726851274248 -0.0050743841790491673 -0.022061008848957238 0.0094724505021238341 -0.031068592101150119 -0.014706254512948934 0.0069867399189458782 -0.008742486519195054 -0.00099476649380940332 -0.0047397406468472512 0.013399119624098911 -0.011766171687563949 0.046907862760908775 0.0085037787763224786 0.02163311354295239 -0.0029968557894523972 0.039404991057820596 0.0061990716258146436 0.0050461007352767635 0.0025034328006698185 0.038117151037102844 0.010356072307751239 0.031156063772966348 -0.0081162412262955012 0.011384778796334514 0.011398573367958097 0.010855156531763641
leaf_weight=286.3585434705019 233.81585620343685 93.588070794939995 889.71576958149672 78.947604268789291 1446.4015512503684 414.55741078406572 631.9227547980845 319.63207889348269 589.32857755571604 1075.0534035786986 563.53939481452107 342.79642807692289 688.71410881355405 79.428728170692921 886.20366638153791 1210.5462522916496 385.35189796611667 258.35132762417197 339.3629759773612 1396.0458609163761 165.40551981329918 383.78042587265372 453.99207028746605 683.52832394838333 90.025191582739353 230.23296258971095 1035.5918180346489 1024.633942194283 127.70106013864279 916.24650494754314 472.47838206589222
leaf_count=1888 3660 911 16287 614 31291 5405 10217 2464 13978 21527 7836 4470 9501 972 7465 18532 4159 3214 3002 13475 2038 3101 8485 8806 1047 1704 7297 14090 2347 10780 5446
internal_value=0 0.00410755 -0.000974105 0.00118331 -0.0132449 0.00631416 -0.00598173 0.0129819 -0.0164841 -0.0137143 -0.00736566 0.0103279 0.0125083 0.0165353 0.00797104 -0.0105676 0.0297279 0.0331115 0.00573391 0.00336975 0.0205655 0.0202381 -0.00723882 -0.00658185 0.00828515 0.0237641 0.0273729 -0.0057793 -0.0119361 0.0062671 0.00368972
