tree
version=v3
num_class=1
num_tree_per_iteration=1
label_index=0
max_feature_idx=119
objective=binary sigmoid:1
feature_names=NAME_CONTRACT_TYPE CODE_GENDER FLAG_OWN_CAR FLAG_OWN_REALTY CNT_CHILDREN AMT_INCOME_TOTAL AMT_CREDIT AMT_ANNUITY AMT_GOODS_PRICE NAME_TYPE_SUITE NAME_INCOME_TYPE NAME_EDUCATION_TYPE NAME_FAMILY_STATUS NAME_HOUSING_TYPE REGION_POPULATION_RELATIVE DAYS_BIRTH DAYS_EMPLOYED DAYS_REGISTRATION DAYS_ID_PUBLISH OWN_CAR_AGE FLAG_MOBIL FLAG_EMP_PHONE FLAG_WORK_PHONE FLAG_CONT_MOBILE FLAG_PHONE FLAG_EMAIL OCCUPATION_TYPE CNT_FAM_MEMBERS REGION_RATING_CLIENT REGION_RATING_CLIENT_W_CITY WEEKDAY_APPR_PROCESS_START HOUR_APPR_PROCESS_START REG_REGION_NOT_LIVE_REGION REG_REGION_NOT_WORK_REGION LIVE_REGION_NOT_WORK_REGION REG_CITY_NOT_LIVE_CITY REG_CITY_NOT_WORK_CITY LIVE_CITY_NOT_WORK_CITY ORGANIZATION_TYPE EXT_SOURCE_1 EXT_SOURCE_2 EXT_SOURCE_3 APARTMENTS_AVG BASEMENTAREA_AVG YEARS_BEGINEXPLUATATION_AVG YEARS_BUILD_AVG COMMONAREA_AVG ELEVATORS_AVG ENTRANCES_AVG FLOORSMAX_AVG FLOORSMIN_AVG LANDAREA_AVG LIVINGAPARTMENTS_AVG LIVINGAREA_AVG NONLIVINGAPARTMENTS_AVG NONLIVINGAREA_AVG APARTMENTS_MODE BASEMENTAREA_MODE YEARS_BEGINEXPLUATATION_MODE YEARS_BUILD_MODE COMMONAREA_MODE ELEVATORS_MODE ENTRANCES_MODE FLOORSMAX_MODE FLOORSMIN_MODE LANDAREA_MODE LIVINGAPARTMENTS_MODE LIVINGAREA_MODE NONLIVINGAPARTMENTS_MODE NONLIVINGAREA_MODE APARTMENTS_MEDI BASEMENTAREA_MEDI YEARS_BEGINEXPLUATATION_MEDI YEARS_BUILD_MEDI COMMONAREA_MEDI ELEVATORS_MEDI ENTRANCES_MEDI FLOORSMAX_MEDI FLOORSMIN_MEDI LANDAREA_MEDI LIVINGAPARTMENTS_MEDI LIVINGAREA_MEDI NONLIVINGAPARTMENTS_MEDI NONLIVINGAREA_MEDI FONDKAPREMONT_MODE HOUSETYPE_MODE TOTALAREA_MODE WALLSMATERIAL_MODE EMERGENCYSTATE_MODE OBS_30_CNT_SOCIAL_CIRCLE DEF_30_CNT_SOCIAL_CIRCLE OBS_60_CNT_SOCIAL_CIRCLE DEF_60_CNT_SOCIAL_CIRCLE DAYS_LAST_PHONE_CHANGE FLAG_DOCUMENT_2 FLAG_DOCUMENT_3 FLAG_DOCUMENT_4 FLAG_DOCUMENT_5 FLAG_DOCUMENT_6 FLAG_DOCUMENT_7 FLAG_DOCUMENT_8 FLAG_DOCUMENT_9 FLAG_DOCUMENT_10 FLAG_DOCUMENT_11 FLAG_DOCUMENT_12 FLAG_DOCUMENT_13 FLAG_DOCUMENT_14 FLAG_DOCUMENT_15 FLAG_DOCUMENT_16 FLAG_DOCUMENT_17 FLAG_DOCUMENT_18 FLAG_DOCUMENT_19 FLAG_DOCUMENT_20 FLAG_DOCUMENT_21 AMT_REQ_CREDIT_BUREAU_HOUR AMT_REQ_CREDIT_BUREAU_DAY AMT_REQ_CREDIT_BUREAU_WEEK AMT_REQ_CREDIT_BUREAU_MON AMT_REQ_CREDIT_BUREAU_QRT AMT_REQ_CREDIT_BUREAU_YEAR
feature_infos=-1:0:1 -1:0:1 -1:0:1 -1:1:0 [0:19] [25650:117000000] [45000:4050000] [1615.5:258025.5] [45000:4050000] -1:6:1:5:0:4:7:3 -1:7:1:3:4:6:5:0 -1:4:1:2:3 -1:1:3:0:2:5 -1:1:5:2:4:3 [0.0002899169921875:0.072509765625] [-25201:-7673] [-17583:365243] [-24672:0] [-7197:0] [0:91] none [0:1] [0:1] [0:1] [0:1] [0:1] -1:18:8:14:3:10:4:6:0:11:16:2:1:12:9:17:15:13:7 [1:20] [1:3] [1:3] -1:5:6:1:4:0:2:3 [0:23] [0:1] [0:1] [0:1] [0:1] [0:1] [0:1] -1:5:57:42:33:30:4:11:39:51:28:7:3:55:47:26:20:40:13:16:31:1:2:34:35:53:41:46:38:43:56:24:54:14:12:9:21:50:44:22:27:10:19:0:8:36:17:45:32:29:6:52:23:15:37:48:18:49 [0.01505279541015625:0.962890625] [5.9604644775390625e-08:0.85498046875] [0.00052738189697265625:0.89404296875] [0:1] [0:1] [0:1] [0:1] [0:1] [0:1] [0:1] [0:1] [0:1] [0:1] [0:1] [0:1] [0:1] [0:1] [0:1] [0:1] [0:1] [0:1] [0:1] [0:1] [0:1] [0:1] [0:1] [0:1] [0:1] [0:1] [0:1] [0:1] [0:1] [0:1] [0:1] [0:1] [0:1] [0:1] [0:1] [0:1] [0:1] [0:1] [0:1] [0:1] [0:1] [0:1] -1:0:3:4:1:2 -1:1:0:2 [0:1] -1:7:4:5:0:6:1:2 -1:0:2 [0:348] [0:34] [0:344] [0:24] [-4292:0] none [0:1] [0:1] [0:1] [0:1] [0:1] [0:1] [0:1] none [0:1] none [0:1] [0:1] [0:1] [0:1] [0:1] [0:1] [0:1] [0:1] [0:1] [0:3] [0:9] [0:8] [0:27] [0:8] [0:25]
tree_sizes=3527 3632 3636 3623 3651 3641 3597 3644 3598 3669 3662 3647 3615 3647 3653 3637 3601 3611 3634 3605 3648 3671 3651 3663 3655 3660 3681 3653 3651 3644 3633 3673 3674 3676 3650 3626 3672 3675 3673 3640 3659 3672 3642 3640 3671 3642 3679 3663 3683 3626 3644 3644 3644 3674 3686 3660 3670 3638 3658 3691 3635 3631 3665 3611 3665 3665 3689 3706 3675 3674 3670 3663 3675 3649 3696 3665 3677 3613 3633 3644 3675 3721 3662 3660 3649 3647 3667 3642 3610 3649 3656 3668 3659 3642 3615 3662 3656 3680 3636 3659 3682 3630 3630 3669 3666 3641 3659 3694 3621 3658 3639 3653 3624 3651 3633 3623 3607 3632 3635 3686 3621 3626 3642 3626 3666 3628 3600 3558 3593 3648 3653 3657 3632 3652 3633 3692 3686 3573 3564 3622 3649 3591 3590 3636 3633 3613 3668 3584 3647 3644 3656 3618 3560 3554 3581 3563 3583 3576 3553 3605 3608 3665 3557 3623 3587 3586 3542 3552 3574 3591 3593 3587 3549 3596 3563 3589 3582 3566 3652 3515 3551 3616 3610

Tree=0
num_leaves=32
num_cat=6
split_feature=41 40 40 41 41 40 40 41 40 41 26 39 39 40 15 26 1 40 39 40 39 39 39 41 39 26 7 8 38 38 16
split_gain=4352.83 2578.8 1699.57 826.323 655.034 469.252 401.101 384.16 327.594 242.34 198.168 179.398 176.27 169.723 163.453 163.322 161.211 152.725 124.626 108.43 94.6467 90.1523 88.4658 86.9772 78.2497 76.5861 74.4715 84.2745 72.8944 69.4943 68.6564
threshold=0.31311035156250006 0.33361816406250006 0.35534667968750006 0.50561523437500011 0.50195312500000011 0.15496826171875003 0.61254882812500011 0.13983154296875003 0.068084716796875014 0.16101074218750003 0 0.38488769531250006 0.18341064453125003 0.63256835937500011 -18190.499999999996 1 2 0.61450195312500011 0.33850097656250006 0.57836914062500011 0.40124511718750006 0.23480224609375003 0.46789550781250006 0.18145751953125003 0.44323730468750006 3 16809.750000000004 451660.50000000006 4 5 -2467.4999999999995
decision_type=8 8 8 10 10 10 10 10 10 10 9 10 8 8 2 9 9 8 10 10 10 8 10 10 10 9 10 10 9 9 2
left_child=2 3 8 5 6 11 10 13 23 -10 18 14 -9 -4 -2 20 -5 24 -3 25 30 -8 26 -1 28 -6 -11 -28 -14 -17 -7
right_child=1 4 7 16 19 15 21 12 9 22 -12 -13 17 -15 -16 29 -18 -19 -20 -21 -22 -23 -24 -25 -26 -27 27 -29 -30 -31 -32
leaf_value=-2.1731058975547737 -2.3742855954109254 -2.4043957559912408 -2.3310141634144479 -2.4408566743593458 -2.443429548424028 -2.3968114091466979 -2.409471774761637 -2.3336613354888538 -2.2724778716450396 -2.3678918616143871 -2.4388392021670198 -2.401710796858183 -2.3732039582526925 -2.3969566235515507 -2.3034832937113854 -2.4284601017867273 -2.4038408288439723 -2.4306859317525995 -2.4387723817054581 -2.4677887661201416 -2.4316520060334481 -2.4558398179598107 -2.3961500133591676 -2.2645571528554913 -2.4243645408705259 -2.4614805974532219 -2.2863314153738963 -2.3464411704194932 -2.4109434913824432 -2.3963901047293619 -2.3407051020329108
leaf_weight=46.530685611069202 111.02058321237564 1003.860580958426 271.3918935880065 914.80663720518351 985.30767600983381 71.614213101565838 109.16529271751642 74.731101132929325 183.3027008920908 99.591993764042854 1778.0361986532807 85.714420862495899 330.83540104329586 152.35645543783903 306.71662461012602 288.60898938030005 433.5442828387022 638.88783480972052 357.55158416926861 4204.0882613509893 45.269088074564934 2638.7425650283694 63.376723304390907 58.924026116728783 208.75728648155928 1619.8912368714809 117.18014765530825 116.06697335839272 270.4271425306797 441.93019587546587 228.49757734686136
leaf_count=627 1496 13527 3657 12327 13277 965 1471 1007 2470 1342 23959 1155 4458 2053 4133 3889 5842 8609 4818 56650 610 35557 854 794 2813 21828 1579 1564 3644 5955 3079
internal_value=-2.43249 -2.44251 -2.37301 -2.40021 -2.45226 -2.37566 -2.44005 -2.39683 -2.30526 -2.32001 -2.42784 -2.33582 -2.40855 -2.35472 -2.3223 -2.39431 -2.42895 -2.41241 -2.41356 -2.46282 -2.36618 -2.454 -2.34201 -2.22421 -2.39799 -2.45481 -2.3317 -2.31624 -2.38883 -2.40883 -2.35409
internal_weight=0 15624.4 2632.36 2927.72 12696.6 1579.37 5887.36 1947.39 684.973 579.519 3139.45 503.452 1523.64 423.748 417.737 1075.92 1348.35 1448.91 1361.41 6809.29 345.381 2747.91 396.216 105.455 810.02 2605.2 332.839 233.247 601.263 730.539 300.112
internal_count=246009 210538 35471 39451 171087 21282 79332 26241 9230 7809 42304 6784 20531 5710 5629 14498 18169 19524 18345 91755 4654 37028 5339 1421 10915 35105 4485 3143 8102 9844 4044
cat_boundaries=0 1 2 3 4 6 8
cat_threshold=221970 66324 1 222096 269492400 6849856 2902462720 54549255
is_linear=0
shrinkage=1


Tree=1
num_leaves=32
num_cat=6
split_feature=40 41 41 41 41 40 40 40 40 40 39 38 26 41 39 39 38 38 39 15 39 39 39 41 6 26 39 39 39 26 40
split_gain=3857.35 1985.09 1671.17 813.07 563.124 432.301 256.179 243.061 222.266 191.953 186.335 172.782 152.687 147.541 142.454 128.64 119.805 108.101 107.799 99.0543 82.2102 79.8578 72.9035 71.9933 71.8881 68.9455 68.4451 65.7034 64.805 64.2388 59.0216
threshold=0.41394042968750006 0.43383789062500006 0.26574707031250006 0.24517822265625003 0.50195312500000011 0.15496826171875003 0.61450195312500011 0.14727783203125003 0.13800048828125003 0.63110351562500011 0.38757324218750006 0 1 0.13983154296875003 0.50317382812500011 0.38195800781250006 2 3 0.24151611328125003 -18253.499999999996 0.21990966796875003 0.30163574218750006 0.31433105468750006 0.14691162109375003 225085.50000000003 4 0.44323730468750006 0.57299804687500011 0.17413330078125003 5 0.63989257812500011
decision_type=8 10 8 8 10 10 10 10 10 10 10 9 9 10 10 10 9 9 8 2 10 8 10 10 2 9 10 10 8 9 10
left_child=1 3 9 8 6 15 14 17 20 13 11 -7 -9 -2 16 19 -4 -3 -8 -5 24 -6 -19 -10 -1 -20 -15 -11 -18 -13 -23
right_child=2 7 4 5 21 10 18 12 23 27 -12 29 -14 26 -16 -17 28 22 25 -21 -22 30 -24 -25 -26 -27 -28 -29 -30 -31 -32
leaf_value=0.10724306931897974 0.085641076318983003 0.0035715977514659547 -0.0098680825572002827 0.059427620201138537 -0.0080850507229380548 0.013366217388622452 0.024611929555365081 0.013465755590741117 0.12189158290289528 0.024036893220523874 0.0048682245131898977 0.073726383816459864 -0.015291342571637457 0.049510375367612679 -0.020820569677224933 0.034397179908653312 0.057311127459406697 0.074017611883722356 -0.01094296105379855 0.11442958267485728 0.11210311949914342 -0.02766366826360632 0.012176960788841385 0.081496925047405633 0.20866221720301051 -0.027715472031511743 0.0087188883532458138 -0.019807316222181449 0.012409471262185339 0.042983215727826832 -0.037853350359404528
leaf_weight=21.534649223089218 251.95680094510317 163.07846020162106 713.08339329063892 108.20921295881271 358.35796318948269 319.39715919643641 131.46347545832396 738.76242044568062 188.45032326877117 426.76677834242582 333.72325115650892 425.26197243481874 1196.5527999922633 419.79009307920933 572.3228290900588 86.524801410734653 84.956290259957314 195.21755961328745 1009.3292012810707 336.13051196187735 48.994237080216408 3046.0550739616156 63.051158159971237 265.98831114172935 92.629009090363979 1754.0376479998231 136.20032459497452 106.83997186273336 1484.3327312767506 523.15452221781015 2663.9809012785554
leaf_count=250 3121 2170 9610 1378 4946 4245 1737 9871 2253 5678 4439 5425 16212 5455 7746 1124 1120 2556 13848 4069 571 42008 843 3342 1073 24064 1824 1427 19765 6860 36979
internal_value=0 0.0368442 -0.0143535 0.0657027 -0.0203569 0.0510713 -0.00914386 0.00316902 0.116221 0.0385309 0.0381099 0.04686 -0.00432341 0.0539012 0.00148429 0.0901739 0.00707741 0.037583 -0.0196247 0.101035 0.166281 -0.0309807 0.0567241 0.0982481 0.189532 -0.0217292 0.0395177 0.0152583 0.0147463 0.0573936 -0.0324176
internal_weight=0 5106.66 13159.5 2750 11817.9 2132.4 5749.53 2356.66 617.597 1341.55 1601.54 1267.81 1935.32 807.947 2854.7 530.865 2282.37 421.347 2894.83 444.34 163.158 6068.39 258.269 454.439 114.164 2763.37 555.99 533.607 1569.29 948.416 5710.04
internal_count=246009 66681 179328 35029 161823 27540 77890 31652 7489 17505 20969 16530 26083 10400 38241 6571 30495 5569 39649 5447 1894 83933 3399 5595 1323 37912 7279 7105 20885 12285 78987
cat_boundaries=0 2 3 5 7 8 9
cat_threshold=2370438661 33845789 82704 3510867271 51399301 2506112518 50340612 123794 66324
is_linear=0
shrinkage=0.05


Tree=2
num_leaves=32
num_cat=6
split_feature=40 41 41 41 41 40 40 26 26 40 40 39 40 41 39 38 39 39 40 39 15 38 39 26 39 40 39 16 38 39 15
split_gain=3411.53 1644.67 1502.56 646.003 535.296 386.592 236.777 180.68 176.831 160.624 147.341 129.92 128.461 123.24 117.653 107.735 98.7225 96.3238 78.3533 76.687 74.3249 73.9259 70.6582 65.6208 61.4814 58.0146 57.9109 56.3239 55.8123 55.4174 54.2972
threshold=0.41394042968750006 0.46960449218750006 0.26574707031250006 0.24517822265625003 0.50195312500000011 0.15985107421875003 0.61450195312500011 0 1 0.65893554687500011 0.19158935546875003 0.50317382812500011 0.056869506835937507 0.12411499023437501 0.38757324218750006 2 0.24151611328125003 0.41540527343750006 0.13800048828125003 0.30163574218750006 -19688.499999999996 3 0.11868286132812501 4 0.41540527343750006 0.62817382812500011 0.65209960937500011 -2001.4999999999998 5 0.43762207031250006 -17162.499999999996
decision_type=8 10 8 8 10 10 10 9 9 10 10 10 10 10 10 9 8 10 10 8 2 9 8 9 10 10 10 2 9 10 2
left_child=1 3 9 10 6 14 11 17 12 13 -1 15 -3 -2 20 27 -8 -7 -10 -6 -5 24 -15 -18 -9 -21 28 -4 -24 30 -12
right_child=2 8 4 5 19 7 16 21 18 -11 29 -13 -14 22 -16 -17 23 -19 -20 25 -22 -23 26 -25 -26 -27 -28 -29 -30 -31 -32
leaf_value=0.129323167599767 0.076985773739436325 0.093637758083549294 0.00055391969261108886 0.048482562151592329 -0.0077347289662478757 0.063355807742515577 0.022894357549062209 0.041542984151647831 0.016391083903004106 0.0088057952341078615 0.055473665403607292 -0.020138080410475635 0.01312850604564164 0.13603793822615898 0.028588440411760202 -0.0075540162158576453 -0.010499076731280955 0.0032871368539100759 -0.016763947903787987 -0.026471522149984147 0.095743923497266459 0.0069761945383653157 0.0464292789357501 -0.02697340083505434 0.0045975188825952929 -0.03669203032810936 -0.009519248253089245 0.021673508158808683 0.010024160072982492 0.042021642151771205 0.10156501336552577
leaf_weight=264.89730597287416 245.48009442538023 52.892018333077431 463.04488091170788 102.00783700495958 355.92295219749212 536.12967225909233 134.18677469342947 488.25741696357727 212.82675638049841 402.66999344527721 85.217087492346764 562.39047583937645 783.47136886417866 17.266106799244881 102.02975288033485 841.02642800658941 1000.0666233301163 76.227671600878239 1095.1290072649717 2726.9385429918766 450.90458825230598 540.41037583351135 489.90970450639725 1713.4984956607223 146.36100669950247 2828.7559897452593 70.017961077392101 992.02752137184143 159.89244870096445 72.979553528130054 255.39481911063194
leaf_count=2778 2880 666 6097 1248 4946 6506 1737 6204 2785 5298 969 7746 10317 206 1296 11377 13848 1019 15043 38473 5054 7122 6159 24064 1932 40514 925 13021 2037 851 2891
internal_value=0 0.0338845 -0.0138206 0.0570486 -0.0196895 0.0450585 -0.00876552 0.0330168 0.000171744 0.035402 0.100209 0.00140042 0.0180047 0.0463015 0.0779211 0.00667591 -0.0189698 0.0549805 -0.0112828 -0.030234 0.0870246 0.0209247 0.0360824 -0.02104 0.03251 -0.0316754 0.0336847 0.0148506 0.0383401 0.0815617 0.0900335
internal_weight=0 5265.14 13003.1 3120.82 11617.9 2442.33 5706.24 1787.39 2144.32 1385.24 678.489 2858.49 836.363 982.566 654.942 2296.1 2847.75 612.357 1307.96 5911.62 552.912 1175.03 737.086 2713.57 634.618 5555.69 719.82 1455.07 649.802 413.591 340.612
internal_count=246009 66681 179328 37870 161823 30381 77890 22783 28811 17505 7489 38241 10983 12207 7598 30495 39649 7525 17828 83933 6302 15258 9327 37912 8136 78987 9121 19118 8196 4711 3860
cat_boundaries=0 1 2 4 6 7 9
cat_threshold=197396 82704 615539376 13415770 271678714 9208856 123794 3507562682 6849867
is_linear=0
shrinkage=0.05


Tree=3
num_leaves=32
num_cat=6
split_feature=40 41 41 41 41 40 40 41 1 39 38 26 40 39 39 40 40 40 39 39 39 11 40 39 40 40 41 26 39 38 15
split_gain=3024.25 1374.35 1368.05 493.88 419.723 306.316 205.483 199.54 166.677 155.282 142.174 114.053 111.986 108.789 90.5159 81.9053 79.9551 76.4909 73.5524 68.3308 67.6561 66.0892 64.0524 62.9562 62.5928 57.1721 56.9604 55.2479 53.2073 67.8867 53.0244
threshold=0.41394042968750006 0.46960449218750006 0.31787109375000006 0.24517822265625003 0.50195312500000011 0.15985107421875003 0.61791992187500011 0.13983154296875003 0 0.41540527343750006 1 2 0.088287353515625014 0.23114013671875003 0.38757324218750006 0.66040039062500011 0.12933349609375003 0.14727783203125003 0.30163574218750006 0.24151611328125003 0.45983886718750006 3 0.010036468505859377 0.48156738281250006 0.62963867187500011 0.63989257812500011 0.14691162109375003 4 0.44323730468750006 5 -19688.499999999996
decision_type=8 10 8 8 10 10 10 10 9 10 9 9 10 8 10 8 10 10 8 8 10 9 10 10 8 10 10 9 10 9 2
left_child=1 3 7 12 6 14 11 24 16 10 -7 -4 -1 -9 22 28 -3 -10 -6 -8 -13 -12 -5 26 -2 -20 -14 -21 29 -15 -24
right_child=2 8 4 5 18 9 19 13 17 -11 21 20 23 15 -16 -17 -18 -19 25 27 -22 -23 30 -25 -26 -27 -28 -29 -30 -31 -32
leaf_value=0.12810812577893341 0.068668080517479496 0.018102823465511987 -0.0096730826040335345 0.13668060235662843 -0.0073974123307075914 0.008710306540065469 0.017224228202874343 0.061384340763189806 0.052971303642114304 -0.00010359485351038982 0.014189155672056954 0.01653607998338074 0.10404254054696321 0.040801262371782408 0.026509173468528432 -0.005973095251810643 -0.014768476440635406 0.011772277335528224 -0.026167377406087718 -0.011525650713562428 -0.014970443144294247 0.051161377382744934 0.039573867152874927 0.038015881397023568 0.029982374250849455 -0.036478392940272664 0.07035066661000515 -0.027786188430916344 0.001082588358508665 0.0087886858738342299 0.07977833830361851
leaf_weight=139.4243820309639 283.10013251006603 218.43806257098913 1419.6696474328637 41.771236844360828 353.60583519935608 355.71630140393972 116.79433809220791 123.59820163995028 139.92904952168465 338.31627960503101 169.28261881321669 1008.6844618394971 220.64519350975752 400.14427597820759 104.46542894095182 421.31550674885511 1208.1852171123028 578.14725607633591 2907.5182620733976 876.88010319322348 205.02434198558331 973.34888699650764 100.25899766385555 83.313230343163013 165.79319805651903 2500.611239567399 290.75857304036617 1498.5017135590315 260.25107675045729 310.68947285413742 450.55904832482338
leaf_count=1260 3096 2797 19374 436 4946 4637 1488 1473 1715 4476 2063 13092 2199 4941 1296 5682 16618 7681 42008 12281 2850 11607 1180 925 2091 36979 3105 21554 3479 3994 4686
internal_value=0 0.0312541 -0.0133009 0.0516653 -0.020231 0.0412022 -0.00982228 0.0250985 0.000153693 0.0304921 0.0374004 -8.31369e-05 0.0877762 0.0164281 0.0694222 0.0124375 -0.00973537 0.0198006 -0.0294905 -0.0201132 0.0111222 0.0458545 0.0769872 0.0783209 0.05438 -0.030935 0.084887 -0.0219491 0.0204252 0.0275069 0.0724604
internal_weight=0 5412.56 12852.2 3267.86 10887.3 2533.72 5125.55 1964.89 2144.7 1836.66 1498.35 2633.38 734.141 1516 697.055 1392.4 1426.62 718.076 5761.74 2492.18 1213.71 1142.63 592.589 594.717 448.893 5408.13 511.404 2375.38 971.085 710.834 550.818
internal_count=246009 66681 179328 37870 154572 30381 70639 24756 28811 22783 18307 35316 7489 19569 7598 18096 19415 9396 83933 35323 15942 13670 6302 6229 5187 78987 5304 33835 12414 8935 5866
cat_boundaries=0 1 3 4 5 6 8
cat_threshold=1 2370700037 34632221 302153 2 127888 286269618 6849609
is_linear=0
shrinkage=0.05


Tree=4
num_leaves=32
num_cat=5
split_feature=40 41 41 41 41 40 26 39 41 40 40 40 26 39 38 40 8 39 7 39 39 39 39 38 40 38 39 95 41 6 39
split_gain=2688.73 1215.68 1193.79 379.983 371.887 221.099 209.271 177.928 153.441 149.085 113.151 112.554 109.66 99.8819 94.2556 77.5881 72.4695 70.1546 68.039 64.6815 64.5313 64.4838 61.7674 60.3036 59.746 58.9455 56.656 54.6247 51.8079 51.5115 50.0063
threshold=0.42932128906250006 0.42321777343750006 0.31787109375000006 0.50195312500000011 0.28149414062500006 0.15985107421875003 0 0.50903320312500011 0.21826171875000003 0.65747070312500011 0.18365478515625003 0.20916748046875003 1 0.16009521484375003 2 0.25354003906250006 675490.50000000012 0.57543945312500011 15990.750000000002 0.51196289062500011 0.38195800781250006 0.44860839843750006 0.21990966796875003 3 0.59741210937500011 4 0.21624755859375003 1.0000000180025095e-35 0.13983154296875003 254556.00000000003 0.33850097656250006
decision_type=8 10 8 10 8 10 9 10 10 10 10 10 9 8 9 10 8 10 10 10 10 10 10 9 10 9 8 2 10 2 10
left_child=1 4 8 7 11 20 10 9 13 14 -3 22 30 -2 -4 25 18 23 -15 -20 -6 -10 27 -5 -25 -8 -14 -1 -13 -28 -7
right_child=2 6 3 17 5 12 15 -9 21 -11 -12 28 26 16 -16 -17 -18 -19 19 -21 -22 -23 -24 24 -26 -27 29 -29 -30 -31 -32
leaf_value=0.068262814016136542 0.1098482147923988 0.045242694400627288 -0.0095569932568360574 -0.03216370640455106 0.069290350246921262 0.053223280061488902 -0.0079102695146254908 -0.027753042808918316 0.016252196092300879 -0.018861722660794583 0.0091707744922694973 0.08115652294290937 0.063260596264642019 0.015896823937058362 0.0098259055822081769 -0.019435806944089508 0.0075552006710141563 -0.039901461038979319 0.058794886712898189 0.014564055977380428 0.022492073861380676 -0.013008624548432331 0.063572309611675745 -0.0098478797230099786 -0.026724184358689708 0.023617818393163764 -0.0046780892758373684 0.11820014336914644 0.049401000848594917 0.021340559567277997 0.010987172211417593
leaf_weight=72.850278541445732 44.363967314362526 298.93006702512503 1043.0930834189057 2151.1622952446342 519.89318197965622 451.85514385998249 399.20890502631664 1092.7308999076486 708.31319867819548 1279.4222708418965 797.11214920133352 187.75945658236742 64.66182179749012 200.98823494464159 1542.1926631554961 877.4962497279048 214.65814408659935 1167.7215487211943 421.2014876306057 102.83512116968632 85.82342753559351 256.45835980772972 122.85149578005075 874.31143353879452 1310.5394907221198 223.10865683853626 251.30716732144356 220.55116840451956 406.53391195833683 782.68869791924953 82.944787070155144
leaf_count=664 477 3588 14404 32186 5195 5038 5347 15728 8981 18403 10445 1789 779 2363 20423 12311 2584 17556 4921 1270 1041 3494 1172 12761 19752 2894 3150 1974 4433 9825 1061
internal_value=0 0.0278422 -0.0132862 -0.0199795 0.0482212 0.0368584 0.00232997 -0.00993889 0.0226434 -0.004902 0.018837 0.0733991 0.0272909 0.0365352 0.00200647 -0.00979345 0.033074 -0.0290236 0.0406293 0.0501152 0.0626595 0.008474 0.0933377 -0.0260941 -0.0198798 0.00364535 0.0176952 0.105801 0.0594338 0.0150169 0.045816
internal_weight=0 5845.58 12410 10461.2 3249.72 2239.17 2595.86 4957.44 1948.82 3864.71 1096.04 1010.55 1633.46 984.047 2585.29 1499.81 939.683 5503.73 725.025 524.037 605.717 964.772 416.253 4336.01 2184.85 622.318 1098.66 293.401 594.293 1034 534.8
internal_count=246009 70706 175303 151213 36121 26089 34585 68958 24090 53230 14033 10032 19853 11615 34827 20552 11138 82255 8554 6191 6236 12475 3810 64699 32513 8241 13754 2638 6222 12975 6099
cat_boundaries=0 1 2 4 6 8
cat_threshold=82708 197392 3707973405 53758596 3556784132 36227726 3697285380 52695944
is_linear=0
shrinkage=0.05


Tree=5
num_leaves=32
num_cat=7
split_feature=40 41 41 41 41 40 26 38 41 40 39 38 95 40 39 38 39 39 19 40 39 38 1 8 41 7 16 16 39 11 40
split_gain=2408.21 1148.22 971.053 383.001 303.372 229.03 166.231 163.725 146.118 142.397 121.515 121.291 103.806 99.9899 93.7757 91.1996 88.1549 87.4173 81.8908 79.4177 77.595 76.9201 59.2558 55.5434 55.1975 50.4698 51.1784 48.4507 48.0347 47.0593 46.4066
threshold=0.46008300781250006 0.45886230468750006 0.33361816406250006 0.31311035156250006 0.55590820312500011 0.16314697265625003 0 1 0.13983154296875003 0.24798583984375003 0.39587402343750006 2 1.0000000180025095e-35 0.077850341796875014 0.33850097656250006 3 0.42102050781250006 0.51196289062500011 16.500000000000004 0.61254882812500011 0.47595214843750006 4 5 675490.50000000012 0.12411499023437501 12377.250000000002 -1687.4999999999998 -2028.4999999999998 0.39855957031250006 6 0.13800048828125003
decision_type=8 10 8 8 10 10 9 9 10 10 10 9 2 10 10 9 10 10 8 8 10 9 9 8 10 10 2 2 8 9 10
left_child=1 3 8 12 6 15 14 30 -2 16 11 29 -1 -14 18 22 25 21 -4 -8 24 -10 -5 -23 -15 -9 -27 -20 -6 -7 -3
right_child=2 7 4 5 28 10 19 9 17 -11 -12 -13 13 20 -16 -17 -18 -19 27 -21 -22 23 -24 -25 -26 26 -28 -29 -30 -31 -32
leaf_value=0.038377660010607745 0.043301604232229764 0.0081961010334209473 -0.011934442575275568 0.05374204408166882 -0.014947095325967222 0.0078636362568009956 -0.010558299437903831 -0.0026565178868061894 -0.0035955143922396533 -0.0023810243951088725 -0.0047793780408819826 0.0070834333361349637 0.10708911997017041 0.094598303956374197 -0.018235837274684048 0.027619306368795872 -0.011769947856957922 -0.011928404497658822 -0.0016343702545431186 -0.02633641042597655 0.027361043738827737 0.031434458481097542 0.091728448534253507 0.0022569884534046573 0.062248169597846459 0.025945161640093712 0.063319540230120819 0.021413467339760225 -0.032238144882555407 0.041354930770600963 -0.020290989033999979
leaf_weight=349.66298209130764 435.31950978189707 167.61471356451511 466.63277670741081 228.41970988363028 448.80443925410509 140.97203077375889 1393.0008910000324 60.257969506084919 344.3296947106719 954.23545038700104 376.25387739390135 538.15272830426693 153.75951880216599 169.80270373821259 588.48658106476068 261.57569921761751 102.66701737046242 338.69107843190432 349.3665487319231 1865.6860242038965 127.751061193645 687.87826322764158 186.47364889830351 213.80629120767117 590.07039418071508 165.0975296869874 205.74338880926371 656.51921961456537 3823.2116949558258 881.80466528236866 972.05056395381689
leaf_count=3502 4710 2127 6357 2258 6639 1696 19521 744 4436 13124 4996 6829 1231 1486 8443 2712 1329 4658 4816 27924 1439 8418 1782 2696 5979 2043 2501 8819 58920 10063 13811
internal_value=0 0.0239023 -0.0138632 0.0407542 -0.0204987 0.0294736 -0.0125301 -0.00178087 0.0176442 0.00912585 0.0207271 0.0268753 0.0619494 0.069864 -0.00135837 0.0545205 0.0298681 0.010596 0.00537742 -0.0195318 0.0634156 0.0167186 0.0691484 0.024247 0.0694772 0.0397843 0.0466806 0.0134084 -0.0304216 0.0368596 -0.0159612
internal_weight=0 6632.37 11611.7 4004.7 9591.71 2613.65 5319.69 2627.67 2020.02 1488 1937.18 1560.93 1391.05 1041.38 2061.01 676.469 533.766 1584.71 1472.52 3258.69 887.624 1246.01 414.893 901.685 759.873 431.099 370.841 1005.89 4272.02 1022.78 1139.67
internal_count=246009 79652 166357 43973 141439 30336 75880 35679 24918 19741 23584 18588 13637 10135 28435 6752 6617 20208 19992 47445 8904 15550 4040 11114 7465 5288 4544 13635 65559 11759 15938
cat_boundaries=0 1 3 5 7 9 10 11
cat_threshold=221968 4232919877 50600588 269576442 32015680 2226 13141058 2905281868 60043908 1 2
is_linear=0
shrinkage=0.05


Tree=6
num_leaves=32
num_cat=10
split_feature=40 41 41 41 41 40 39 41 26 1 40 41 40 40 8 39 26 38 39 40 0 26 39 11 38 38 40 1 16 39 39
split_gain=2156.74 996.803 889.129 350.906 289.666 228.381 131.691 128.608 127.821 121.803 106.729 102.394 81.9081 80.7376 77.7495 76.1495 73.9119 68.5801 68.2176 67.7696 57.8621 57.6067 57.166 56.3842 56.3443 54.859 51.6771 50.2745 49.9727 46.4523 45.3792
threshold=0.46008300781250006 0.50561523437500011 0.33361816406250006 0.34497070312500006 0.48400878906250006 0.16314697265625003 0.52954101562500011 0.22320556640625003 0 1 0.66625976562500011 0.16101074218750003 0.010036468505859377 0.056869506835937507 675490.50000000012 0.26550292968750006 2 3 0.57543945312500011 0.25817871093750006 4 5 0.44323730468750006 6 7 8 0.24798583984375003 9 -1918.4999999999998 0.39294433593750006 0.67797851562500011
decision_type=8 10 8 8 10 10 10 10 9 9 10 10 10 10 8 8 9 9 10 10 1 9 10 9 9 9 10 9 2 10 10
left_child=1 3 7 11 6 12 10 14 13 23 16 -1 -5 -3 20 -11 -4 27 21 -13 24 -6 -9 -7 29 30 -10 -14 -15 -2 -17
right_child=2 8 4 5 18 9 -8 22 26 15 -12 19 17 28 -16 25 -18 -19 -20 -21 -22 -23 -24 -25 -26 -27 -28 -29 -30 -31 -32
leaf_value=0.07255134388432867 0.064667298896582182 0.070211204765459972 0.010294629954424631 0.11372995439925604 -0.017071083658665991 0.039159784499623804 -0.027621539040772011 0.011320912183584922 -0.0015084096017425582 0.050498757053293132 -0.01878553545257762 0.058967599329474978 0.042668696738098803 -0.0077999300320611507 0.0032003593505461319 0.016201255416107414 -0.0076979418898955355 0.020284567250693598 -0.038594823973567914 0.034751752708554989 -0.00026200955945426796 -0.029552293531743507 -0.015056694376292477 0.0050093024961434529 0.021106069800178845 -0.0090781023192685016 -0.021695193764677906 0.076733186130436032 0.01661902768479305 0.027236258314140019 -0.032781659135556328
leaf_weight=516.66542369127274 304.85263156145811 52.375525988638401 1045.914355956018 46.183013424277306 1662.4735018648207 608.0710883885622 841.87119834125042 763.64074444770813 498.59030187875032 94.479552611708641 1035.5919156223536 531.59837486594915 242.91124653071165 363.74305507540703 222.42446627467871 666.39987263083458 1232.4170109182596 238.76150965690613 1115.5791216641665 632.88665076345205 93.238714605569839 2490.9371957629919 280.98084264993668 168.22996759414673 270.01211313158274 482.92862842231989 870.62785865366459 195.47677239775658 494.14428950101137 113.83764472603798 50.894354075193405
leaf_count=4317 3271 564 13674 422 25541 7001 12628 9623 6677 1093 15353 4932 2360 4795 2628 8050 17389 2497 17776 6919 1061 39078 3936 2051 3067 6288 12788 1778 6433 1332 687
internal_value=0 0.0222682 -0.0133426 0.0359758 -0.0198325 0.0251163 -0.00996241 0.0165088 -0.00464498 0.0166686 -0.00547627 0.054026 0.0493033 0.00983673 0.029284 0.00727917 0.000573312 0.0449093 -0.0276172 0.0458065 0.0367036 -0.0246687 0.0042259 0.0323281 0.0417081 0.00387699 -0.0142403 0.0565677 0.00626542 0.0532191 0.0125508
internal_weight=0 6754.97 11473.8 4475.49 9424.78 2794.34 4155.79 2048.99 2279.48 2071 3313.92 1681.15 723.333 910.263 1004.37 1294.7 2278.33 677.15 5268.99 1164.49 781.941 4153.41 1044.62 776.301 688.702 1200.22 1369.22 438.388 857.887 418.69 717.294
internal_count=246009 79652 166357 48395 141439 32227 59044 24918 31257 25170 46416 16168 7057 11792 11359 16118 31063 6635 82395 11851 8731 64619 13559 9052 7670 15025 19465 4138 11228 4603 8737
cat_boundaries=0 1 2 3 5 6 7 8 10 12 13
cat_threshold=82704 2 226064 10418 13141186 1 254740 16 1343291554 6849546 1345331434 15504860 1
is_linear=0
shrinkage=0.05


Tree=7
num_leaves=32
num_cat=8
split_feature=41 40 40 41 41 1 40 39 11 26 26 40 39 38 38 39 38 40 40 40 16 41 39 38 16 35 95 40 40 39 39
split_gain=1936.87 1119.77 513.709 365.622 244.207 160.272 158.242 134.1 121.645 104.498 99.3622 82.2016 82.0958 74.4644 73.0735 72.291 68.3422 64.5417 63.8743 62.752 61.635 60.7996 57.4409 62.3352 56.2717 55.9648 55.1102 54.1912 53.3737 52.9613 45.5779
threshold=0.43383789062500006 0.46008300781250006 0.40197753906250006 0.26147460937500006 0.23992919921875003 0 0.26232910156250006 0.20880126953125003 1 2 3 0.70581054687500011 0.44592285156250006 4 5 0.35290527343750006 6 0.66479492187500011 0.010036468505859377 0.13800048828125003 -2435.4999999999995 0.61694335937500011 0.60913085937500011 7 -1667.4999999999998 1.0000000180025095e-35 1.0000000180025095e-35 0.68530273437500011 0.18365478515625003 0.54711914062500011 0.31091308593750006
decision_type=10 8 10 8 8 9 10 8 9 9 9 10 10 9 9 10 9 10 8 10 2 10 10 9 2 2 2 10 8 10 8
left_child=1 4 5 12 19 18 9 -5 11 20 17 22 13 27 15 -8 28 29 -2 -1 -6 -20 23 24 -9 -11 -22 -3 -7 -4 -12
right_child=2 3 10 7 6 16 14 8 -10 25 30 -13 -14 -15 -16 -17 -18 -19 21 -21 26 -23 -24 -25 -26 -27 -28 -29 -30 -31 -32
leaf_value=0.078064555681651326 0.1377353906300646 0.046698648496342983 -0.0075757502829236368 0.033904136671064886 0.026710346822463201 0.02814331818138735 0.033526029744510293 -0.0015660319099603652 -0.022110059244764998 0.02496562647121657 -0.0060405943346872803 -0.02219543678865997 0.0017750772222806912 0.0094344809941497437 0.0039251297327166429 0.0011109313094324563 -0.015577367897639544 -0.028655660618261691 0.033133356958471132 0.049420424705121799 0.03448021318992231 0.005274704284041234 -0.020758494926689193 -0.0092085938185194442 0.018626269936563921 0.064374023792301158 0.078743846071294282 0.010972344068425234 -0.0034803733062079632 -0.032590240260517635 -0.030830336395804445
leaf_weight=256.32456423342228 11.587654270231722 562.64796706289053 1476.5205720216036 193.71017312258482 110.21264673769474 190.58537558466196 764.33623277395964 616.79256611317396 1174.0747425183654 801.44456428289413 195.1587102599442 460.73386096209288 335.58550871908665 326.23249454796314 626.95259061455727 221.94525401294231 867.22399764880538 759.46089618653059 399.60100004076958 752.60367674380541 90.499994270503521 384.10064419731498 269.07900939881802 626.47493175417185 783.0862675383687 101.49978909641504 315.35732245445251 130.82303897291422 444.88440733030438 246.9968031719327 3714.628327626735
leaf_count=1838 117 5929 22004 2402 1074 2241 8316 8456 17003 8318 2884 6909 4148 3754 7744 2823 12210 12134 4872 6681 835 4914 4072 8937 10460 993 2894 1554 6029 3912 59552
internal_value=0 0.0154224 -0.0172238 0.000695895 0.0353894 0.00305166 0.0282995 -0.00670843 -0.0087101 0.0404783 -0.0245121 -0.00291119 0.0232262 0.0302858 0.0175869 0.0259683 -0.00655456 -0.0164455 0.0212026 0.0566976 0.0587312 0.0194795 0.000946813 0.00382906 0.00966045 0.0290735 0.0688737 0.0393909 0.00591095 -0.0111606 -0.0295174
internal_weight=0 9520.42 8690.75 5479.24 4041.18 2297.98 3032.25 4123.95 3930.24 1419.01 6392.77 2756.17 1355.29 1019.7 1613.23 986.281 1502.69 2482.98 795.289 1008.93 516.07 783.702 2295.43 2026.35 1399.88 902.944 405.857 693.471 635.47 1723.52 3909.79
internal_count=246009 115140 130869 73624 41516 30383 32997 58239 55837 14114 100486 38834 15385 11237 18883 11139 20480 38050 9903 8519 4803 9786 31925 27853 18916 9311 3729 7483 8270 25916 62436
cat_boundaries=0 1 2 3 4 6 8 10 12
cat_threshold=2 24 66324 221974 1343307955 6849867 758210802 13403456 20072107 15246677 1093761187 13170074
is_linear=0
shrinkage=0.05


Tree=8
num_leaves=32
num_cat=6
split_feature=41 40 40 41 40 41 1 39 10 26 39 40 41 39 39 11 41 11 40 40 15 26 41 39 95 39 39 19 40 39 6
split_gain=1752 972.578 479.452 387.016 175.294 158.877 142.51 105.115 95.8115 95.5717 93.8441 93.3769 68.2641 68.1084 65.2166 64.901 65.5154 62.9978 61.3428 61.1331 58.7054 55.7628 54.542 52.7111 51.8478 46.9603 46.7041 45.8024 43.855 43.7233 43.5343
threshold=0.43383789062500006 0.37683105468750006 0.40197753906250006 0.26574707031250006 0.61254882812500011 0.33044433593750006 0 0.38757324218750006 1 2 0.18780517578125003 0.65893554687500011 0.57006835937500011 0.35290527343750006 0.15545654296875003 3 0.12411499023437501 4 0.65454101562500011 0.088287353515625014 -16616.499999999996 5 0.61694335937500011 0.31726074218750006 1.0000000180025095e-35 0.43762207031250006 0.54711914062500011 14.500000000000002 0.17523193359375003 0.31726074218750006 254556.00000000003
decision_type=10 8 10 8 10 8 9 10 9 9 8 10 10 10 8 9 10 9 10 10 2 9 10 10 2 10 10 8 8 8 2
left_child=1 5 6 11 10 13 22 8 19 18 -5 15 25 24 -6 16 -3 20 26 -7 -12 27 28 -22 -1 -8 -4 -16 -2 -11 -26
right_child=2 3 9 4 14 7 12 -9 -10 29 17 -13 -14 -15 21 -17 -18 -19 -20 -21 23 -23 -24 -25 30 -27 -28 -29 -30 -31 -32
leaf_value=0.036587344741809101 0.056067957770796255 0.061208004782449622 -0.0067573129541880789 0.046090827225267285 0.048062779907431241 0.070053733908370858 0.015683727793085498 0.00084953744943932401 0.017191219034210781 -0.0063385834386156916 -0.0031440599593032881 0.0036918085519622593 -0.014473649544539816 0.028560343897538587 -0.024139230103990453 0.012571015449151507 0.030272819744152954 -0.011249619737395779 -0.026865355917680484 0.03745913514034472 0.022376332544158738 -0.022443383282883936 0.006330571466992535 -0.0018121410349227229 0.037995581798045734 -0.0187316608995074 -0.031319464805939431 0.0015527493612539041 0.021293825013402937 -0.030137628029453363 0.06852039918369067
leaf_weight=247.78725908696651 132.70457475632429 232.98057821393013 1382.4186145588756 130.15703970193863 40.740419618785381 177.46510560065508 424.70104605704546 303.51476985961199 643.53533707559109 203.8997583091259 788.93516182899475 434.45404445379972 940.42358905822039 277.49319159239531 242.30544506013393 395.22197439521551 644.9075288772583 613.46667159348726 840.47234893217683 759.57499507814646 727.8401498273015 1258.8972550109029 390.23922448605299 326.15882985293865 143.36074300855398 129.29764231294394 225.04163683205843 610.66720442473888 286.21323867887259 3606.806840788573 630.60078080743551
leaf_count=2140 1381 2125 20663 1511 493 1447 5525 3710 6862 3040 10574 5298 13171 2586 3502 4205 6993 8351 13731 7568 8925 19425 4956 4435 1181 1784 3656 8717 3566 59396 5092
internal_value=0 0.0144636 -0.0166229 0.00329787 -0.00405576 0.037076 0.00287946 0.0278002 0.0329754 -0.0238011 0.00471676 0.0237071 -0.0062716 0.0505274 -0.0145967 0.0305374 0.0380492 0.00252448 -0.0158545 0.0431715 0.00713187 -0.0158055 0.0197804 0.0148912 0.0564933 0.00765153 -0.010196 -0.00567904 0.0323096 -0.0287887 0.0628663
internal_weight=0 9630.06 8562.22 6446.73 4739.17 3183.33 2303.58 1884.09 1580.58 6258.64 2586.56 1707.56 1494.42 1299.24 2152.61 1273.11 877.888 2456.4 2447.93 937.04 1842.93 2111.87 809.157 1054 1021.75 553.999 1607.46 852.973 418.918 3810.71 773.962
internal_count=246009 115140 130869 84554 65933 30586 30383 19587 15877 100486 33796 18621 20480 10999 32137 13323 9118 32285 38050 9015 23934 31644 9903 13360 8413 7309 24319 12219 4947 62436 6273
cat_boundaries=0 1 2 3 4 5 6
cat_threshold=2 128 221974 24 24 127762
is_linear=0
shrinkage=0.05


Tree=9
num_leaves=32
num_cat=6
split_feature=41 40 40 41 41 40 11 38 39 39 40 40 40 38 26 39 39 95 38 39 16 39 72 40 38 16 6 81 16 39 40
split_gain=1588.91 889.594 416.187 301.559 185.726 128.153 127.808 121.032 91.0158 90.8851 86.2586 85.6309 73.184 72.3952 72.0851 68.7351 67.6421 65.5428 59.7474 53.1039 51.8253 51.2604 49.7699 50.5051 49.0708 48.014 47.3413 45.922 45.7565 44.7484 41.2368
threshold=0.44982910156250006 0.46008300781250006 0.40197753906250006 0.26147460937500006 0.34497070312500006 0.15985107421875003 0 1 0.17877197265625003 0.42102050781250006 0.65747070312500011 0.23004150390625003 0.70581054687500011 2 3 0.39855957031250006 0.52954101562500011 1.0000000180025095e-35 4 0.60913085937500011 -2533.4999999999995 0.55834960937500011 0.98071289062500011 0.056869506835937507 5 -2467.4999999999995 193536.00000000003 0.068756103515625014 -1667.4999999999998 0.21258544921875003 0.68530273437500011
decision_type=10 8 10 8 8 10 9 9 8 10 10 10 10 9 9 10 10 2 9 10 2 10 10 10 9 2 2 10 2 8 10
left_child=1 4 7 15 16 27 -5 9 -8 11 13 -2 19 -4 29 18 17 -1 30 24 -16 25 23 -19 28 -15 -25 -6 -10 -7 -3
right_child=2 3 10 6 5 14 8 -9 12 -11 -12 -13 -14 21 20 -17 -18 22 -20 -21 -22 -23 -24 26 -26 -27 -28 -29 -30 -31 -32
leaf_value=0.027699786805601385 0.035403316797426899 0.042513117306455551 -0.026407454336886967 -0.021179583287560453 0.046379929870807607 0.04637384229402311 0.04053179171997686 -0.011665680359764084 -0.0021523590819066125 -0.014456907817361095 -0.031490194649883507 0.0059942905274458381 -0.020711364315621487 -0.020427759374284492 0.001980278707162456 0.0024880264675677614 0.015064970659082053 0.088111463296852141 0.0097515673179906052 -0.01977614087259302 0.034148554194204241 -0.0295565026201145 0.03269498846180903 0.016840054205147881 -0.0083595931704496286 -0.0023366040432984416 0.05617191142381537 0.011838810886800803 0.014932438787428247 0.0039427665726983301 0.0097945998376203856
leaf_weight=398.32414419949055 439.0722938477993 531.07295648008585 1744.9459390006959 1094.6375446990132 537.40046748518944 65.983136527240276 124.16637796908617 935.81598906591535 684.22359492629766 257.64284326136112 2174.8685301654041 567.35677582770586 496.40737540274858 557.56411319598556 160.83472054451704 395.06172694265842 207.09870864450932 111.09114526212215 360.7703423127532 293.16378302872181 565.21007659286261 352.49835376441479 287.30819103121758 84.895690433681011 679.96414321288466 1071.6877744235098 774.0964423045516 117.21277223527431 917.28491742163897 1065.9604425281286 117.63386160880327
leaf_count=3553 4971 5270 28708 16334 4623 702 1441 13218 9419 3475 37220 7486 7683 8747 1747 4724 2102 737 4013 4560 5827 5945 2430 741 9834 16467 6605 1042 12092 12915 1378
internal_value=0 0.0130872 -0.0166582 6.02429e-05 0.030041 0.0211711 -0.00652359 0.00190337 -0.00143187 0.0119466 -0.0235773 0.0188245 -0.00313318 -0.0189595 0.0144685 0.0201691 0.042005 0.0453747 0.0270886 0.000256012 0.0266554 -0.0122066 0.0509738 0.0563875 0.0028301 -0.00852778 0.0522847 0.0401951 0.00758582 0.00635997 0.0360247
internal_weight=0 10069.8 8101.45 5694.39 4375.42 2512.6 4289.85 2199.89 3195.21 1264.07 5901.56 1006.43 3071.04 3726.7 1857.99 1404.54 1862.81 1655.72 1009.48 2574.64 726.045 1981.75 1257.39 970.083 2281.47 1629.25 858.992 654.613 1601.51 1131.94 648.707
internal_count=246009 119772 126237 76748 43024 26856 61363 29150 45029 15932 97087 12457 43588 59867 21191 15385 16168 14066 10661 35905 7574 31159 10513 8083 31345 25214 7346 5665 21511 13617 6648
cat_boundaries=0 1 3 5 6 8 10
cat_threshold=2 19940538 15263059 3556784132 34390662 293961 1343307939 6849867 1093761186 13170075
is_linear=0
shrinkage=0.05


Tree=10
num_leaves=32
num_cat=6
split_feature=41 40 40 40 41 41 39 11 40 38 38 38 39 7 8 39 38 40 38 41 39 16 6 39 6 8 7 39 16 39 8
split_gain=1446.25 850.457 337.789 258.145 202.658 171.948 108.183 96.6997 93.6885 92.8508 92.3421 85.6745 88.5954 75.5733 88.6345 68.9559 65.94 62.4534 57.3129 56.599 53.3757 52.9565 50.7228 49.349 46.2574 44.34 55.5891 44.1447 42.9167 40.3483 39.3859
threshold=0.47668457031250006 0.55004882812500011 0.33361816406250006 0.20916748046875003 0.26574707031250006 0.31311035156250006 0.41833496093750006 0 0.57836914062500011 1 2 3 0.18780517578125003 15005.250000000002 451660.50000000006 0.53588867187500011 4 0.056869506835937507 5 0.20617675781250003 0.48645019531250006 -1667.4999999999998 199116.00000000003 0.31433105468750006 508497.75000000006 675490.50000000012 26025.750000000004 0.18780517578125003 -3055.4999999999995 0.30163574218750006 451660.50000000006
decision_type=10 8 10 10 8 8 10 9 10 9 9 9 10 10 10 10 9 8 9 8 10 2 2 10 2 8 10 8 2 8 10
left_child=1 3 10 11 20 13 9 -6 16 21 17 12 19 -5 24 18 -4 -2 -9 -1 -3 -7 -23 -19 -15 26 -20 -16 -18 -10 -24
right_child=2 4 8 5 7 6 -8 15 29 -11 -12 -13 -14 14 27 -17 28 23 25 -21 -22 22 30 -25 -26 -27 -28 -29 -30 -31 -32
leaf_value=0.084101795675632446 0.058511409860804268 0.020039895074811021 -0.02386294969133745 0.010406597303244591 -0.024335357659269627 0.0096341866537085728 -0.0093310855131079739 -0.014405014969628894 -0.0065477927679033765 -0.0010957511815288443 -0.0084033847704955613 0.022688146779753917 0.02739184282524908 0.04359689356357304 0.077629135041010391 -0.023833316774169867 -0.023005975865723866 0.019694675008753933 0.00038566348640561333 0.050900341640805626 -0.0066418882312978232 0.0038873493644934623 0.04178498409501296 -0.010411694061366699 0.078613453980342266 -0.011395290798487619 0.023796637182753062 0.019741464950249532 -0.0017760477861915411 -0.029224197304229867 0.02033593587641502
leaf_weight=160.19683011621237 78.268847569823265 841.17839752882719 1108.6695155836642 348.8746353238821 935.99661283567548 624.22038970887661 572.12560790032148 629.47967425361276 208.63944515958428 661.81590355187654 774.33486548438668 564.95383876562119 350.65477912127972 473.96111593395472 35.012014575302601 429.86412583291531 317.29721623286605 490.73363746702671 735.09452266991138 645.92018278688192 241.17696287482977 181.26842796802521 518.14347959309816 188.35817457363009 117.74323195964098 375.13239113241434 387.0892903059721 554.93148132413626 953.13757658004761 3280.3231443837285 364.64615381509066
leaf_count=1029 786 9000 18126 3327 14514 7252 7995 9516 3216 8501 10681 5066 3068 4320 299 6860 4952 6046 10101 5247 3002 2015 5706 2521 1055 5338 5339 5374 14453 57201 4103
internal_value=0 0.011529 -0.0171933 0.0236349 -0.00480928 0.0172777 0.0101669 -0.0106675 -0.0226511 0.0149136 0.00371632 0.0400761 0.0479575 0.0308543 0.0368913 -0.00554675 -0.0150003 0.0160072 -0.00187678 0.0574984 0.0140945 0.0210711 0.0279784 0.0113441 0.0505648 0.00346323 0.00846111 0.023177 -0.00702304 -0.0278682 0.0329252
internal_weight=0 10749.5 7399.76 6174.47 4575.01 4452.74 2922.22 3492.66 5868.07 2350.09 1531.7 1721.73 1156.77 1530.52 1181.65 2556.66 2379.1 757.361 2126.8 806.117 1082.36 1688.28 1064.06 679.092 591.704 1497.32 1122.18 589.943 1270.43 3488.96 882.79
internal_count=246009 128027 117982 64357 63670 49947 35572 51668 97948 27577 20034 14410 9344 14375 11048 37154 37531 9353 30294 6276 12002 19076 11824 8567 5375 20778 15440 5673 19405 60417 9809
cat_boundaries=0 1 3 5 7 9 11
cat_threshold=2 1614104826 30183002 74465520 13124817 269551794 13141314 3556837380 34130566 3426750988 50612932
is_linear=0
shrinkage=0.05


Tree=11
num_leaves=32
num_cat=7
split_feature=41 40 40 40 41 41 38 1 39 38 39 39 11 38 41 39 15 38 41 39 40 15 39 92 95 40 39 11 95 8 6
split_gain=1313 750.43 316.815 227.724 182.414 151.014 116.238 101.205 82.1484 79.0275 78.5383 76.8113 71.2037 67.1027 64.7178 60.37 54.5448 54.313 51.177 49.8526 49.475 49.2408 54.451 44.6297 42.424 42.3924 41.8601 41.8042 41.3816 40.0871 68.892
threshold=0.47668457031250006 0.55249023437500011 0.40197753906250006 0.26818847656250006 0.33361816406250006 0.22320556640625003 0 1 0.42663574218750006 2 0.38757324218750006 0.57788085937500011 3 4 0.20617675781250003 0.63842773437500011 -14923.499999999998 5 0.071777343750000014 0.33850097656250006 0.62524414062500011 -15186.499999999998 0.31433105468750006 1.0000000180025095e-35 1.0000000180025095e-35 0.056869506835937507 0.11056518554687501 6 1.0000000180025095e-35 451660.50000000006 544495.50000000012
decision_type=10 8 10 10 8 8 9 9 10 9 10 10 9 9 8 10 2 9 10 10 10 2 10 10 2 10 8 9 2 10 2
left_child=1 3 7 6 15 27 10 21 9 23 14 13 16 -4 -1 17 -6 -3 -19 -18 -15 -2 -23 28 -16 -8 -9 -5 -7 30 -30
right_child=2 4 11 5 12 8 25 26 -10 -11 -12 -13 -14 20 24 -17 19 18 -20 -21 -22 22 -24 -25 -26 -27 -28 -29 29 -31 -32
leaf_value=0.068129552277722633 -0.015713522548584071 -0.003958541886700878 -0.02643515807665521 0.010524353380129019 -0.013489299373103876 0.0025046091582777716 0.042673634462333965 0.11177356150033156 -0.0068820924094347277 0.0023194335967419827 0.015581233501543652 -0.035134804871808957 -0.023968456624369614 -0.0065604258718481483 0.022034120925073675 -0.017601328953511904 0.011431376825973246 0.061411646315005501 0.01571628154960442 -0.015454596308190544 -0.021888228277375632 0.017655717724244926 -0.016208516975482815 0.047277540739288242 0.045948855731406127 0.011736640582874529 0.013743325679670411 0.039925024728457222 0.025626659442673446 0.011291103407347179 0.082735034628300508
leaf_weight=273.26299276947975 808.02827945351601 367.42104617506266 2090.6003348119557 181.51413454860449 1248.2595116309822 329.46821966022253 134.77136127650738 11.059533029794691 611.32989148795605 979.66187135875225 244.42352284491062 1053.6804422810674 877.30148432776332 1145.1023685447872 233.55680520832539 187.64565646275878 561.1981210000813 65.501484289765358 949.21121167391539 248.8776390440762 974.47588958591223 300.73971138522029 196.10843013972044 143.42075746506453 900.28714072704315 620.78717191517353 709.58950263261795 619.39121601730585 559.58569070696831 441.71386003494263 58.312221027910709
leaf_count=1762 11605 4506 36602 1614 18961 3632 1054 127 8489 12134 2451 19094 13961 18070 1976 2601 7658 628 10928 3802 17116 3947 2774 1554 7419 6035 8647 5296 6035 4916 615
internal_value=0 0.0108494 -0.0165954 0.0219485 -0.00474821 0.014522 0.0340562 0.000208569 0.0095554 0.0135554 0.0414913 -0.0230615 -0.0121052 -0.0200399 0.0462869 0.00901004 -0.00689887 0.0126229 0.0184838 0.00317126 -0.0135435 -0.00809718 0.00428934 0.0205886 0.0410227 0.0170296 0.0152478 0.0338917 0.0179813 0.0227935 0.0310161
internal_weight=0 10836.9 7289.38 6331.49 4505.42 3924.4 2407.09 2025.53 3123.49 2512.16 1651.53 5263.86 2935.64 4210.18 1407.11 1569.78 2058.34 1382.13 1014.71 810.076 2119.58 1304.88 496.848 1532.5 1133.84 755.559 720.649 800.905 1389.08 1059.61 617.898
internal_count=246009 128027 117982 64982 63045 44285 20697 27100 37375 28886 13608 90882 44382 71788 11157 18663 30421 16062 11556 11460 35186 18326 6721 16752 9395 7089 8774 6910 15198 11566 6650
cat_boundaries=0 2 3 5 6 8 10 11
cat_threshold=269568186 29918274 1 623993072 15469912 24 3556784132 61622926 2905087564 34611908 2
is_linear=0
shrinkage=0.05


Tree=12
num_leaves=32
num_cat=9
split_feature=41 40 40 41 41 40 26 39 26 40 39 38 38 11 11 38 15 39 35 41 40 16 39 2 1 39 41 39 16 7 8
split_gain=1192.43 663.681 299.577 196.292 168.657 158.275 118.165 86.9777 82.5959 74.743 72.3243 69.1271 68.5575 65.4057 63.1752 53.6183 49.4259 46.8374 45.611 45.1314 44.4054 43.9378 43.6114 42.6405 50.4337 42.0745 44.6093 41.1338 40.7566 38.1149 49.5478
threshold=0.47668457031250006 0.55004882812500011 0.25817871093750006 0.22949218750000003 0.26574707031250006 0.26232910156250006 0 0.52954101562500011 1 0.55004882812500011 0.42395019531250006 2 3 4 5 6 -19448.499999999996 0.41271972656250006 1.0000000180025095e-35 0.083648681640625014 0.72241210937500011 -4017.4999999999995 0.48645019531250006 7 8 0.70336914062500011 0.67773437500000011 0.10104370117187501 -2907.4999999999995 12377.250000000002 451660.50000000006
decision_type=10 8 10 8 8 10 9 10 9 10 10 9 9 9 9 9 2 10 2 10 10 2 10 1 9 10 10 8 2 10 8
left_child=1 3 12 14 22 8 9 13 28 21 11 23 17 15 16 -6 -1 27 -10 -18 -17 -4 -3 24 -7 26 -8 -2 -5 -29 -31
right_child=2 4 6 5 7 10 25 -9 18 -11 -12 -13 -14 -15 -16 20 19 -19 -20 -21 -22 -23 -24 -25 -26 -27 -28 29 -30 30 -32
leaf_value=0.020263396591050763 0.15104512858115701 0.017843409068120177 -0.025886766111862181 0.014132711922766189 -0.012296472048438065 0.017010698576858867 -0.019015857354140412 -0.025625081889015178 0.015368065083038607 -0.01912572048364336 -0.0062691662753700727 0.002205891436194925 -0.0074057743304628155 -0.018470664455279614 0.017116699546221376 0.0084628436401407419 0.072559360967428252 -0.0086691518373823891 0.0471293227002113 0.043219785187447929 -0.018678571341851812 0.0029564520724312017 -0.0062705741292874055 0.0087278377971821818 0.04027077301183507 -0.039018450530427545 -0.031052377287646444 -0.010383669464037501 0.047373045154120358 0.04650269424950592 0.012758512210200315
leaf_weight=186.10489968955517 6.4972989186644545 863.66491179168224 155.04502470418811 109.73949638009071 688.89249992370605 624.33774869143963 1998.2803217545152 697.52941946685314 996.7267829105258 1353.6123948395252 610.13159492984414 965.14821217209101 389.33643967285752 736.26709972321987 354.15246247500181 1137.4072167053819 160.90351297706366 120.06987057626247 127.49402942508459 706.97666076570749 173.71549917757511 889.69285257533193 239.49386887997389 589.59922374784946 371.83948990702629 516.2522405013442 1252.1104727424681 68.000190384685993 577.50524049252272 220.67713832110167 214.54684289172292
leaf_count=1490 64 9000 2324 971 10502 6794 34782 11619 9393 23509 8510 11952 5387 11463 2856 15411 1100 1615 1087 5411 2673 12799 3002 6349 3849 9539 22220 809 4595 2475 2459
internal_value=0 0.0102197 -0.0160102 0.0206149 -0.00439992 0.0159481 -0.0201615 -0.00986404 0.027732 -0.011324 0.00919524 0.012894 0.00910227 -0.00584626 0.0370948 -0.00110097 0.0432351 0.0191215 0.0188027 0.0486593 0.00482994 -0.00132405 0.0126083 0.0192637 0.0256929 -0.0256904 -0.0236525 0.026043 0.0414619 0.0244291 0.0298683
internal_weight=0 10917.6 7184.12 6380.66 4536.97 4972.52 6164.99 3433.81 1811.47 2398.35 3161.06 2550.92 1019.13 2736.28 1408.14 2000.02 1053.99 629.791 1124.22 867.88 1311.12 1044.74 1103.16 1585.78 996.177 3766.64 3250.39 509.721 687.245 503.224 435.224
internal_count=246009 128027 117982 64357 63670 53500 105173 51668 16046 38632 37454 28944 12809 40049 10857 28586 8001 7422 10480 6511 18084 15123 12002 16992 10643 66541 57002 5807 5566 5743 4934
cat_boundaries=0 1 2 4 6 7 8 10 11 12
cat_threshold=213780 70420 623993074 15467864 3228582136 15222226 24 24 3443528220 50612972 1 1
is_linear=0
shrinkage=0.05


Tree=13
num_leaves=32
num_cat=7
split_feature=41 40 40 41 40 41 11 1 39 1 39 15 39 39 7 8 38 38 40 40 15 49 39 40 7 8 38 16 6 38 6
split_gain=1086.74 631.862 251.453 203.853 161.165 110.757 109.106 85.7319 72.8818 70.8928 66.0446 60.8063 57.7251 56.1407 55.396 63.9028 54.0105 53.8524 49.611 46.6892 45.2167 43.9668 43.545 42.5752 40.7242 68.1585 38.4771 40.2144 37.4538 40.5978 37.0875
threshold=0.50195312500000011 0.51684570312500011 0.42541503906250006 0.26147460937500006 0.18365478515625003 0.34497070312500006 0 1 0.59252929687500011 2 0.57543945312500011 -16917.499999999996 0.17877197265625003 0.41833496093750006 15005.250000000002 451660.50000000006 3 4 0.71752929687500011 0.62963867187500011 -14362.499999999998 0.20623779296875003 0.34997558593750006 0.59545898437500011 16877.250000000004 451660.50000000006 5 -1667.4999999999998 463527.00000000006 6 202632.75000000003
decision_type=10 8 10 8 10 8 9 9 10 9 10 2 8 10 10 10 9 9 10 10 2 10 10 10 10 8 9 2 2 9 2
left_child=1 4 7 19 16 14 8 20 12 24 17 -11 -5 -13 -6 21 30 -4 26 -3 -2 -16 -22 -19 -7 28 -14 -28 29 -26 -1
right_child=2 3 10 6 5 9 -8 -9 -10 11 -12 13 18 -15 15 -17 -18 23 -20 -21 22 -23 -24 -25 25 -27 27 -29 -30 -31 -32
leaf_value=0.018801771797545927 -0.01591922344334783 0.023985646498583736 -0.026074853802002099 0.035736486507002625 0.0085253072050642878 0.0022369412940979111 -0.021011443334695526 0.012018680330676969 -0.02385812207934172 -0.0097828668476220224 -0.035000161351026467 0.016383272535901088 -0.0096495858513196576 -0.011308437747351152 0.045895380522089156 0.018903807955760649 0.019572795826390571 -0.0045864499865201106 -0.01952658215550503 0.0045869328248052746 0.015888520207417042 0.0087974232540945583 -0.018234199377632852 -0.020119459185339666 0.041030740877770817 0.01086119642371167 -0.0038675946756855208 0.012427112373585934 0.067012882272130994 -0.005427823057063106 0.04427848241228894
leaf_weight=168.86481645703316 874.33206231892109 633.06241343170404 1817.6978395059705 106.28968735784292 393.27875569462776 266.40446792542934 1233.8444515131414 725.20295741409063 377.70707781985402 633.34180991724133 910.53134763985872 785.11407171934843 604.3707575276494 238.66727935522795 577.94597276672721 666.05800824612379 561.77600595355034 755.42749109864235 343.59505694359541 608.14809531718493 271.49292815849185 92.673029117286205 142.60524125769734 1060.3888210654259 197.83787975460291 405.79326819628477 681.8875385299325 851.42544535547495 98.500401239842176 65.213651467114687 927.26617624610662
leaf_count=1269 12963 6190 33495 1201 3614 2913 19814 8944 6390 8173 17584 8763 9255 3337 4859 6140 4698 12205 5548 6924 3590 814 2106 19214 2090 4532 9595 11273 1024 700 6792
internal_value=0 0.00905731 -0.0164409 -0.00332115 0.0201357 0.01515 -0.00858325 -0.00173288 -0.00332982 0.0088044 -0.0229586 0.00239444 -0.000346173 0.00992769 0.0250204 0.0298736 0.0334302 -0.0199411 -0.00189183 0.014481 -0.00947305 0.0407688 0.00413749 -0.0135825 0.0190797 0.0249271 0.000942643 0.00514704 0.0407142 0.0308666 0.0399888
internal_weight=0 11519.1 6557.68 5440.33 6078.74 4420.83 4199.12 2013.63 2965.28 2690.87 4544.05 1657.12 2587.57 1023.78 1729.96 1336.68 1657.91 3633.51 2481.28 1241.21 1288.43 670.619 414.098 1815.82 1033.75 767.345 2137.68 1533.31 361.552 263.052 1096.13
internal_count=246009 135908 110101 76190 59718 46959 63076 27603 43262 31532 82498 20273 36872 12100 15427 11813 12759 64914 35671 13114 18659 5673 5696 31419 11259 8346 30123 20868 3814 2790 8061
cat_boundaries=0 1 2 3 5 7 9 11
cat_threshold=24 1 2 268445874 13141066 3556784132 44616334 3444184588 53756484 67185210 37749954
is_linear=0
shrinkage=0.05


Tree=14
num_leaves=32
num_cat=4
split_feature=41 40 40 41 38 39 26 39 95 40 41 8 6 38 39 11 41 8 40 15 90 41 7 8 6 7 39 39 39 69 39
split_gain=988.417 562.852 237.425 215.45 131 125.461 102.076 93.6134 82.0216 81.1313 71.8955 63.136 108.415 59.4665 57.1971 56.1134 51.4315 51.2528 47.0527 46.9727 44.2982 41.0713 40.1706 58.042 42.6848 39.6333 36.6025 36.08 35.7855 35.6719 35.5987
threshold=0.50195312500000011 0.45349121093750006 0.25817871093750006 0.22320556640625003 0 0.50903320312500011 1 0.38757324218750006 1.0000000180025095e-35 0.69409179687500011 0.057052612304687507 451660.50000000006 337072.50000000006 2 0.18341064453125003 3 0.33044433593750006 675490.50000000012 0.63696289062500011 -19386.499999999996 1.0000000180025095e-35 0.65844726562500011 16071.750000000002 451660.50000000006 508497.75000000006 15990.750000000002 0.33557128906250006 0.058929443359375007 0.41271972656250006 0.068450927734375014 0.16949462890625003
decision_type=10 8 10 8 9 10 9 10 2 10 8 8 2 9 8 9 8 8 10 2 10 10 10 8 2 10 8 8 10 10 8
left_child=1 4 13 17 7 9 14 8 -1 15 -10 12 -12 28 -4 19 -6 25 21 -5 22 -16 -21 24 -24 -3 -8 -17 -2 30 -27
right_child=2 3 6 5 16 -7 26 -9 10 -11 11 -13 -14 -15 18 27 -18 -19 -20 20 -22 -23 23 -25 -26 29 -28 -29 -30 -31 -32
leaf_value=0.014185426919515076 0.026868757351336866 0.0065753742733227084 0.031671399323122955 -0.0065938100462541518 0.020774195899572592 -0.020781463985159364 -0.0048561913506698744 0.0081554411679615416 0.098028602676473939 -0.015889992323958019 0.027769086183981051 0.022342729803221884 0.056077641161207663 -0.0051091931791212427 -7.6161552872138944e-05 0.19146663186101021 0.0030704387939142846 -0.0018688339218038714 -0.023438049040465835 -0.0071312265681507218 0.028931235345658037 -0.016838264337996182 0.015424613706616117 0.0011100815694787662 0.048761654953328903 0.079030368582745397 -0.026917362955493147 -0.010141933062135197 -0.0092048419624641293 -0.020511531006238218 0.029639616921089851
leaf_weight=600.39321021363139 379.24523893371224 246.682597450912 74.096897572278976 625.85771108418703 657.80141815543175 1071.7580100521445 200.32916926220059 559.53389075025916 44.387990176677704 808.54708562791348 771.30669500678778 776.22364322096109 602.3378011956811 474.56212814897299 787.32668532058597 2.2250782251358023 1090.0581127591431 249.1067508906126 722.87202005833387 421.42627013847232 246.99094358459115 682.00137554854155 467.68125631660223 721.42342327535152 120.82639195770025 38.85414557158947 3058.846316549927 833.96857161447406 83.971645899116993 33.195126056671143 597.64220585674047
leaf_count=5209 4176 2453 1096 9073 5237 17976 3279 6065 264 12921 6352 6678 4770 6517 12252 25 12345 2664 13678 5375 3131 10806 5876 9429 1482 314 57162 12162 1135 331 5776
internal_value=0 0.00854405 -0.01586 -0.00122913 0.0209686 -0.00549411 -0.019808 0.0267436 0.030561 -0.00163801 0.0350417 0.0337412 0.0401823 0.00740172 -0.0114834 0.00171143 0.00967782 0.0182415 -0.0129944 0.00532476 0.00912216 -0.00785644 0.00629625 0.0106161 0.022269 0.0237083 -0.0254832 -0.00949195 0.0198998 0.0300193 0.0326546
internal_weight=0 11588.2 6463.25 6486.19 5102.04 5320.7 5525.47 3354.18 2794.65 4248.95 2194.26 2149.87 1373.64 937.779 2266.3 3440.4 1747.86 1165.48 2192.2 2604.21 1978.35 1469.33 1731.36 1309.93 588.508 916.374 3259.18 836.194 463.217 669.691 636.496
internal_count=246009 135908 110101 88988 46920 77450 98273 29338 23273 59474 18064 17800 11122 11828 37832 46553 17582 11538 36736 34366 25293 23058 22162 16787 7358 8874 60441 12187 5311 6421 6090
cat_boundaries=0 2 3 5 6
cat_threshold=538009850 13141082 246550 2150645920 13124946 24
is_linear=0
shrinkage=0.05


Tree=15
num_leaves=32
num_cat=9
split_feature=41 40 40 40 41 11 15 39 39 38 1 39 38 41 19 38 38 11 39 19 39 58 1 8 39 81 7 39 38 39 40
split_gain=898.795 508.747 224.905 152.64 147.187 111.256 104.061 81.7431 76.4604 75.7079 72.9305 64.3103 57.6875 55.0544 53.8509 52.6062 51.0465 48.7104 46.8096 45.9009 42.6362 42.1764 40.9191 41.7335 40.3675 40.2057 42.5811 38.8201 38.2927 36.7989 36.6905
threshold=0.50195312500000011 0.55249023437500011 0.42541503906250006 0.20269775390625003 0.39538574218750006 0 -16312.499999999998 0.26550292968750006 0.44323730468750006 1 2 0.57543945312500011 3 0.16894531250000003 67.000000000000014 4 5 6 0.31091308593750006 11.500000000000002 0.42663574218750006 0.95336914062500011 7 675490.50000000012 0.16009521484375003 0.080352783203125014 26318.250000000004 0.11056518554687501 8 0.18780517578125003 0.59887695312500011
decision_type=10 8 10 10 8 9 2 10 10 9 9 10 9 8 8 9 9 9 10 8 8 8 9 8 8 10 10 8 9 10 10
left_child=1 3 9 13 8 6 10 14 12 18 -5 16 -3 -1 -8 29 -4 -6 -2 -14 -12 -21 -19 -24 -7 26 -16 -11 -26 -15 -18
right_child=2 4 11 5 17 24 7 -9 -10 27 20 -13 19 15 25 -17 30 22 -20 21 -22 -23 23 -25 28 -27 -28 -29 -30 -31 -32
leaf_value=0.049057776939272983 0.014034080072617276 -0.0042244431693043748 -0.025172703119227004 0.02249698050373115 -0.02452131668166414 0.039399984689379476 0.016430593409923654 0.0085263174505440849 -0.011069432692234754 0.15107522433483797 0.051201912648001294 -0.033867043425666044 -0.00056769164923756632 0.037739641563963401 0.031593385966962248 0.011820146695287539 -0.0048754429129305079 -0.014141700125863715 -0.009181667894453063 0.12323265047525267 -0.0033802505982121877 0.021612045885732643 0.0081876856980416662 -0.019353095745970286 -0.016837358830739713 0.012063755402863106 0.054196629786710804 -0.012676319013086586 0.0028149001657649508 0.017559198350281274 -0.018962781072800985
leaf_weight=281.46334516257048 782.57930984720588 459.94208659231663 1625.8586958423257 458.65163373947144 645.82608122378588 57.587977364659309 573.77872245758772 709.55775463581085 541.57701269164681 3.6336992047727099 37.100647859275341 863.82620905339718 279.02271943539381 765.58066850155592 605.71935865655541 553.02824111282825 815.6656157374382 1223.6550907045603 300.49716993048787 10.339576303958891 1003.6412064544857 817.79248563572764 523.28422149643302 186.6058814227581 355.07193396613002 157.86836289614439 317.61710101366043 914.25571910664439 768.28277112543583 320.45462370663881 1066.619811553508
leaf_count=1625 9582 5904 31367 4872 11173 519 5443 7903 7839 44 387 17584 3297 5444 5762 4863 13459 19161 4240 119 11877 9421 7509 2826 4182 1507 2970 13737 8662 2643 20088
internal_value=0 0.00806199 -0.0152918 0.0166327 -0.00467219 0.0120658 0.0161484 0.0227242 0.00512633 -0.00140768 0.00588594 -0.0216463 0.0107235 0.028629 0.0288115 0.0251209 -0.0186371 -0.0126826 0.00752346 0.0168195 -0.00143449 0.0228808 -0.00855729 0.000948154 -0.0014166 0.0353818 0.0393686 -0.0118984 -0.00352165 0.031495 -0.0127903
internal_weight=0 11653.4 6372.94 6965.4 4688.05 5044.88 3863.93 2364.54 2108.67 2000.97 1499.39 4371.97 1567.1 1920.53 1654.98 1639.06 3508.14 2579.37 1083.08 1107.15 1040.74 828.132 1933.55 709.89 1180.94 1081.2 923.336 917.889 1123.35 1086.04 1882.29
internal_count=246009 135908 110101 68659 67249 54084 40721 23585 26580 27603 17136 82498 18741 14575 15682 12950 64914 40669 13822 12837 12264 9540 29496 10335 13363 10239 8732 13781 12844 8087 33547
cat_boundaries=0 1 3 4 6 8 10 11 12 14
cat_threshold=24 20075754 16278867 2 2905279044 60040148 67826 15238474 3556784132 44059278 2 1 3562702102 18115206
is_linear=0
shrinkage=0.05


Tree=16
num_leaves=32
num_cat=8
split_feature=41 40 41 41 40 39 15 40 39 40 11 26 38 1 38 29 41 16 40 39 12 7 8 16 26 7 26 6 8 7 19
split_gain=824.117 535.017 163.222 158.185 151.919 130.501 99.4277 79.995 73.597 66.0739 61.6287 60.0295 55.3539 54.3982 46.774 46.3856 44.6681 42.2094 39.5121 36.8155 36.1362 34.7374 49.4346 34.4743 34.2806 35.3011 34.0655 33.6371 33.4619 45.3805 33.3956
threshold=0.56640625000000011 0.55004882812500011 0.39538574218750006 0.31311035156250006 0.25817871093750006 0.41833496093750006 -19984.499999999996 0.33361816406250006 0.44323730468750006 0.64721679687500011 0 1 2 3 4 2.5000000000000004 0.083648681640625014 -2146.4999999999995 0.056869506835937507 0.077911376953125014 5 16809.750000000004 451660.50000000006 -1842.4999999999998 6 23951.250000000004 7 279173.25000000006 675490.50000000012 16877.250000000004 14.500000000000002
decision_type=10 10 8 8 10 10 2 8 10 10 9 9 9 9 9 2 10 2 8 8 9 10 8 2 9 10 9 2 8 10 8
left_child=1 3 8 10 14 6 -5 15 12 13 16 30 -3 -6 -2 28 -1 -9 -18 -14 -15 -20 -23 -17 -19 -26 -21 -7 29 -8 -4
right_child=4 2 11 5 9 27 7 17 -10 -11 -12 -13 19 20 -16 23 18 24 21 26 -22 22 -24 -25 25 -27 -28 -29 -30 -31 -32
leaf_value=0.051533474590653376 -0.013106271267505033 0.026375568210244352 -0.017456801374939317 -0.0025471639338792221 -0.021737200357608916 -0.023393459187969142 0.010185854261729495 -0.0030646198318845228 -0.011036342457544764 -0.029788582119900705 0.010795226805243828 -0.018607895405890036 0.099481584885623309 -0.012488734894643258 0.012961478131938526 0.016714975138437574 0.052456074767335985 -0.0065769157905991391 0.012610404657454208 0.01549265793340659 0.0096539052892034155 0.04043784449840087 0.018741253941687852 0.046461598801874164 0.0087534789260130842 0.026950653094188898 -0.0021178279426984086 -0.0014962946639503459 0.0022588056604352052 0.030762566168701225 0.00039819352182010197
leaf_weight=215.17504255473614 260.45143445208669 392.37455328553915 363.12199744954705 781.23758883029222 1820.6885107308626 235.13489188998938 424.04599164426327 487.88311852142215 540.52442153170705 1450.9086753949523 592.96826904639602 1886.408927410841 10.193522065877913 734.68214575201273 465.95470236986876 137.07240723818541 142.04093004763126 170.20854012295604 416.07411520555615 411.99392630904913 238.4005007147789 529.54426445439458 520.67214829847217 336.52999306470156 542.26565539836884 524.10106129199266 784.86431326344609 690.13305594027042 228.92839967831969 727.92087876796722 939.33703273907304
leaf_count=1353 3770 4407 5687 9839 32941 3276 3762 6135 7891 29549 4955 33129 93 12218 5463 1230 812 2191 3507 4715 3837 3967 4370 2777 6206 5974 9716 9731 2091 6276 14141
internal_value=0 0.00641207 -0.0057681 0.0148393 -0.0175163 0.0099942 0.0136134 0.0171411 0.0049141 -0.0211322 0.0254368 -0.0129366 0.0103045 -0.0166366 0.00361295 0.0243494 0.0299744 0.00938914 0.0272764 0.00482189 -0.00709303 0.0248372 0.0296812 0.0378522 0.0143027 0.0175327 0.00405597 -0.00706094 0.0197184 0.0231882 -0.00454484
internal_weight=0 13030.8 5328.82 7701.94 4971.09 5285.46 4360.19 3578.96 2139.95 4244.68 2416.47 3188.87 1599.43 2793.77 726.406 1854.5 1823.51 1724.46 1608.33 1207.05 973.083 1466.29 1050.22 473.602 1236.58 1066.37 1196.86 925.268 1380.9 1151.97 1302.46
internal_count=246009 158231 79779 78452 87778 59488 46481 36642 26822 78545 18964 52957 18931 48996 9233 16136 14009 20506 12656 14524 16055 11844 8337 4007 14371 12180 14431 13007 12129 10038 19828
cat_boundaries=0 1 2 4 5 7 8 9 10
cat_threshold=24 226064 269484163 4752392 1 285747206 52728332 2 4169 25351
is_linear=0
shrinkage=0.05


Tree=17
num_leaves=32
num_cat=7
split_feature=41 40 26 41 40 39 40 16 41 39 7 8 11 40 15 39 1 6 7 38 38 1 6 8 6 38 41 29 39 8 41
split_gain=751.958 477.654 150.356 147.974 144.054 106.912 89.9294 87.3184 76.0396 62.9661 60.5297 70.5869 57.9429 57.9427 54.7063 53.8406 49.1895 48.7788 50.6887 48.089 48.0351 47.5561 44.0931 67.9599 48.6806 37.9524 36.7532 39.7206 35.9763 35.2461 34.125
threshold=0.56640625000000011 0.55249023437500011 0 0.39538574218750006 0.48669433593750006 0.20074462890625003 0.068084716796875014 -1775.4999999999998 0.34497070312500006 0.44323730468750006 15792.750000000002 451660.50000000006 1 0.068084716796875014 -12463.499999999998 0.67797851562500011 2 508497.75000000006 25017.750000000004 3 4 5 270022.50000000006 451660.50000000006 497634.75000000006 6 0.18145751953125003 2.5000000000000004 0.57543945312500011 675490.50000000012 0.083648681640625014
decision_type=10 10 9 8 10 8 8 2 8 10 10 8 9 8 2 10 9 2 10 9 9 9 2 8 2 9 8 2 10 8 10
left_child=1 2 7 9 13 14 -7 -1 19 20 -9 17 -5 -2 -4 22 -14 25 -19 -8 -3 -15 -10 24 -24 -12 -27 -28 -6 -18 -21
right_child=4 3 5 12 28 6 8 10 15 -11 11 -13 16 21 -16 -17 29 18 -20 30 -22 -23 23 -25 -26 26 27 -29 -30 -31 -32
leaf_value=0.01087932213280985 0.027862345825226977 0.017553670369446946 0.085407662728111761 -0.024136332272551918 -0.020956724281828609 0.030247074237234908 -0.0047880547107107749 0.013503362455055951 -0.0088638587517056375 -0.010345342776901641 0.0067825571702636589 0.021245801646319253 -0.013975500515482041 -0.014524948652779354 0.027893880334591899 -0.024892532219286945 0.0072834380742450222 -0.012592551732385701 0.075105001974495156 0.043635256271897238 0.00010478875324563457 0.0025465609265448324 0.010988733267709862 -0.0021516314323297885 0.043172387382518135 0.07460410077874606 0.029443851125579679 0.06254152674034287 -0.034602288350817544 -0.015780401193404864 0.015197874249162625
leaf_weight=1017.0328073501587 117.9742501154542 850.17505410686135 49.785327989608049 797.36236247420311 2407.464897017926 367.20169186592102 292.97192850336432 480.8530541472137 728.66380925104022 530.34624715894461 108.11045406758785 632.20284231007099 1477.065732434392 1124.3599926568568 243.90794112533331 209.90615359321237 621.54500373080373 18.324072685092688 163.45533904805779 116.82047770917416 738.89212903752923 640.2405079677701 541.26786747202277 1066.3385365232825 150.07429022714496 78.052223205566406 365.90777300298214 120.50098343938589 604.26942759752274 225.8369405195117 1088.1999510265887
leaf_count=10015 1298 9469 426 14683 46898 2648 2608 4381 8933 7820 919 5849 24780 17887 2050 3210 9365 161 1288 772 9226 8628 6468 13455 1699 483 3249 999 13067 3667 9608
internal_value=0 0.00606157 0.0138739 -0.00562373 -0.0169126 0.00838542 0.00652 0.0226985 0.00444272 0.00457253 0.0289236 0.0339116 -0.012546 -0.00606288 0.0376433 -0.000575363 -0.00843007 0.043284 0.0662647 0.0134748 0.00955133 -0.00833098 0.00147758 0.00576473 0.0179751 0.0370729 0.0420099 0.0376433 -0.0236945 0.00113666 0.017807
internal_weight=0 13080.8 7839.58 5241.22 4894.31 4855.14 4561.44 2984.44 4194.24 2119.41 1967.41 1486.55 3121.81 1882.57 293.693 2696.25 2324.45 854.351 181.779 1497.99 1589.07 1764.6 2486.34 1757.68 691.342 672.571 564.461 486.409 3011.73 847.382 1205.02
internal_count=246009 158231 79221 79010 87778 51877 49401 27344 46753 26515 17329 12948 52495 27813 2476 33765 37812 7099 1449 12988 18695 26515 30555 21622 8167 5650 4731 4248 59965 13032 10380
cat_boundaries=0 1 2 3 5 7 8 10
cat_threshold=197526 2 1 2421312268 24410244 269512867 4754440 1 2423804496 10504204
is_linear=0
shrinkage=0.05


Tree=18
num_leaves=32
num_cat=6
split_feature=41 40 41 40 11 39 15 39 1 19 15 26 95 8 6 7 38 16 38 38 41 41 40 39 16 40 40 7 8 6 6
split_gain=686.415 438.454 195.659 128.322 125.839 96.1734 86.9077 86.2995 68.804 72.1287 66.9412 63.5913 61.1407 69.0819 112.364 52.3586 47.5484 41.3427 40.9304 40.0951 39.8616 39.1934 36.1441 35.5855 34.2016 33.7563 32.6749 31.4779 36.1769 81.2357 31.2655
threshold=0.57006835937500011 0.41003417968750006 0.26147460937500006 0.25817871093750006 0 0.38757324218750006 -19984.499999999996 0.18780517578125003 1 18.500000000000004 -13913.499999999998 2 1.0000000180025095e-35 451660.50000000006 508497.75000000006 25017.750000000004 3 -921.49999999999989 4 5 0.071777343750000014 0.16101074218750003 0.010036468505859377 0.20489501953125003 -1842.4999999999998 0.68530273437500011 0.66479492187500011 12377.250000000002 451660.50000000006 518922.00000000006 152910.00000000003
decision_type=10 8 8 10 9 10 2 8 9 8 2 9 2 8 2 10 9 2 9 9 10 8 10 8 2 10 10 10 8 2 2
left_child=1 5 16 18 26 6 -1 -6 10 -10 -9 17 19 14 21 -16 20 -5 -2 -8 -3 -14 -7 -19 -23 -22 -4 -20 29 -29 -26
right_child=3 2 4 11 7 22 12 8 9 -11 -12 -13 13 -15 15 -17 -18 23 27 -21 25 24 -24 -25 30 -27 -28 28 -30 -31 -32
leaf_value=0.0039831003251383518 -0.012697223997169181 0.046951396187819266 -0.012909313746709925 -0.016991699356966435 0.028844038395971203 0.069020630658032309 -0.010719047279646675 -0.012893236667547268 -0.0066213558211772536 0.014438260668841331 0.0034650703846516532 -0.025034547610470227 0.047919672264268187 0.016269245244509498 0.0031581711800719825 0.069479974525500407 0.0014204295128703959 0.059217744599443123 -0.021404078231158079 0.016666526201897298 0.020124401480521938 0.011104581853848506 0.00048433122886631084 -0.0025149591793974524 0.0054110607283376945 -0.0038266754040968544 -0.028278418080648599 0.020253043629803114 0.0023779368407138759 0.11694014246235773 0.032550635310722512
leaf_weight=693.55055472999811 256.91796627268195 116.02071816474199 969.96840433031321 1163.0223728306592 220.13900707289577 19.677410274744034 166.3898144736886 2013.6406434364617 738.26076161488891 904.97747173532844 907.13893847540021 2435.463309969753 198.6253447085619 1010.4770231023431 33.800736896693707 248.85752086341381 589.71525121480227 24.709431320428848 60.834610983729362 596.99315608665347 866.40780486911535 366.04565428197384 859.35092000290751 422.56849820166826 121.65162634477019 177.19826504588127 537.43976860120893 171.65726097673178 202.55332063511014 24.872269608080387 831.21352725848556
leaf_count=7254 3772 936 15611 20844 2437 150 1486 32281 10642 12442 12959 49039 1118 8509 262 1766 6158 364 745 5008 7893 3153 9461 7372 1036 2038 10125 1929 2397 272 6550
internal_value=0 0.0056829 -0.00161099 -0.016463 -0.00572368 0.0170786 0.0201806 -0.00172947 -0.00320793 0.00497677 -0.00781266 -0.0199177 0.0233238 0.0267319 0.0326048 0.0615491 0.0131804 -0.0119492 0.00303498 0.0107754 0.0189849 0.0272136 0.00201854 0.000895404 0.0240953 0.0160576 -0.0182677 0.0118419 0.0172065 0.0324895 0.0290857
internal_weight=0 13187.5 8040.91 4762.6 6291.56 5146.63 4267.6 4784.16 4564.02 1643.24 2920.78 4045.76 3574.05 2810.67 1800.19 282.658 1749.34 1610.3 716.835 763.383 1159.63 1517.54 879.028 447.278 1318.91 1043.61 1507.41 459.917 399.083 196.53 952.865
internal_count=246009 159275 113522 86734 96497 45753 36142 70761 68324 23084 45240 77619 28888 22394 13885 2028 17025 28580 9115 6494 10867 11857 9611 7736 10739 9931 25736 5343 4598 2201 7586
cat_boundaries=0 1 2 3 5 7 9
cat_threshold=2 1 254738 1343316131 6849867 285751302 52736524 3306161676 19710469
is_linear=0
shrinkage=0.05


Tree=19
num_leaves=32
num_cat=7
split_feature=41 40 41 1 40 39 19 41 39 40 39 86 7 11 1 8 38 40 93 38 15 40 8 6 15 18 16 1 15 26 93
split_gain=626.366 400.148 151.488 131.054 123.895 96.0687 95.7264 78.4781 70.2787 61.298 56.49 53.3975 52.7015 52.6292 50.2982 48.9907 38.6686 37.9612 37.5397 36.6602 35.3368 38.9672 34.5214 42.6476 33.3858 33.3276 33.0232 32.978 31.9114 31.6148 31.2299
threshold=0.57006835937500011 0.59545898437500011 0.26574707031250006 0 0.48669433593750006 0.20880126953125003 17.500000000000004 0.33361816406250006 0.26550292968750006 0.39367675781250006 0.47326660156250006 0.065734863281250014 15005.250000000002 1 2 675490.50000000012 3 0.69116210937500011 -1164.4999999999998 4 -10032.499999999998 0.14727783203125003 675490.50000000012 323424.00000000006 -10234.499999999998 -599.49999999999989 -1918.4999999999998 5 -14362.499999999998 6 -1107.4999999999998
decision_type=10 10 8 9 10 8 8 8 8 10 10 10 10 9 9 8 9 10 10 9 2 8 10 2 2 2 2 9 2 9 10
left_child=1 2 13 6 14 -3 -4 29 24 11 16 19 -8 18 28 20 -9 27 -1 -10 21 -14 23 -21 -5 -20 -16 -6 -2 -7 -23
right_child=4 5 3 8 17 7 12 10 9 -11 -12 -13 15 -15 26 -17 -18 -19 25 22 -22 30 -24 -25 -26 -27 -28 -29 -30 -31 -32
leaf_value=0.01429824116838746 -0.017667668578451784 0.026820006338600308 0.0042820090890186074 0.038876629473914709 -0.02334695826716926 0.010933099425394822 0.0065884159895411411 0.0021452558268561738 6.7359365144468227e-05 -0.0065776653586717918 -0.025889569760234144 -0.01009040974290365 0.062338150245685758 0.0088322837655396315 -0.0094404870455214278 0.0098006262821924983 -0.013645730375417884 -0.031622926393839658 0.028840816052800158 0.0078003070152270655 0.014488181854135343 0.015561009443580949 -0.0039534982881451472 0.030254378107382792 0.0072770078559626005 0.057287686721501842 0.013449469465246193 -0.010000479090932261 0.00030325704046160767 -0.0055255913547982496 0.039803769542555538
leaf_weight=430.68029136955738 795.75192064419389 193.48906281962991 1034.5205306299031 177.0231497399509 1357.2302284240723 501.38969725742936 351.96687855198979 525.03523109853268 593.39988267049193 1819.1776189357042 722.91047319769859 409.44827758520842 138.3727001696825 574.94725025445223 248.66487749293447 276.52777095139027 1499.42118300125 801.12192678824067 1140.8946805819869 386.75641755387187 195.39433294162154 182.65867533907294 181.17373273149133 466.58304953575134 158.3623907007277 113.17515120655298 430.11236065253615 702.35671249032021 358.23559730499983 670.3516236692667 487.12352522835135
leaf_count=3292 13146 2192 11210 1725 28108 5711 3609 8390 6790 26234 13963 4340 948 4619 3349 3005 25879 17527 8089 3676 1718 2031 1849 4389 1483 793 5632 13617 5355 8331 5009
internal_value=0 0.00537458 0.0112143 0.00751504 -0.0158855 -0.00757285 0.0161809 -0.00927085 0.00200252 9.333e-05 -0.0138916 0.00604992 0.0237234 0.0224421 -0.00573624 0.0284347 -0.0096072 -0.0223878 0.0268747 0.0101095 0.0335694 0.0381828 0.0157171 0.0200776 0.0239559 0.031408 0.00506391 -0.0187956 -0.0120889 0.00156325 0.0331924
internal_weight=0 13230.8 9118.19 6858.49 4693.47 4112.6 2666.56 3919.11 4191.92 3856.54 2747.37 2037.36 1632.04 2259.7 1832.76 1280.08 2024.46 2860.71 1684.75 1627.91 1003.55 808.155 1034.51 853.339 335.386 1254.07 678.777 2059.59 1153.99 1171.74 669.782
internal_count=246009 159275 94809 78016 86734 64466 27530 62274 50486 47278 48232 21044 16320 16793 27482 12711 34269 59252 12174 16704 9706 7988 9914 8065 3208 8882 8981 41725 18501 14042 7040
cat_boundaries=0 1 2 3 5 7 8 9
cat_threshold=2 24 1 82511299 4764937 2366315349 51409553 1 50006
is_linear=0
shrinkage=0.05


Tree=20
num_leaves=32
num_cat=8
split_feature=41 40 95 1 40 15 11 39 19 39 39 16 40 38 40 38 38 38 39 40 40 40 0 1 90 119 39 39 16 6 8
split_gain=571.147 361.96 151.041 142.063 116.52 102.133 98.5976 84.1524 69.1707 65.8931 60.782 56.6992 49.8032 48.7708 44.9417 44.4798 43.6682 43.286 44.3582 39.1392 36.186 35.2898 35.0728 33.6486 33.133 32.3685 30.6608 30.2008 29.8314 29.0467 37.6154
threshold=0.57006835937500011 0.61254882812500011 1.0000000180025095e-35 0 0.46325683593750006 -16978.499999999996 1 0.24481201171875003 67.000000000000014 0.52954101562500011 0.62231445312500011 -1390.4999999999998 0.71606445312500011 2 0.022865295410156253 3 4 5 0.11056518554687501 0.69116210937500011 0.23004150390625003 0.068084716796875014 6 7 1.0000000180025095e-35 1.5000000000000002 0.59497070312500011 0.19244384765625003 -1918.4999999999998 267750.00000000006 451660.50000000006
decision_type=10 10 2 9 10 2 9 8 8 10 10 2 10 9 8 9 9 9 10 10 8 10 1 9 10 10 8 8 2 2 10
left_child=1 2 14 5 13 26 27 -3 20 11 12 -8 15 28 -1 22 -16 18 -10 23 -5 -13 -9 -6 -18 -14 -4 -7 -2 -22 -31
right_child=4 7 3 8 19 6 9 10 17 -11 -12 21 25 -15 16 -17 24 -19 -20 -21 29 -23 -24 -25 -26 -27 -28 -29 -30 30 -32
leaf_value=0.043962846189120844 -0.0077663179672212077 0.020409406874670001 0.020159676419541271 0.029230562827544455 -0.022392993038259486 0.037550761181215725 0.012428926547718119 0.0055965561714337074 0.046566086148810498 -0.0050511398637645795 -0.025986360890015034 0.055105741595109774 -0.027520463491439096 -0.012700756642041129 -0.016345975778791277 -0.011915160312839025 -0.0008838543720023315 0.018301783793293353 0.022211886812959349 -0.030937096202180488 -0.0092864212928623121 0.025780733548102498 -0.022676876497004995 -0.0092764496047277167 0.018323046958955317 -0.0059951590982267782 -0.0050301982298116112 -0.0061320627716740161 0.012175326789207278 0.025988748957694909 0.0039231710801383279
leaf_weight=55.680157497525215 309.1376887448132 236.13220247626305 133.32971958070993 318.3487663641572 1415.8086518906057 42.180784679949284 1003.7082502916455 1074.6803303323686 561.37641502544284 269.99831543117762 531.41216032579541 113.67030493170023 433.75180235132575 900.16764047369361 400.4894686602056 911.96434714645147 1788.50226123631 521.36846407875419 280.33262555301189 778.51763999462128 165.46451391279697 1052.6452699899673 122.1541041508317 746.89944059401751 256.77205222100019 292.36915437504649 1285.5849063433707 638.63024090602994 476.77674954757094 348.90257649123669 432.63296334818006
leaf_count=379 4291 2785 1568 2184 29828 352 10021 15764 4681 3620 10073 712 7520 14392 4581 14953 20101 4984 2583 17527 1757 9951 1842 14510 2781 4865 15421 7480 6186 3408 4909
internal_value=0 0.00508358 0.0101235 0.013815 -0.0153164 0.00845906 0.0135159 -0.00844447 0.0230657 0.0181684 -0.0104684 0.0211412 -0.00755957 -0.00483711 -0.000454906 -0.00367077 -0.00146612 0.0308807 0.0380034 -0.0213237 0.0146472 0.0286388 0.00268838 -0.0178631 0.00152003 -0.0188534 -0.00266321 -0.00337603 0.00427691 0.00974473 0.013774
internal_weight=0 13272.1 9669.62 7168.17 4627.31 4539.75 3120.83 3602.46 2628.43 2440.02 3366.33 2170.02 2834.92 1686.08 2501.44 2108.8 2445.76 1363.08 841.709 2941.23 1265.35 1166.32 1196.83 2162.71 2045.27 726.121 1418.91 680.811 785.914 947 781.536
internal_count=246009 159275 101473 73631 86734 49125 32136 57802 24506 24304 55017 20684 44944 24869 27842 32559 27463 12248 7264 61865 12258 10663 17606 44338 22882 12385 16989 7832 10477 10074 8317
cat_boundaries=0 1 2 4 6 8 10 11 12
cat_threshold=1 2 3163370 14181457 284771555 15250697 3573745421 19972740 273959584 4195330 1 1
is_linear=0
shrinkage=0.05


Tree=21
num_leaves=32
num_cat=5
split_feature=41 40 40 41 1 40 39 90 15 39 19 39 41 7 8 6 7 38 26 19 39 38 39 38 93 39 16 7 92 41 15
split_gain=525.084 241.437 214.921 118.924 93.7293 91.8418 64.9703 55.9863 54.3273 53.6451 51.4556 47.4268 46.8823 46.2015 63.0141 49.2752 53.433 41.8169 39.4723 41.7109 37.6555 35.1417 32.9298 34.237 32.5031 31.9356 32.1832 30.8901 30.8744 30.6541 29.3639
threshold=0.43029785156250006 0.61254882812500011 0.55004882812500011 0.16894531250000003 0 0.33361816406250006 0.24481201171875003 1.0000000180025095e-35 -14362.499999999998 0.30163574218750006 15.500000000000002 0.32043457031250006 0.23468017578125003 16548.750000000004 451660.50000000006 500964.75000000006 26120.250000000004 1 2 14.500000000000002 0.57299804687500011 3 0.16009521484375003 4 -1420.4999999999998 0.25866699218750006 -4557.4999999999991 15162.750000000002 1.0000000180025095e-35 0.65356445312500011 -14063.499999999998
decision_type=10 8 10 8 9 10 8 10 2 8 8 10 8 10 8 2 10 9 9 8 10 9 8 9 10 10 2 10 10 10 2
left_child=1 3 4 22 10 7 -3 17 29 -4 -2 -10 -8 -7 15 21 -17 -5 19 -14 28 -15 -1 -24 -23 26 -12 -28 -11 -6 -18
right_child=2 6 9 5 8 13 12 -9 11 20 25 -13 18 14 -16 16 30 -19 -20 -21 -22 24 23 -25 -26 -27 27 -29 -30 -31 -32
leaf_value=0.056913349131168148 -0.0036551718478618684 0.021938176977064013 0.0031097702883096886 0.0014537806076915499 -0.0079803014142575748 -0.0055111343344630692 0.0049079119667113239 0.033742281294626648 0.011439920144962498 -0.019525850552685447 -0.014680427859883053 -0.012705385641415868 -0.021334884241812763 -0.0051007402695980491 0.00045834510288867932 -0.0034023144147517464 0.073882310081350572 0.016738238777760567 -0.01749026638164734 0.0042219648069844878 -0.030839903157529876 -0.0046919023895640941 -0.0032686282131162876 0.026656820708027502 0.022198716963240526 -0.0023367437749077999 0.0029056068289431947 0.030019415337435951 0.001184252695688095 -0.022240911691280514 0.033248032915765453
leaf_weight=80.884870015084743 573.07937144488096 195.33959164097905 252.59558248147368 607.98799912631512 951.32130101695657 984.65096690505743 548.36697389185429 374.94954510778189 521.60940996930003 2420.1803625822067 58.499172989279032 333.34785322099924 221.56127424165606 263.47948944941163 1550.2956609725952 66.028689846396446 72.285374194383621 1817.3233125954866 1153.3340986818075 571.36498001217842 728.51330169290304 142.070542357862 111.07888838648796 995.98536635935307 537.58890062943101 192.14970779418945 134.23779759928584 483.04509706050158 194.4152230322361 624.02409640699625 115.49823311343789
leaf_count=479 7703 2114 4241 5717 14998 11633 5939 2958 6944 49711 795 5367 3453 3156 18812 719 746 13741 20321 8458 16837 1593 796 6689 5648 2676 1717 5892 3939 11126 1091
internal_value=0 0.00706889 -0.0103064 0.0115636 -0.00213121 0.0089172 -0.00583092 0.0157615 -0.00812197 -0.0191082 0.00797237 0.00202566 -0.00800536 0.00378154 0.00711217 0.0157302 0.0352861 0.0129817 -0.0116437 -0.00288283 -0.020787 0.0104674 0.0261156 0.0238655 0.0163373 0.0156498 0.0207641 0.0241231 -0.0179859 -0.0136292 0.0488898
internal_weight=0 10410.1 7467.02 7720.11 3871.31 6532.16 2689.97 2800.26 2430.3 3595.7 1441.01 854.957 2494.63 3731.9 2747.25 1196.95 253.812 2425.31 1946.26 792.926 3343.11 943.139 1187.95 1107.06 679.659 867.932 675.782 617.283 2614.6 1575.35 187.784
internal_count=246009 114063 131946 73778 57218 65814 40285 22416 38435 74728 18783 12311 38171 43398 31765 12953 2556 19458 32232 11911 70487 10397 7964 7485 7241 11080 8404 7609 53650 26124 1837
cat_boundaries=0 1 3 4 6 8
cat_threshold=2 3446293253 33571461 123666 2285964818 61112708 2369914884 19146757
is_linear=0
shrinkage=0.05


Tree=22
num_leaves=32
num_cat=10
split_feature=41 40 39 41 40 11 93 53 38 26 40 11 26 41 8 7 16 38 38 95 18 7 39 38 38 40 39 38 39 16 41
split_gain=483.494 298.53 158.329 132.256 107.59 79.4906 67.851 62.647 59.842 58.6034 50.6601 50.658 50.2102 49.3673 38.3942 56.1191 37.7388 34.8713 33.9608 33.5566 33.4116 33.3864 36.8166 32.2453 31.3348 29.6124 28.828 27.5079 26.9924 26.6182 24.6991
threshold=0.57006835937500011 0.35168457031250006 0.63598632812500011 0.34497070312500006 0.25817871093750006 0 -1041.4999999999998 0.056152343750000007 1 2 0.056869506835937507 3 4 0.12411499023437501 675490.50000000012 24491.250000000004 -3094.4999999999995 5 6 1.0000000180025095e-35 -4201.4999999999991 22785.750000000004 0.33850097656250006 7 8 0.068084716796875014 0.091461181640625014 9 0.14447021484375003 -1751.4999999999998 0.33850097656250006
decision_type=10 8 10 8 10 9 10 10 9 9 10 9 9 10 10 10 2 9 9 2 2 10 8 9 9 8 8 9 8 2 8
left_child=1 7 3 11 18 6 21 10 14 16 -1 -3 17 -13 15 -8 -6 29 -2 -15 -10 -5 -23 28 -9 -20 -21 -28 -18 -12 -14
right_child=4 2 -4 5 9 -7 8 24 20 -11 12 13 30 19 -16 -17 23 -19 25 26 -22 22 -24 -25 -26 -27 27 -29 -30 -31 -32
leaf_value=0.033852781777207692 -0.011567899479236664 -0.0016299944119268191 -0.020046295027977442 -0.016312820561277634 -0.022827548685978648 -0.013877758599569398 0.0071631958156285818 0.011310099691127529 -0.018573369979654628 -0.022779460499478377 0.016583805733783201 0.030235375808334193 0.018778442138961432 -0.001639556390496363 -0.003951732944991568 0.029329380056969979 0.19763252078188265 0.0042460999971019216 0.038788197535978668 0.073873668325004846 0.0020430717380403259 0.024938249487121058 -0.0053912766117117355 -0.0077872730659095503 -0.006279289120841647 0.0057005194559425001 0.02419397730754877 0.0082815928828222397 0.019593960840196673 0.035088897815305123 0.0064639807681030788
leaf_weight=470.07046515494585 239.08144630119205 671.60136630758643 940.54115219041705 655.43686186894774 416.34431269019842 1272.3362979032099 726.22695681080222 656.41205666214228 288.37072105705738 2266.7837860584259 285.2076053544879 392.56196482479572 630.5981537476182 423.30985299870372 306.62496558576822 470.55723103508353 2.1790584139525881 189.99873505532742 81.832402318716049 20.166825219988823 617.00265569984913 115.34865474328399 754.82177577540278 1027.4176945127547 401.97666415944695 389.37611269578338 412.424719825387 875.97366011142731 92.475810527801514 609.86653246730566 1149.2945369742811
leaf_count=2990 3663 7407 16782 9894 8149 21414 9417 5207 4670 49039 2278 2959 4383 4550 4337 5862 29 1520 782 150 9254 1431 11701 18762 3890 4670 4043 9056 1640 4346 11734
internal_value=0 0.00460271 -0.000640441 0.00164027 -0.0143266 -0.00307001 0.000459194 0.0152757 0.00568591 -0.0176611 0.0186392 0.0104117 0.016143 0.0141594 0.0117559 0.0158786 -0.00990699 0.0246363 0.00353719 0.0105973 -0.00447406 -0.00779026 -0.00137083 -0.00520112 0.00467717 0.0112088 0.0145558 0.0136273 0.0214287 0.0288699 0.0107664
internal_weight=0 13336.7 8943.31 8002.76 4515.49 5206.73 3934.39 4393.42 2408.78 3805.2 3335.04 2796.04 2864.97 2124.44 1503.41 1196.78 1538.42 1085.07 710.29 1731.88 905.373 1525.61 870.17 1122.07 1058.39 471.209 1308.57 1288.4 94.6549 895.074 1779.89
internal_count=246009 159275 122927 106145 86734 77980 56566 36348 33540 77619 27251 28165 24261 20758 19616 15279 28580 8144 9115 17799 13924 23026 13132 20431 9097 5452 13249 13099 1669 6624 16117
cat_boundaries=0 1 3 4 5 6 8 10 12 14 16
cat_threshold=24 8215019 13120905 254738 2 200980 1346447546 21529794 285747206 52695564 153632898 22020176 203448561 15248720 17850499 6325274
is_linear=0
shrinkage=0.05


Tree=23
num_leaves=32
num_cat=7
split_feature=40 41 11 41 15 39 19 1 7 8 6 40 7 39 40 39 39 41 38 38 41 6 8 38 38 18 41 16 38 39 7
split_gain=444.38 262.858 143.124 134.077 124.586 104.03 82.0619 81.6393 64.0448 79.7458 64.5432 52.1547 49.2361 46.2998 44.1702 42.99 40.7673 40.3795 39.7388 38.722 38.2481 36.659 39.9958 35.1979 34.1604 33.0798 32.8497 31.5633 39.7135 30.8297 30.7385
threshold=0.61645507812500011 0.62207031250000011 0 0.43383789062500006 -18799.499999999996 0.27209472656250006 18.500000000000004 1 16809.750000000004 451660.50000000006 508497.75000000006 0.71899414062500011 25017.750000000004 0.24481201171875003 0.15496826171875003 0.14447021484375003 0.41003417968750006 0.67773437500000011 2 3 0.39538574218750006 180290.25000000003 675490.50000000012 4 5 -2222.4999999999995 0.27148437500000006 -1798.4999999999998 6 0.091461181640625014 26214.750000000004
decision_type=10 10 9 8 2 10 8 9 10 8 2 10 10 8 10 8 10 10 9 9 8 2 10 9 9 2 8 2 9 8 10
left_child=1 2 15 13 7 6 29 -4 -8 10 23 16 -12 -2 -3 -1 17 27 20 -15 -17 -7 30 -10 -16 -9 -25 -5 -29 -6 -23
right_child=3 14 4 11 5 21 8 25 9 -11 12 -13 -14 19 24 18 -18 -19 -20 -21 -22 22 -24 26 -26 -27 -28 28 -30 -31 -32
leaf_value=0.038261898257280338 0.027855094530119986 0.0088824646179376712 0.016217928985852802 -0.015898895773227627 0.058395818562300132 -0.014957890431139688 0.011825839949439516 -0.0083456938091755507 -0.0078661954647326147 0.016707686939659693 -0.0033128880125009742 -0.028413619888518322 0.062125607816166085 0.0026313265589818337 -0.019571022558387923 0.011086512200738467 -0.024597690034691831 -0.023945564979974746 -0.013904083135753739 -0.014140875295723724 -0.0075218501087954571 0.0048217077832055566 -0.0074080891169310608 0.047500744559429979 -0.0060163096692546136 0.017132042406350467 0.025951565591771475 0.010177696837370794 -0.011721502794556814 0.0060965698394321007 0.020940316953976527
leaf_weight=57.949097134172916 128.71801478043199 246.70427191630006 571.24705667048693 510.95532771572471 28.829163886606693 221.7292079180479 1050.4681830666959 1368.9141595736146 63.975940827280283 1095.5230029709637 32.146783549338579 943.29588091373444 271.60950112715364 955.28817500546575 1062.0074070841074 493.6755953207612 719.93159360066056 420.80555675178766 795.63713784143329 526.74281711503863 626.68668219447136 765.09005378559232 383.61844113096595 237.80840314924717 874.68969491869211 140.47733047604561 689.94724901020527 433.9128963239491 377.94990456104279 1248.6021281555295 482.19151083007455
leaf_count=479 1279 2944 6217 9700 218 2631 9838 17912 585 10657 291 20663 2069 13058 20520 4646 16125 9474 10141 7932 8704 8837 4898 1459 14654 1719 6267 7417 7523 11816 5336
internal_value=0 0.00475791 0.00800462 -0.012796 0.010769 0.0141575 0.0180993 0.000118507 0.0221164 0.0266375 0.0350345 -0.018416 0.0552002 -0.000909249 -0.0110431 -0.00414583 -0.0145879 -0.0104549 -0.00545008 -0.0034075 0.000671729 0.00411729 0.00671065 0.028858 -0.0135813 -0.00597451 0.0311395 -0.00616333 -3.61453e-05 0.00727686 0.0110531
internal_weight=0 12809.5 10626.1 5017.6 8652.18 6571.54 4718.91 2080.64 3441.48 2391.01 1295.49 3406.85 303.756 1610.75 2183.4 1973.95 2463.56 1743.62 1916 1482.03 1120.36 1852.63 1630.9 991.732 1936.7 1509.39 927.756 1322.82 811.863 1277.43 1247.28
internal_count=246009 152838 114720 93171 90750 64902 43200 25848 31166 21328 10671 70902 2360 22269 38118 23970 50239 34114 23491 20990 13350 21702 19071 8311 35174 19631 7726 24640 14940 12034 14173
cat_boundaries=0 1 2 4 6 8 10 12
cat_threshold=2 2 696344993 38319449 2016564387 29934619 2152727557 2099332 3556850454 36225934 338887666 4761037
is_linear=0
shrinkage=0.05


Tree=24
num_leaves=32
num_cat=6
split_feature=40 41 41 16 95 38 40 28 39 39 39 41 41 8 7 39 39 15 16 71 11 40 2 1 15 38 15 18 38 86 19
split_gain=409.035 211.912 184.602 108.758 116.106 79.2262 70.9501 59.6716 58.173 53.1813 49.4538 44.3139 42.375 41.8936 42.8896 41.0971 40.9211 37.9237 37.2985 36.9301 35.8078 33.7878 33.4361 35.3628 33.6949 32.5161 32.0444 31.4444 29.9253 29.3358 28.8195
threshold=0.55004882812500011 0.41271972656250006 0.62207031250000011 -2597.4999999999995 1.0000000180025095e-35 0 0.69995117187500011 2.5000000000000004 0.16510009765625003 0.61938476562500011 0.44323730468750006 0.057052612304687507 0.67773437500000011 675490.50000000012 15990.750000000002 0.27209472656250006 0.17413330078125003 -19506.499999999996 -2467.4999999999995 0.056045532226562507 1 0.15496826171875003 2 3 -10447.499999999998 4 -16978.499999999996 -4212.4999999999991 5 0.080932617187500014 13.500000000000002
decision_type=10 8 10 2 2 9 10 2 8 10 10 8 10 8 10 10 8 2 2 10 9 10 1 9 2 9 2 2 9 10 8
left_child=2 10 3 8 20 -6 9 11 -1 12 13 -7 18 14 -2 22 -4 -16 -3 -9 27 -18 23 26 -25 -10 -13 -5 -20 -28 -19
right_child=1 6 16 4 5 7 -8 19 25 -11 -12 15 -14 -15 17 -17 21 30 28 -21 -22 -23 -24 24 -26 -27 29 -29 -30 -31 -32
leaf_value=0.054235936113741494 -0.0028546187351545967 -0.015705947992843097 0.043312167831514051 -0.007139398837084099 0.0026237783809696155 0.057519645950053849 -0.024728906009771977 0.034422172448664905 0.0099901148744713994 -0.026266104523316815 -0.0096613794836990993 -0.001529648065247538 -0.019911985215060539 -0.0064126851749004609 -0.0040329688414664283 0.0050437065585418467 0.0070660437697158658 0.0065291822818169636 -0.010321298201359567 0.011459231857901139 -0.010397649888236604 -0.013144281077156296 0.0091556439405725762 0.039864137322731807 0.014054332434253681 -0.0068554036856906479 0.025107283219291184 0.0097475961554739209 0.0029226077013764446 -0.0041272288682211713 0.027639359923735181
leaf_weight=44.907070104032755 367.02454021945596 699.87212331593037 36.57752439007163 372.22008997574449 939.7400303222239 61.327336922287941 1353.9311382994056 796.25546477362514 352.29245672747493 514.66829078271985 557.50228198617697 199.65572240948677 690.01063977181911 417.43474516645074 173.1974052041769 822.67419747635722 242.64419784024358 224.0922605060041 675.98669755458832 224.44626150652766 473.13524325937033 1399.9872596934438 708.26420420780778 407.99866362288594 183.25159242749214 1377.3009255118668 625.04989189654589 1062.654348641634 1121.1791533567011 99.467349380254745 580.44902411103249
leaf_count=362 4355 12942 468 4401 10872 333 29932 6829 3695 11959 8634 2002 15282 5321 2258 9092 2889 2522 12921 2081 5304 24420 6039 3192 1367 15084 5295 10692 18317 900 6249
internal_value=0 -0.00919393 0.00619092 0.00910487 0.0119162 0.015874 -0.0149349 0.0188382 -0.00194736 -0.0113526 0.00331812 0.0154388 -0.0089443 0.00742441 0.0117197 0.0145916 -0.00899414 0.0171906 -0.00591358 0.0293728 0.00140326 -0.0101589 0.0181239 0.0223155 0.0318647 -0.0034061 0.0162062 0.0053298 -0.00210013 0.0210937 0.0217595
internal_weight=0 7375.35 10429.8 8750.64 6976.14 5068.13 5055.65 4128.39 1774.5 3701.72 2319.7 3107.69 3187.05 1762.2 1344.76 3046.36 1679.21 977.739 2497.04 1020.7 1908.01 1642.63 2223.69 1515.42 591.25 1729.59 924.173 1434.87 1797.17 724.517 804.541
internal_count=246009 130692 115317 87540 68399 48002 101353 37130 19141 71421 29339 28220 59462 20705 15384 27887 27777 11029 44180 8910 20397 27309 18795 12756 4559 18779 8197 15093 31238 6195 8771
cat_boundaries=0 2 3 4 5 7 9
cat_threshold=2487915780 34961925 24 1 1 3699094 14995537 4236409868 51137024
is_linear=0
shrinkage=0.05


Tree=25
num_leaves=32
num_cat=8
split_feature=41 40 41 40 39 19 38 11 40 39 41 38 38 1 40 16 15 40 8 7 19 70 39 11 18 38 38 93 39 8 6
split_gain=373.493 232.528 129.864 90.9224 88.341 69.4833 68.7842 50.1208 49.4791 51.3056 43.1232 42.2914 40.12 38.5988 33.3643 33.0349 37.0535 30.6822 30.3116 30.7085 29.5434 29.8834 28.6979 27.2309 27.1971 27.0462 26.8588 26.4734 24.9333 24.674 32.0285
threshold=0.57006835937500011 0.33361816406250006 0.34497070312500006 0.48669433593750006 0.59252929687500011 12.500000000000002 0 1 0.045761108398437507 0.41833496093750006 0.12411499023437501 2 3 4 0.69116210937500011 -1775.4999999999998 -9876.4999999999982 0.068084716796875014 681261.75000000012 23694.750000000004 4.5000000000000009 0.027351379394531253 0.71118164062500011 5 -4201.4999999999991 6 7 -1283.4999999999998 0.13250732421875003 451660.50000000006 343820.25000000006
decision_type=10 8 8 10 10 8 9 9 10 10 10 9 9 9 10 2 2 8 8 10 8 10 10 9 2 9 9 10 8 8 2
left_child=1 8 7 12 5 28 23 -3 -1 11 -9 15 -2 -8 22 -10 29 -14 19 -15 -12 26 25 -7 -25 -5 -22 -19 -4 30 -17
right_child=3 2 4 14 -6 6 13 10 9 -11 20 -13 17 18 -16 16 -18 27 -20 -21 21 -23 -24 24 -26 -27 -28 -29 -30 -31 -32
leaf_value=0.028477614961464837 -0.013102504715730526 -0.0031651477834700251 0.037071071166831067 -0.0026342580081337415 -0.020581335646384785 -0.019754350061886014 0.00068074875741866545 0.025206012982559579 0.0086661529578464878 -0.0028575120142607983 -0.012458379183067435 0.006305537005223464 0.03280658136837044 0.0084481765284193707 -0.028209648370980969 0.023719118056126143 0.0083731930044655331 -0.012805408158286539 -0.0037607938875698584 0.028326132095748541 0.028815732833904387 0.0017214532004367336 -0.034812612126027841 -0.013880191862381508 0.0010058606501275288 -0.017154000482407668 0.0102093603514754 0.0051622416601752813 -0.014860568630160505 0.016533542009428619 0.045132837553331598
leaf_weight=498.76996578276157 728.11715910956264 814.82305295392871 23.624989677220583 449.67154355347157 777.30649244785309 336.88823983073235 1424.385719742626 448.41368669271469 597.74240185692906 520.08900877460837 161.57699102535844 1165.8830758407712 75.628772482275963 402.43081156164408 698.72068729624152 422.7668727375567 343.71952880173922 293.48134309798479 200.41541177406907 375.6592765673995 261.78677481040359 695.03544983267784 173.22215586155653 462.27575054764748 912.51069210469723 1262.7167898602784 851.63058386743069 680.03167907893658 1066.3575502336025 360.04015146940947 297.49771980941296
leaf_count=3098 12820 9326 260 9339 15661 6126 20103 3308 4664 5502 1702 10398 676 4986 17527 3039 2378 4353 2820 4431 2559 7392 4430 7700 14017 27956 8663 9633 16573 2660 1909
internal_value=0 0.0039517 -0.000494773 -0.0128902 -0.00485858 -0.00251037 0.00046312 0.0075787 0.0136925 0.0117036 0.0111654 0.0140794 -0.00418494 0.00590856 -0.0188769 0.0184398 0.0226719 0.00210875 0.0135789 0.0180452 0.00802623 0.00985644 -0.0154186 -0.00717393 -0.00397073 -0.0134567 0.0149346 -0.000254399 -0.013735 0.0272213 0.0325638
internal_weight=0 13421.6 9215.12 4361.59 5981.85 5204.55 4114.57 3233.27 4206.51 3707.74 2418.44 3187.65 1777.26 2402.89 2584.33 2021.77 1424.02 1049.14 978.505 778.09 1970.03 1808.45 1885.61 1711.67 1374.79 1712.39 1113.42 973.513 1089.98 1080.3 720.265
internal_count=246009 159275 125627 86734 92677 77016 60183 32950 33648 30550 23624 25048 27482 32340 59252 14650 9986 14662 12237 9417 20316 18614 41725 27843 21717 37295 11222 13986 16833 7608 4948
cat_boundaries=0 2 3 5 7 8 9 11 13
cat_threshold=3645520917 53822118 2 805397218 21530050 1430862597 52726412 1 2 568035531 22094961 336617618 2621442
is_linear=0
shrinkage=0.05


Tree=26
num_leaves=32
num_cat=7
split_feature=40 41 1 41 19 39 35 41 39 39 40 19 6 8 18 39 12 15 39 40 41 38 38 41 16 38 72 29 15 38 38
split_gain=348.144 205.487 148.956 106.728 98.8502 87.119 68.4897 56.3992 50.694 49.4835 47.3535 46.0836 48.4117 70.6415 44.7695 38.8384 36.4981 37.2249 36.3613 35.2843 35.0491 33.1131 29.7615 28.4115 28.0644 35.6312 27.9257 31.6709 26.936 26.2341 25.1132
threshold=0.61645507812500011 0.34497070312500006 0 0.43383789062500006 19.500000000000004 0.31091308593750006 1.0000000180025095e-35 0.71459960937500011 0.17877197265625003 0.61938476562500011 0.71899414062500011 11.500000000000002 279173.25000000006 451660.50000000006 -2967.4999999999995 0.24481201171875003 1 -9790.4999999999982 0.41003417968750006 0.25817871093750006 0.67773437500000011 2 3 0.16101074218750003 -1798.4999999999998 4 0.95483398437500011 1.5000000000000002 -11668.499999999998 5 6
decision_type=10 8 9 8 8 8 2 10 10 10 10 8 2 10 2 8 9 2 10 10 10 9 9 10 2 9 8 2 2 9 9
